{"learner":{"attributes":{"scikit_learn":"{\"_estimator_type\": \"classifier\"}"},"feature_names":["pct_tl_open_L6M","pct_tl_closed_L6M","Tot_TL_closed_L12M","pct_tl_closed_L12M","Tot_Missed_Pmnt","CC_TL","Home_TL","PL_TL","Secured_TL","Unsecured_TL","Other_TL","Age_Oldest_TL","Age_Newest_TL","time_since_recent_payment","max_recent_level_of_deliq","num_deliq_6_12mts","num_times_60p_dpd","num_std_12mts","num_sub","num_sub_6mts","num_sub_12mts","num_dbt","num_dbt_12mts","num_lss","num_lss_12mts","recent_level_of_deliq","CC_enq_L12m","PL_enq_L12m","time_since_recent_enq","enq_L3m","NETMONTHLYINCOME","Time_With_Curr_Empr","pct_currentBal_all_TL","CC_Flag","PL_Flag","pct_PL_enq_L6m_of_ever","pct_CC_enq_L6m_of_ever","HL_Flag","GL_Flag","EDUCATION","MARITALSTATUS_Married","MARITALSTATUS_Single","GENDER_F","GENDER_M","last_prod_enq2_AL","last_prod_enq2_CC","last_prod_enq2_ConsumerLoan","last_prod_enq2_HL","last_prod_enq2_PL","last_prod_enq2_others","first_prod_enq2_AL","first_prod_enq2_CC","first_prod_enq2_ConsumerLoan","first_prod_enq2_HL","first_prod_enq2_PL","first_prod_enq2_others"],"feature_types":["float","float","int","float","int","int","int","int","int","int","int","int","int","int","int","int","int","int","int","int","int","int","int","int","int","int","int","int","int","int","int","int","float","int","int","float","float","int","int","int","i","i","i","i","i","i","i","i","i","i","i","i","i","i","i","i"],"gradient_booster":{"model":{"gbtree_model_param":{"num_parallel_tree":"1","num_trees":"400"},"iteration_indptr":[0,4,8,12,16,20,24,28,32,36,40,44,48,52,56,60,64,68,72,76,80,84,88,92,96,100,104,108,112,116,120,124,128,132,136,140,144,148,152,156,160,164,168,172,176,180,184,188,192,196,200,204,208,212,216,220,224,228,232,236,240,244,248,252,256,260,264,268,272,276,280,284,288,292,296,300,304,308,312,316,320,324,328,332,336,340,344,348,352,356,360,364,368,372,376,380,384,388,392,396,400],"tree_info":[0,1,2,3,0,1,2,3,0,1,2,3,0,1,2,3,0,1,2,3,0,1,2,3,0,1,2,3,0,1,2,3,0,1,2,3,0,1,2,3,0,1,2,3,0,1,2,3,0,1,2,3,0,1,2,3,0,1,2,3,0,1,2,3,0,1,2,3,0,1,2,3,0,1,2,3,0,1,2,3,0,1,2,3,0,1,2,3,0,1,2,3,0,1,2,3,0,1,2,3,0,1,2,3,0,1,2,3,0,1,2,3,0,1,2,3,0,1,2,3,0,1,2,3,0,1,2,3,0,1,2,3,0,1,2,3,0,1,2,3,0,1,2,3,0,1,2,3,0,1,2,3,0,1,2,3,0,1,2,3,0,1,2,3,0,1,2,3,0,1,2,3,0,1,2,3,0,1,2,3,0,1,2,3,0,1,2,3,0,1,2,3,0,1,2,3,0,1,2,3,0,1,2,3,0,1,2,3,0,1,2,3,0,1,2,3,0,1,2,3,0,1,2,3,0,1,2,3,0,1,2,3,0,1,2,3,0,1,2,3,0,1,2,3,0,1,2,3,0,1,2,3,0,1,2,3,0,1,2,3,0,1,2,3,0,1,2,3,0,1,2,3,0,1,2,3,0,1,2,3,0,1,2,3,0,1,2,3,0,1,2,3,0,1,2,3,0,1,2,3,0,1,2,3,0,1,2,3,0,1,2,3,0,1,2,3,0,1,2,3,0,1,2,3,0,1,2,3,0,1,2,3,0,1,2,3,0,1,2,3,0,1,2,3,0,1,2,3,0,1,2,3,0,1,2,3,0,1,2,3,0,1,2,3,0,1,2,3,0,1,2,3,0,1,2,3,0,1,2,3,0,1,2,3,0,1,2,3,0,1,2,3,0,1,2,3,0,1,2,3],"trees":[{"base_weights":[-3.5726666E-1,-5.305028E-1,7.422891E-1,-5.800994E-1,6.018338E-1,1.2531741E0,2.410293E-1,-5.988455E-1,2.4844016E-1,9.307136E-2,1.1392708E0,7.412354E-1,1.5170653E0,-6.2638916E-2,1.0107108E0],"categories":[],"categories_nodes":[],"categories_segments":[],"categories_sizes":[],"default_left":[0,0,0,0,0,0,0,0,0,0,0,0,0,0,0],"id":0,"left_children":[1,3,5,7,9,11,13,-1,-1,-1,-1,-1,-1,-1,-1],"loss_changes":[2.4021929E3,6.1288696E2,4.2272693E2,1.6614722E2,1.1057887E2,8.9351074E1,2.1390977E2,0E0,0E0,0E0,0E0,0E0,0E0,0E0,0E0],"parents":[2147483647,0,0,1,1,2,2,3,3,4,4,5,5,6,6],"right_children":[2,4,6,8,10,12,14,-1,-1,-1,-1,-1,-1,-1,-1],"split_conditions":[9.1E1,1.7E1,1E0,1.595E3,1.05E2,1.09E2,1E1,-5.988455E-1,2.4844016E-1,9.307136E-2,1.1392708E0,7.412354E-1,1.5170653E0,-6.2638916E-2,1.0107108E0],"split_indices":[11,17,29,28,28,11,17,0,0,0,0,0,0,0,0],"split_type":[0,0,0,0,0,0,0,0,0,0,0,0,0,0,0],"sum_hessian":[1.2619125E4,1.0909875E4,1.70925E3,1.0461E4,4.48875E2,8.35875E2,8.73375E2,1.0241625E4,2.19375E2,2.4075E2,2.08125E2,2.985E2,5.37375E2,6.17625E2,2.5575E2],"tree_param":{"num_deleted":"0","num_feature":"56","num_nodes":"15","size_leaf_vector":"1"}},{"base_weights":[9.496142E-1,1.2100148E0,2.4717133E-1,1.3577081E0,4.9432836E-2,-3.2088994E-3,7.9375285E-1,1.5179328E0,9.808917E-1,3.0793157E-1,-3.3652362E-1,4.3528092E-1,-3.4029403E-1,9.455905E-1,1.3395847E-3],"categories":[],"categories_nodes":[],"categories_segments":[],"categories_sizes":[],"default_left":[0,0,0,0,0,0,0,0,0,0,0,0,0,0,0],"id":1,"left_children":[1,3,5,7,9,11,13,-1,-1,-1,-1,-1,-1,-1,-1],"loss_changes":[2.2935586E3,1.5622129E3,4.76596E2,4.656123E2,1.0426364E2,3.4466342E2,1.2149567E2,0E0,0E0,0E0,0E0,0E0,0E0,0E0,0E0],"parents":[2147483647,0,0,1,1,2,2,3,3,4,4,5,5,6,6],"right_children":[2,4,6,8,10,12,14,-1,-1,-1,-1,-1,-1,-1,-1],"split_conditions":[2E0,9.8E1,5.2E1,1E0,7E0,3E0,5E0,1.5179328E0,9.808917E-1,3.0793157E-1,-3.3652362E-1,4.3528092E-1,-3.4029403E-1,9.455905E-1,1.3395847E-3],"split_indices":[29,11,11,14,17,29,29,0,0,0,0,0,0,0,0],"split_type":[0,0,0,0,0,0,0,0,0,0,0,0,0,0,0],"sum_hessian":[1.2619125E4,9.195375E3,3.42375E3,8.1495E3,1.045875E3,2.33625E3,1.0875E3,5.697375E3,2.452125E3,6.42E2,4.03875E2,1.002375E3,1.333875E3,9.01875E2,1.85625E2],"tree_param":{"num_deleted":"0","num_feature":"56","num_nodes":"15","size_leaf_vector":"1"}},{"base_weights":[-2.6051643E-1,-6.926539E-2,-4.654565E-1,6.514526E-2,-3.357139E-1,-5.6259894E-1,-2.3013508E-1,1.3748902E-1,-4.8016277E-1,-4.458382E-1,-2.0229007E-1,-5.8438396E-1,-8.9659296E-2,-9.379853E-2,-4.882943E-1],"categories":[],"categories_nodes":[],"categories_segments":[],"categories_sizes":[],"default_left":[0,0,0,0,0,0,0,0,0,0,0,0,0,0,0],"id":2,"left_children":[1,3,5,7,9,11,13,-1,-1,-1,-1,-1,-1,-1,-1],"loss_changes":[4.8926636E2,2.3746724E2,1.3062439E2,1.6755974E2,2.6089691E1,3.713147E1,5.764102E1,0E0,0E0,0E0,0E0,0E0,0E0,0E0,0E0],"parents":[2147483647,0,0,1,1,2,2,3,3,4,4,5,5,6,6],"right_children":[2,4,6,8,10,12,14,-1,-1,-1,-1,-1,-1,-1,-1],"split_conditions":[9.1E1,5.1E1,1E0,5E0,3E0,1E0,2E0,1.3748902E-1,-4.8016277E-1,-4.458382E-1,-2.0229007E-1,-5.8438396E-1,-8.9659296E-2,-9.379853E-2,-4.882943E-1],"split_indices":[28,11,14,29,14,0,17,0,0,0,0,0,0,0,0],"split_type":[0,0,0,0,0,0,0,0,0,0,0,0,0,0,0],"sum_hessian":[1.2619125E4,6.5535E3,6.065625E3,4.331625E3,2.221875E3,4.26225E3,1.803375E3,3.841125E3,4.905E2,1.174875E3,1.047E3,4.054125E3,2.08125E2,1.206375E3,5.97E2],"tree_param":{"num_deleted":"0","num_feature":"56","num_nodes":"15","size_leaf_vector":"1"}},{"base_weights":[-3.3024633E-1,-4.7403866E-1,1.1469301E0,-5.737315E-1,-7.298481E-2,1.4207096E0,1.6302186E-1,-6.513243E-1,-4.013118E-1,-2.9618642E-1,2.7873972E-1,1.5218678E0,-0E0,-6.245847E-2,9.7475725E-1],"categories":[],"categories_nodes":[],"categories_segments":[],"categories_sizes":[],"default_left":[0,0,0,0,0,0,0,0,0,0,0,0,0,0,0],"id":3,"left_children":[1,3,5,7,9,11,13,-1,-1,-1,-1,-1,-1,-1,-1],"loss_changes":[2.674413E3,4.5358618E2,2.839126E2,1.1224609E2,1.8177148E2,1.1795764E2,5.521601E1,0E0,0E0,0E0,0E0,0E0,0E0,0E0,0E0],"parents":[2147483647,0,0,1,1,2,2,3,3,4,4,5,5,6,6],"right_children":[2,4,6,8,10,12,14,-1,-1,-1,-1,-1,-1,-1,-1],"split_conditions":[4E0,2E0,6.3E1,1E0,1E0,1E1,7E0,-6.513243E-1,-4.013118E-1,-2.9618642E-1,2.7873972E-1,1.5218678E0,-0E0,-6.245847E-2,9.7475725E-1],"split_indices":[29,29,11,14,14,17,29,0,0,0,0,0,0,0,0],"split_type":[0,0,0,0,0,0,0,0,0,0,0,0,0,0,0],"sum_hessian":[1.2619125E4,1.15065E4,1.112625E3,9.195375E3,2.311125E3,8.62125E2,2.505E2,6.299625E3,2.89575E3,1.431375E3,8.7975E2,8.02125E2,6E1,1.87125E2,6.3375E1],"tree_param":{"num_deleted":"0","num_feature":"56","num_nodes":"15","size_leaf_vector":"1"}},{"base_weights":[-1.7274632E-1,-4.507368E-1,2.5138572E-1,-5.07449E-1,2.113591E-1,3.354597E-2,6.033294E-1,-5.268483E-1,-0E0,4.2734078E-1,-2.553922E-1,-2.4504763E-1,2.3120964E-1,6.9763917E-1,-1.0458834E-1],"categories":[],"categories_nodes":[],"categories_segments":[],"categories_sizes":[],"default_left":[0,0,0,0,0,0,0,0,0,0,0,0,0,0,0],"id":4,"left_children":[1,3,5,7,9,11,13,-1,-1,-1,-1,-1,-1,-1,-1],"loss_changes":[8.890104E2,1.7423657E2,2.2090341E2,4.0944336E1,3.675438E1,1.0178379E2,8.0500916E1,0E0,0E0,0E0,0E0,0E0,0E0,0E0,0E0],"parents":[2147483647,0,0,1,1,2,2,3,3,4,4,5,5,6,6],"right_children":[2,4,6,8,10,12,14,-1,-1,-1,-1,-1,-1,-1,-1],"split_conditions":[6E1,1.2E1,7E0,1.15E3,2E0,6.3E1,3E0,-5.268483E-1,-0E0,4.2734078E-1,-2.553922E-1,-2.4504763E-1,2.3120964E-1,6.9763917E-1,-1.0458834E-1],"split_indices":[11,17,17,28,29,28,29,0,0,0,0,0,0,0,0],"split_type":[0,0,0,0,0,0,0,0,0,0,0,0,0,0,0],"sum_hessian":[7.521209E3,4.557551E3,2.9636582E3,4.2120986E3,3.4545224E2,1.8488188E3,1.1148395E3,4.0550552E3,1.5704332E2,2.5087363E2,9.457862E1,7.462289E2,1.10259E3,9.9625714E2,1.1858229E2],"tree_param":{"num_deleted":"0","num_feature":"56","num_nodes":"15","size_leaf_vector":"1"}},{"base_weights":[1.9085675E-1,2.722369E-1,2.1897273E-2,2.9932967E-1,-2.95139E-1,-1.9728567E-1,1.3026555E-1,3.1718445E-1,-3.8626084E-1,-6.363333E-1,-0E0,-3.303057E-1,5.833605E-1,2.5437212E-1,-4.6963144E-2],"categories":[],"categories_nodes":[],"categories_segments":[],"categories_sizes":[],"default_left":[0,0,0,0,0,0,0,0,0,0,0,0,0,0,0],"id":5,"left_children":[1,3,5,7,9,11,13,-1,-1,-1,-1,-1,-1,-1,-1],"loss_changes":[1.8740524E2,1.4314136E2,1.0722463E2,1.0833801E2,4.4790142E1,1.5055399E2,6.961203E1,0E0,0E0,0E0,0E0,0E0,0E0,0E0,0E0],"parents":[2147483647,0,0,1,1,2,2,3,3,4,4,5,5,6,6],"right_children":[2,4,6,8,10,12,14,-1,-1,-1,-1,-1,-1,-1,-1],"split_conditions":[1E0,2E1,1.7E1,1.981E3,1E0,1.84E2,4E0,3.1718445E-1,-3.8626084E-1,-6.363333E-1,-0E0,-3.303057E-1,5.833605E-1,2.5437212E-1,-4.6963144E-2],"split_indices":[27,17,11,28,14,28,25,0,0,0,0,0,0,0,0],"split_type":[0,0,0,0,0,0,0,0,0,0,0,0,0,0,0],"sum_hessian":[1.3842871E4,9.302486E3,4.540385E3,8.895801E3,4.066859E2,1.4713569E3,3.0690276E3,8.684748E3,2.1105272E2,1.973168E2,2.0936911E2,1.2685809E3,2.0277602E2,1.8379617E3,1.231066E3],"tree_param":{"num_deleted":"0","num_feature":"56","num_nodes":"15","size_leaf_vector":"1"}},{"base_weights":[-5.3898413E-3,-8.672295E-2,2.2476196E-1,-2.0126465E-1,8.5816994E-2,3.4810883E-1,4.1180823E-2,-1.8381046E-2,-2.8674713E-1,3.8884836E-1,-4.9556408E-2,4.6481627E-1,3.0094039E-2,1.2116812E-1,-1.6419949E-1],"categories":[],"categories_nodes":[],"categories_segments":[],"categories_sizes":[],"default_left":[0,0,0,0,0,0,0,0,0,0,0,0,0,0,0],"id":6,"left_children":[1,3,5,7,9,11,13,-1,-1,-1,-1,-1,-1,-1,-1],"loss_changes":[1.5608E2,1.2463974E2,4.510253E1,5.6192566E1,1.0426601E2,4.186946E1,1.44323225E1,0E0,0E0,0E0,0E0,0E0,0E0,0E0,0E0],"parents":[2147483647,0,0,1,1,2,2,3,3,4,4,5,5,6,6],"right_children":[2,4,6,8,10,12,14,-1,-1,-1,-1,-1,-1,-1,-1],"split_conditions":[3E-1,2E0,3.1E1,1.5E1,3.2E1,3E0,8.6E1,-1.8381046E-2,-2.8674713E-1,3.8884836E-1,-4.9556408E-2,4.6481627E-1,3.0094039E-2,1.2116812E-1,-1.6419949E-1],"split_indices":[35,25,11,11,11,27,11,0,0,0,0,0,0,0,0],"split_type":[0,0,0,0,0,0,0,0,0,0,0,0,0,0,0],"sum_hessian":[8.409771E3,6.2464263E3,2.1633452E3,3.7889197E3,2.4575066E3,1.2608326E3,9.0251263E2,1.2445319E3,2.544388E3,7.810762E2,1.6764303E3,8.9900305E2,3.6182956E2,6.848799E2,2.1763275E2],"tree_param":{"num_deleted":"0","num_feature":"56","num_nodes":"15","size_leaf_vector":"1"}},{"base_weights":[-1.660461E-1,-3.4796533E-1,2.7117282E-1,-5.046909E-1,-1.3363385E-1,3.8163272E-1,-1.9677986E-1,-5.2910525E-1,-0E0,-3.833956E-1,5.0388936E-2,4.7141427E-1,-2.8193897E-1,-2.8650066E-1,3.5015008E-1],"categories":[],"categories_nodes":[],"categories_segments":[],"categories_sizes":[],"default_left":[0,0,0,0,0,0,0,0,0,0,0,0,0,0,0],"id":7,"left_children":[1,3,5,7,9,11,13,-1,-1,-1,-1,-1,-1,-1,-1],"loss_changes":[6.1277014E2,1.765993E2,1.17961716E2,4.2422974E1,1.104396E2,1.1127942E2,1.9684921E1,0E0,0E0,0E0,0E0,0E0,0E0,0E0,0E0],"parents":[2147483647,0,0,1,1,2,2,3,3,4,4,5,5,6,6],"right_children":[2,4,6,8,10,12,14,-1,-1,-1,-1,-1,-1,-1,-1],"split_conditions":[3.2E-1,1E0,4E0,5E0,1E0,8.9E1,7E0,-5.2910525E-1,-0E0,-3.833956E-1,5.0388936E-2,4.7141427E-1,-2.8193897E-1,-2.8650066E-1,3.5015008E-1],"split_indices":[35,14,17,29,29,28,29,0,0,0,0,0,0,0,0],"split_type":[0,0,0,0,0,0,0,0,0,0,0,0,0,0,0],"sum_hessian":[7.6922256E3,5.448341E3,2.2438845E3,3.1193606E3,2.3289802E3,1.8328062E3,4.1107837E2,2.9895767E3,1.2978397E2,1.01060785E3,1.3183724E3,1.6279089E3,2.0489731E2,3.6926288E2,4.181547E1],"tree_param":{"num_deleted":"0","num_feature":"56","num_nodes":"15","size_leaf_vector":"1"}},{"base_weights":[-1.1271233E-1,-4.2936507E-1,1.2701683E-1,-4.8047677E-1,-2.2088495E-1,4.8004222E-1,-2.7443042E-1,-4.9287304E-1,-3.507865E-2,-0E0,-4.417285E-1,6.3622683E-1,-9.993685E-3,-3.969501E-1,3.737918E-1],"categories":[],"categories_nodes":[],"categories_segments":[],"categories_sizes":[],"default_left":[0,0,0,0,0,0,0,0,0,0,0,0,0,0,0],"id":8,"left_children":[1,3,5,7,9,11,13,-1,-1,-1,-1,-1,-1,-1,-1],"loss_changes":[4.264208E2,1.8678986E1,4.4956384E2,5.221405E0,2.5998983E1,1.35866E2,1.16686584E2,0E0,0E0,0E0,0E0,0E0,0E0,0E0,0E0],"parents":[2147483647,0,0,1,1,2,2,3,3,4,4,5,5,6,6],"right_children":[2,4,6,8,10,12,14,-1,-1,-1,-1,-1,-1,-1,-1],"split_conditions":[5E1,3.7E1,1E0,6E0,1E0,4.9E1,1.48E2,-4.9287304E-1,-3.507865E-2,-0E0,-4.417285E-1,6.3622683E-1,-9.993685E-3,-3.969501E-1,3.737918E-1],"split_indices":[11,11,14,8,14,12,11,0,0,0,0,0,0,0,0],"split_type":[0,0,0,0,0,0,0,0,0,0,0,0,0,0,0],"sum_hessian":[5.5758384E3,2.4201028E3,3.1557356E3,1.9040327E3,5.160701E2,1.692285E3,1.4634506E3,1.8305272E3,7.350546E1,2.5453502E2,2.615351E2,1.2985262E3,3.9375885E2,1.2441162E3,2.1933441E2],"tree_param":{"num_deleted":"0","num_feature":"56","num_nodes":"15","size_leaf_vector":"1"}},{"base_weights":[7.1951E-2,3.7195652E-3,1.5414532E-1,-1.0075809E-1,3.6357492E-1,3.545793E-1,-1.6984073E-2,-1.8726578E-1,2.032593E-1,4.1660917E-1,-1.1378115E-1,4.349196E-1,1.2959103E-1,-2.9188117E-1,2.9259768E-1],"categories":[],"categories_nodes":[],"categories_segments":[],"categories_sizes":[],"default_left":[0,0,0,0,0,0,0,0,0,0,0,0,0,0,0],"id":9,"left_children":[1,3,5,7,9,11,13,-1,-1,-1,-1,-1,-1,-1,-1],"loss_changes":[6.617824E1,2.5340268E2,1.8907118E2,1.3526387E2,4.1615738E1,3.9854614E1,2.4639664E2,0E0,0E0,0E0,0E0,0E0,0E0,0E0,0E0],"parents":[2147483647,0,0,1,1,2,2,3,3,4,4,5,5,6,6],"right_children":[2,4,6,8,10,12,14,-1,-1,-1,-1,-1,-1,-1,-1],"split_conditions":[8.9E1,5E0,3.6E1,6.8E1,1.26E2,1E0,1E0,-1.8726578E-1,2.032593E-1,4.1660917E-1,-1.1378115E-1,4.349196E-1,1.2959103E-1,-2.9188117E-1,2.9259768E-1],"split_indices":[28,17,11,11,11,14,14,0,0,0,0,0,0,0,0],"split_type":[0,0,0,0,0,0,0,0,0,0,0,0,0,0,0],"sum_hessian":[1.2080777E4,6.668121E3,5.412656E3,5.1467764E3,1.5213447E3,2.5193037E3,2.893352E3,4.0325867E3,1.1141897E3,1.3881925E3,1.3315222E2,1.8229669E3,6.963368E2,1.5496655E3,1.3436865E3],"tree_param":{"num_deleted":"0","num_feature":"56","num_nodes":"15","size_leaf_vector":"1"}},{"base_weights":[3.706764E-2,1.0837847E-1,-1.6590151E-1,1.4290962E-1,-1.5137012E-1,-3.1774336E-1,-0E0,1.5776628E-1,-3.8640782E-1,-2.2805743E-1,2.5343398E-2,-4.256709E-1,-1.4463703E-1,2.1768227E-1,-1.131116E-1],"categories":[],"categories_nodes":[],"categories_segments":[],"categories_sizes":[],"default_left":[0,0,0,0,0,0,0,0,0,0,0,0,0,0,0],"id":10,"left_children":[1,3,5,7,9,11,13,-1,-1,-1,-1,-1,-1,-1,-1],"loss_changes":[1.099295E2,5.0936417E1,4.8048904E1,3.751255E1,1.0620585E1,1.3051506E1,2.2888845E1,0E0,0E0,0E0,0E0,0E0,0E0,0E0,0E0],"parents":[2147483647,0,0,1,1,2,2,3,3,4,4,5,5,6,6],"right_children":[2,4,6,8,10,12,14,-1,-1,-1,-1,-1,-1,-1,-1],"split_conditions":[1.69E2,8.3E1,1E0,7E0,3E0,3.5E1,4.1E-2,1.5776628E-1,-3.8640782E-1,-2.2805743E-1,2.5343398E-2,-4.256709E-1,-1.4463703E-1,2.1768227E-1,-1.131116E-1],"split_indices":[28,11,14,29,29,11,32,0,0,0,0,0,0,0,0],"split_type":[0,0,0,0,0,0,0,0,0,0,0,0,0,0,0],"sum_hessian":[7.6325166E3,5.684921E3,1.9475957E3,5.0522236E3,6.3269727E2,1.0061301E3,9.4146564E2,4.9333506E3,1.1887308E2,4.804831E2,1.5221414E2,5.832569E2,4.2287317E2,3.117351E2,6.297305E2],"tree_param":{"num_deleted":"0","num_feature":"56","num_nodes":"15","size_leaf_vector":"1"}},{"base_weights":[-8.755272E-2,-2.0569092E-1,1.970405E-1,-4.0771434E-1,-0E0,4.0479135E-2,4.8416758E-1,-1.744063E-1,-4.706974E-1,1.7416552E-1,-3.4476444E-1,2.4514544E-1,-2.9892468E-1,5.904708E-1,-2.0974725E-1],"categories":[],"categories_nodes":[],"categories_segments":[],"categories_sizes":[],"default_left":[0,0,0,0,0,0,0,0,0,0,0,0,0,0,0],"id":11,"left_children":[1,3,5,7,9,11,13,-1,-1,-1,-1,-1,-1,-1,-1],"loss_changes":[2.012244E2,1.7817377E2,7.2513084E1,2.5119568E1,1.2547295E2,7.8956116E1,4.7298218E1,0E0,0E0,0E0,0E0,0E0,0E0,0E0,0E0],"parents":[2147483647,0,0,1,1,2,2,3,3,4,4,5,5,6,6],"right_children":[2,4,6,8,10,12,14,-1,-1,-1,-1,-1,-1,-1,-1],"split_conditions":[5.45E-1,1E0,1E0,1.1E1,1E0,2.3E1,9.4E1,-1.744063E-1,-4.706974E-1,1.7416552E-1,-3.4476444E-1,2.4514544E-1,-2.9892468E-1,5.904708E-1,-2.0974725E-1],"split_indices":[35,14,14,11,17,11,11,0,0,0,0,0,0,0,0],"split_type":[0,0,0,0,0,0,0,0,0,0,0,0,0,0,0],"sum_hessian":[5.9802427E3,4.2510103E3,1.7292324E3,2.1530574E3,2.0979531E3,1.1423265E3,5.8690594E2,4.9223062E2,1.6608267E3,1.4011724E3,6.9678076E2,7.311636E2,4.1116296E2,5.2156555E2,6.534039E1],"tree_param":{"num_deleted":"0","num_feature":"56","num_nodes":"15","size_leaf_vector":"1"}},{"base_weights":[-9.292187E-2,-2.6035592E-1,2.4328496E-1,-4.591714E-1,-2.4564503E-2,1.2234251E-2,5.418684E-1,-4.7992647E-1,-0E0,-1.1917826E-1,4.7636405E-1,-1.0811225E-1,7.976713E-1,8.7005866E-1,9.856792E-2],"categories":[],"categories_nodes":[],"categories_segments":[],"categories_sizes":[],"default_left":[0,0,0,0,0,0,0,0,0,0,0,0,0,0,0],"id":12,"left_children":[1,3,5,7,9,11,13,-1,-1,-1,-1,-1,-1,-1,-1],"loss_changes":[2.651997E2,1.434049E2,1.0107133E2,1.1788422E1,6.6191765E1,9.121942E1,8.556586E1,0E0,0E0,0E0,0E0,0E0,0E0,0E0,0E0],"parents":[2147483647,0,0,1,1,2,2,3,3,4,4,5,5,6,6],"right_children":[2,4,6,8,10,12,14,-1,-1,-1,-1,-1,-1,-1,-1],"split_conditions":[6E0,6.7E1,1.56E2,1.514E3,1.56E2,2.8E1,1E0,-4.7992647E-1,-0E0,-1.1917826E-1,4.7636405E-1,-1.0811225E-1,7.976713E-1,8.7005866E-1,9.856792E-2],"split_indices":[17,11,28,28,11,17,14,0,0,0,0,0,0,0,0],"split_type":[0,0,0,0,0,0,0,0,0,0,0,0,0,0,0],"sum_hessian":[4.7059463E3,3.1614731E3,1.5444733E3,1.6917008E3,1.4697723E3,8.90171E2,6.5430225E2,1.5996414E3,9.205955E1,1.2537021E3,2.1607018E2,7.6160645E2,1.2856454E2,3.624486E2,2.9185367E2],"tree_param":{"num_deleted":"0","num_feature":"56","num_nodes":"15","size_leaf_vector":"1"}},{"base_weights":[4.5835372E-2,5.6013852E-2,-4.131722E-1,6.626032E-2,-3.508891E-1,-5.286124E-1,-0E0,1.1447701E-1,-1.7744787E-2,-4.742886E-1,1.1398499E-1,-5.6710476E-1,-0E0,2.566566E-2,-0E0],"categories":[],"categories_nodes":[],"categories_segments":[],"categories_sizes":[],"default_left":[0,0,0,0,0,0,0,0,0,0,0,0,0,0,0],"id":13,"left_children":[1,3,5,7,9,11,13,-1,-1,-1,-1,-1,-1,-1,-1],"loss_changes":[4.8626102E1,4.2820263E1,1.3304722E1,4.4322662E1,1.7716688E1,2.6660805E0,1.454421E-2,0E0,0E0,0E0,0E0,0E0,0E0,0E0,0E0],"parents":[2147483647,0,0,1,1,2,2,3,3,4,4,5,5,6,6],"right_children":[2,4,6,8,10,12,14,-1,-1,-1,-1,-1,-1,-1,-1],"split_conditions":[2.8E1,6E0,3E0,4E0,1.07E2,5.19E-1,3.9E1,1.1447701E-1,-1.7744787E-2,-4.742886E-1,1.1398499E-1,-5.6710476E-1,-0E0,2.566566E-2,-0E0],"split_indices":[17,29,29,25,11,35,17,0,0,0,0,0,0,0,0],"split_type":[0,0,0,0,0,0,0,0,0,0,0,0,0,0,0],"sum_hessian":[1.1166499E4,1.0946426E4,2.2007259E2,1.0702337E4,2.4408894E2,1.8167227E2,3.8400314E1,6.8749673E3,3.8273699E3,2.0987038E2,3.421855E1,1.6600584E2,1.5666419E1,2.1079302E1,1.7321012E1],"tree_param":{"num_deleted":"0","num_feature":"56","num_nodes":"15","size_leaf_vector":"1"}},{"base_weights":[2.4312228E-2,6.906569E-2,-1.4216347E-1,1.036049E-1,-6.3061036E-2,-1.7353916E-1,7.446182E-2,3.9935164E-2,1.4534305E-1,-3.089726E-1,1.0798746E-1,-2.0319588E-1,-0E0,1.7352521E-1,-6.9164145E-3],"categories":[],"categories_nodes":[],"categories_segments":[],"categories_sizes":[],"default_left":[0,0,0,0,0,0,0,0,0,0,0,0,0,0,0],"id":14,"left_children":[1,3,5,7,9,11,13,-1,-1,-1,-1,-1,-1,-1,-1],"loss_changes":[5.4706062E1,2.7388601E1,1.1397388E1,1.0755463E1,5.1074196E1,6.5515594E0,2.9075217E0,0E0,0E0,0E0,0E0,0E0,0E0,0E0,0E0],"parents":[2147483647,0,0,1,1,2,2,3,3,4,4,5,5,6,6],"right_children":[2,4,6,8,10,12,14,-1,-1,-1,-1,-1,-1,-1,-1],"split_conditions":[3E0,1.84E2,4E0,5E0,1E0,8.67E-1,1.9E1,3.9935164E-2,1.4534305E-1,-3.089726E-1,1.0798746E-1,-2.0319588E-1,-0E0,1.7352521E-1,-6.9164145E-3],"split_indices":[17,28,29,12,25,35,17,0,0,0,0,0,0,0,0],"split_type":[0,0,0,0,0,0,0,0,0,0,0,0,0,0,0],"sum_hessian":[7.4385327E3,5.9103223E3,1.5282108E3,4.745661E3,1.1646611E3,1.3753662E3,1.528445E2,1.9747743E3,2.7708867E3,5.0142838E2,6.632327E2,1.1615977E3,2.1376866E2,1.2384097E2,2.9003523E1],"tree_param":{"num_deleted":"0","num_feature":"56","num_nodes":"15","size_leaf_vector":"1"}},{"base_weights":[-4.8865035E-2,3.796444E-2,-3.3395725E-1,9.572129E-2,-3.7627193E-1,-4.7684216E-1,-1.4939064E-1,-2.615243E-2,2.6986068E-1,-4.0451747E-1,-0E0,-4.8184907E-1,-0E0,8.2264565E-2,-2.7652663E-1],"categories":[],"categories_nodes":[],"categories_segments":[],"categories_sizes":[],"default_left":[0,0,0,0,0,0,0,0,0,0,0,0,0,0,0],"id":15,"left_children":[1,3,5,7,9,11,13,-1,-1,-1,-1,-1,-1,-1,-1],"loss_changes":[1.323348E2,9.244729E1,2.6552567E1,7.703855E1,6.3921127E0,9.331665E-1,1.8933605E1,0E0,0E0,0E0,0E0,0E0,0E0,0E0,0E0],"parents":[2147483647,0,0,1,1,2,2,3,3,4,4,5,5,6,6],"right_children":[2,4,6,8,10,12,14,-1,-1,-1,-1,-1,-1,-1,-1],"split_conditions":[9.1E1,8.9E1,7E0,4E0,1.07E2,2E0,5.3E-2,-2.615243E-2,2.6986068E-1,-4.0451747E-1,-0E0,-4.8184907E-1,-0E0,8.2264565E-2,-2.7652663E-1],"split_indices":[28,11,25,25,25,16,32,0,0,0,0,0,0,0,0],"split_type":[0,0,0,0,0,0,0,0,0,0,0,0,0,0,0],"sum_hessian":[5.224824E3,3.978805E3,1.2460194E3,3.5137883E3,4.6501663E2,6.7088196E2,5.7513745E2,2.0338186E3,1.4799697E3,4.4127274E2,2.3743916E1,6.610105E2,9.87143E0,1.7605098E2,3.990865E2],"tree_param":{"num_deleted":"0","num_feature":"56","num_nodes":"15","size_leaf_vector":"1"}},{"base_weights":[-6.685456E-2,1.4490843E-2,-3.92339E-1,-3.1875777E-1,1.1264877E-1,-4.4768372E-1,1.5026082E-1,-4.7399536E-1,-0E0,2.4640965E-1,-1.4346018E-1,-4.934566E-1,-0E0,3.1555057E-1,-0E0],"categories":[],"categories_nodes":[],"categories_segments":[],"categories_sizes":[],"default_left":[0,0,0,0,0,0,0,0,0,0,0,0,0,0,0],"id":16,"left_children":[1,3,5,7,9,11,13,-1,-1,-1,-1,-1,-1,-1,-1],"loss_changes":[1.0912582E2,1.0132564E2,2.7670555E1,3.74085E1,8.549377E1,1.9460037E1,2.8933654E0,0E0,0E0,0E0,0E0,0E0,0E0,0E0,0E0],"parents":[2147483647,0,0,1,1,2,2,3,3,4,4,5,5,6,6],"right_children":[2,4,6,8,10,12,14,-1,-1,-1,-1,-1,-1,-1,-1],"split_conditions":[1.33E-1,4.2E1,1.64E2,9E0,1.2E1,2.5E1,4E0,-4.7399536E-1,-0E0,2.4640965E-1,-1.4346018E-1,-4.934566E-1,-0E0,3.1555057E-1,-0E0],"split_indices":[35,11,11,17,14,17,29,0,0,0,0,0,0,0,0],"split_type":[0,0,0,0,0,0,0,0,0,0,0,0,0,0,0],"sum_hessian":[3.9776604E3,3.1585134E3,8.1914685E2,6.949652E2,2.4635483E3,7.602107E2,5.893615E1,4.802495E2,2.1471571E2,1.6440012E3,8.1954706E2,7.054594E2,5.4751324E1,4.1648697E1,1.7287455E1],"tree_param":{"num_deleted":"0","num_feature":"56","num_nodes":"15","size_leaf_vector":"1"}},{"base_weights":[1.7624281E-2,-1.8306357E-1,3.182218E-2,-1.2846541E-2,-4.7641718E-1,6.958065E-2,-4.569126E-2,-1.23950414E-1,2.3075666E-1,-0E0,-4.7977462E-1,7.7613965E-2,-3.3802715E-1,-8.890435E-2,1.9475776E-1],"categories":[],"categories_nodes":[],"categories_segments":[],"categories_sizes":[],"default_left":[0,0,0,0,0,0,0,0,0,0,0,0,0,0,0],"id":17,"left_children":[1,3,5,7,9,11,13,-1,-1,-1,-1,-1,-1,-1,-1],"loss_changes":[2.8265652E1,2.7257757E1,2.8941628E1,1.0601862E1,3.5334396E-1,1.9298561E1,3.143802E1,0E0,0E0,0E0,0E0,0E0,0E0,0E0,0E0],"parents":[2147483647,0,0,1,1,2,2,3,3,4,4,5,5,6,6],"right_children":[2,4,6,8,10,12,14,-1,-1,-1,-1,-1,-1,-1,-1],"split_conditions":[7E0,7.74E-1,1.13E2,8.9E1,9E3,1.74E2,9.7E1,-1.23950414E-1,2.3075666E-1,-0E0,-4.7977462E-1,7.7613965E-2,-3.3802715E-1,-8.890435E-2,1.9475776E-1],"split_indices":[11,35,13,28,30,11,11,0,0,0,0,0,0,0,0],"split_type":[0,0,0,0,0,0,0,0,0,0,0,0,0,0,0],"sum_hessian":[1.0447799E4,6.429832E2,9.804816E3,4.2912048E2,2.1386275E2,6.6799707E3,3.1248455E3,3.232379E2,1.0588256E2,1.4616599E0,2.1240108E2,6.5757163E3,1.0425418E2,2.684594E3,4.402516E2],"tree_param":{"num_deleted":"0","num_feature":"56","num_nodes":"15","size_leaf_vector":"1"}},{"base_weights":[2.9644819E-2,4.012116E-2,-2.4042888E-1,1.3534602E-3,1.1375795E-1,-0E0,-2.7263853E-1,-4.114872E-2,1.2222231E-1,1.5385573E-1,-3.0474328E-2,-2.8227803E-1,-0E0],"categories":[],"categories_nodes":[],"categories_segments":[],"categories_sizes":[],"default_left":[0,0,0,0,0,0,0,0,0,0,0,0,0],"id":18,"left_children":[1,3,5,7,9,-1,11,-1,-1,-1,-1,-1,-1],"loss_changes":[1.8556786E1,1.8912971E1,2.5850143E0,2.4931446E1,1.4743233E1,0E0,8.8710976E-1,0E0,0E0,0E0,0E0,0E0,0E0],"parents":[2147483647,0,0,1,1,2,2,3,3,4,4,6,6],"right_children":[2,4,6,8,10,-1,12,-1,-1,-1,-1,-1,-1],"split_conditions":[1.7E1,1E1,4.74E-1,7.27E-1,7.1E1,-0E0,2.4E1,-4.114872E-2,1.2222231E-1,1.5385573E-1,-3.0474328E-2,-2.8227803E-1,-0E0],"split_indices":[17,25,32,35,11,0,10,0,0,0,0,0,0],"split_type":[0,0,0,0,0,0,0,0,0,0,0,0,0],"sum_hessian":[7.2621416E3,7.027422E3,2.3472005E2,4.6933335E3,2.3340881E3,1.7629465E1,2.1709059E2,3.4116057E3,1.2817278E3,1.8805465E3,4.5354163E2,2.1358304E2,3.50754E0],"tree_param":{"num_deleted":"0","num_feature":"56","num_nodes":"13","size_leaf_vector":"1"}},{"base_weights":[-2.7934223E-2,-1.4705619E-1,2.0417666E-1,7.994136E-2,-2.3274156E-1,3.3525506E-1,-0E0,-2.7612314E-1,2.8363615E-1,-1.5844946E-1,-4.3792072E-1,3.4675848E-1,-0E0,-5.4026973E-2,6.8118787E-1],"categories":[],"categories_nodes":[],"categories_segments":[],"categories_sizes":[],"default_left":[0,0,0,0,0,0,0,0,0,0,0,0,0,0,0],"id":19,"left_children":[1,3,5,7,9,11,13,-1,-1,-1,-1,-1,-1,-1,-1],"loss_changes":[1.3157413E2,6.352944E1,4.000772E1,6.1224476E1,2.972271E1,4.3418274E0,2.8730917E1,0E0,0E0,0E0,0E0,0E0,0E0,0E0,0E0],"parents":[2147483647,0,0,1,1,2,2,3,3,4,4,5,5,6,6],"right_children":[2,4,6,8,10,12,14,-1,-1,-1,-1,-1,-1,-1,-1],"split_conditions":[3E0,1.41E-1,3.6E1,1E0,5.9E1,1.1E1,9E0,-2.7612314E-1,2.8363615E-1,-1.5844946E-1,-4.3792072E-1,3.4675848E-1,-0E0,-5.4026973E-2,6.8118787E-1],"split_indices":[29,32,11,14,11,17,29,0,0,0,0,0,0,0,0],"split_type":[0,0,0,0,0,0,0,0,0,0,0,0,0,0,0],"sum_hessian":[4.777216E3,3.185718E3,1.5914978E3,8.410282E2,2.34469E3,9.456171E2,6.458806E2,2.8805353E2,5.529747E2,1.7584818E3,5.86208E2,9.199618E2,2.5655333E1,5.886721E2,5.720847E1],"tree_param":{"num_deleted":"0","num_feature":"56","num_nodes":"15","size_leaf_vector":"1"}},{"base_weights":[-4.623088E-2,-1.834726E-1,1.1107623E-1,-4.0606E-1,-4.944844E-2,1.9454543E-1,-1.4243382E-1,-4.6713066E-1,-1.09155186E-1,-0E0,-4.32322E-1,3.8149628E-1,-1.7295156E-2,-3.073547E-1,1.7856522E-1],"categories":[],"categories_nodes":[],"categories_segments":[],"categories_sizes":[],"default_left":[0,0,0,0,0,0,0,0,0,0,0,0,0,0,0],"id":20,"left_children":[1,3,5,7,9,11,13,-1,-1,-1,-1,-1,-1,-1,-1],"loss_changes":[7.94645E1,5.4542213E1,3.5793846E1,7.179367E0,2.1426897E1,5.446611E1,2.1643656E1,0E0,0E0,0E0,0E0,0E0,0E0,0E0,0E0],"parents":[2147483647,0,0,1,1,2,2,3,3,4,4,5,5,6,6],"right_children":[2,4,6,8,10,12,14,-1,-1,-1,-1,-1,-1,-1,-1],"split_conditions":[2E0,6.4E1,2E0,8.1E2,3E0,1E0,1.12E2,-4.6713066E-1,-1.09155186E-1,-0E0,-4.32322E-1,3.8149628E-1,-1.7295156E-2,-3.073547E-1,1.7856522E-1],"split_indices":[17,11,29,28,29,14,11,0,0,0,0,0,0,0,0],"split_type":[0,0,0,0,0,0,0,0,0,0,0,0,0,0,0],"sum_hessian":[3.6452917E3,1.9806703E3,1.6646213E3,7.155843E2,1.2650859E3,1.2821478E3,3.8247357E2,5.6509515E2,1.5048915E2,1.1348802E3,1.302058E2,7.0573553E2,5.7641223E2,2.7326993E2,1.0920366E2],"tree_param":{"num_deleted":"0","num_feature":"56","num_nodes":"15","size_leaf_vector":"1"}},{"base_weights":[7.4390024E-3,2.7023789E-2,-9.3668684E-2,2.1058744E-2,3.764885E-1,-2.1710308E-1,9.4533935E-2,3.6399312E-2,-6.15185E-2,6.0283893E-1,-0E0,-2.6430532E-1,2.05584E-1,1.5126051E-1,-1.7612582E-1],"categories":[],"categories_nodes":[],"categories_segments":[],"categories_sizes":[],"default_left":[0,0,0,0,0,0,0,0,0,0,0,0,0,0,0],"id":21,"left_children":[1,3,5,7,9,11,13,-1,-1,-1,-1,-1,-1,-1,-1],"loss_changes":[1.9536762E1,1.4005859E1,3.7782574E1,1.0536526E1,1.5168213E1,2.0238377E1,8.860479E0,0E0,0E0,0E0,0E0,0E0,0E0,0E0,0E0],"parents":[2147483647,0,0,1,1,2,2,3,3,4,4,5,5,6,6],"right_children":[2,4,6,8,10,12,14,-1,-1,-1,-1,-1,-1,-1,-1],"split_conditions":[8.95E-1,9.2E1,4E1,4.54E2,1.685E3,9E0,3E1,3.6399312E-2,-6.15185E-2,6.0283893E-1,-0E0,-2.6430532E-1,2.05584E-1,1.5126051E-1,-1.7612582E-1],"split_indices":[35,12,11,13,28,17,12,0,0,0,0,0,0,0,0],"split_type":[0,0,0,0,0,0,0,0,0,0,0,0,0,0,0],"sum_hessian":[1.0200475E4,8.628711E3,1.5717635E3,8.513076E3,1.1563501E2,9.812092E2,5.905543E2,7.281949E3,1.2311268E3,8.622948E1,2.9405537E1,9.0426154E2,7.694771E1,5.19138E2,7.141632E1],"tree_param":{"num_deleted":"0","num_feature":"56","num_nodes":"15","size_leaf_vector":"1"}},{"base_weights":[1.9705942E-2,7.859853E-3,1.3022777E-1,5.5673964E-2,-2.7679212E-2,2.503482E-1,-1.0421753E-1,1.0624612E-1,-1.4245511E-2,-1.0585267E-1,2.0975837E-2,3.311178E-1,-0E0,-2.084077E-1,-0E0],"categories":[],"categories_nodes":[],"categories_segments":[],"categories_sizes":[],"default_left":[0,0,0,0,0,0,0,0,0,0,0,0,0,0,0],"id":22,"left_children":[1,3,5,7,9,11,13,-1,-1,-1,-1,-1,-1,-1,-1],"loss_changes":[8.10067E0,1.1538085E1,1.892973E1,1.1333988E1,1.4850487E1,7.223318E0,3.9376855E0,0E0,0E0,0E0,0E0,0E0,0E0,0E0,0E0],"parents":[2147483647,0,0,1,1,2,2,3,3,4,4,5,5,6,6],"right_children":[2,4,6,8,10,12,14,-1,-1,-1,-1,-1,-1,-1,-1],"split_conditions":[4E0,2.3E1,6E0,2E0,1E0,1E1,7.5E1,1.0624612E-1,-1.4245511E-2,-1.0585267E-1,2.0975837E-2,3.311178E-1,-0E0,-2.084077E-1,-0E0],"split_indices":[29,11,29,29,14,25,11,0,0,0,0,0,0,0,0],"split_type":[0,0,0,0,0,0,0,0,0,0,0,0,0,0,0],"sum_hessian":[7.2417407E3,6.6233765E3,6.183641E2,2.9437207E3,3.6796558E3,4.370322E2,1.813319E2,1.7908885E3,1.1528322E3,1.4900171E3,2.1896387E3,3.1528024E2,1.2175196E2,1.3525449E2,4.607741E1],"tree_param":{"num_deleted":"0","num_feature":"56","num_nodes":"15","size_leaf_vector":"1"}},{"base_weights":[-1.1388734E-2,-8.020902E-2,1.6353087E-1,-2.4357906E-1,1.6482968E-2,2.5143123E-1,-3.662732E-2,-6.464822E-2,-3.30402E-1,-4.6172857E-2,4.227066E-1,4.248596E-1,1.4421275E-1,-1.1179089E-1,2.2936165E-1],"categories":[],"categories_nodes":[],"categories_segments":[],"categories_sizes":[],"default_left":[0,0,0,0,0,0,0,0,0,0,0,0,0,0,0],"id":23,"left_children":[1,3,5,7,9,11,13,-1,-1,-1,-1,-1,-1,-1,-1],"loss_changes":[5.2075447E1,5.2746246E1,2.3269402E1,1.5081505E1,5.3916172E1,1.0400154E1,5.493983E0,0E0,0E0,0E0,0E0,0E0,0E0,0E0,0E0],"parents":[2147483647,0,0,1,1,2,2,3,3,4,4,5,5,6,6],"right_children":[2,4,6,8,10,12,14,-1,-1,-1,-1,-1,-1,-1,-1],"split_conditions":[8.46E-1,1E0,4.2E1,1.3E1,4.05E2,2.4E-2,4.1E1,-6.464822E-2,-3.30402E-1,-4.6172857E-2,4.227066E-1,4.248596E-1,1.4421275E-1,-1.1179089E-1,2.2936165E-1],"split_indices":[35,14,11,11,13,0,25,0,0,0,0,0,0,0,0],"split_type":[0,0,0,0,0,0,0,0,0,0,0,0,0,0,0],"sum_hessian":[4.393042E3,3.1940764E3,1.1989653E3,1.2254565E3,1.96862E3,8.676412E2,3.313241E2,4.3856085E2,7.868957E2,1.684996E3,2.8362396E2,2.9471027E2,5.729309E2,2.8809036E2,4.323375E1],"tree_param":{"num_deleted":"0","num_feature":"56","num_nodes":"15","size_leaf_vector":"1"}},{"base_weights":[-2.9871754E-2,-3.795934E-1,5.3503304E-3,-4.0016964E-1,-0E0,8.896212E-2,-1.9012341E-1,-4.3113288E-1,-0E0,1.5778522E-1,-1.6827358E-1,-4.296337E-1,-0E0],"categories":[],"categories_nodes":[],"categories_segments":[],"categories_sizes":[],"default_left":[0,0,0,0,0,0,0,0,0,0,0,0,0],"id":24,"left_children":[1,3,5,7,-1,9,11,-1,-1,-1,-1,-1,-1],"loss_changes":[4.5321167E1,4.1412964E0,4.871483E1,3.002514E0,0E0,3.828187E1,3.729264E1,0E0,0E0,0E0,0E0,0E0,0E0],"parents":[2147483647,0,0,1,1,2,2,3,3,5,5,6,6],"right_children":[2,4,6,8,-1,10,12,-1,-1,-1,-1,-1,-1],"split_conditions":[2.8E1,3.4E1,2.1E1,5.22E2,-0E0,4.5E-2,6.6E2,-4.3113288E-1,-0E0,1.5778522E-1,-1.6827358E-1,-4.296337E-1,-0E0],"split_indices":[11,17,12,28,0,35,28,0,0,0,0,0,0],"split_type":[0,0,0,0,0,0,0,0,0,0,0,0,0],"sum_hessian":[3.3743005E3,3.3382935E2,3.0404712E3,3.261428E2,7.6865635E0,2.1657832E3,8.7468787E2,2.969938E2,2.9148994E1,1.7396133E3,4.261699E2,3.7251898E2,5.021689E2],"tree_param":{"num_deleted":"0","num_feature":"56","num_nodes":"13","size_leaf_vector":"1"}},{"base_weights":[6.646493E-3,1.8254498E-2,-1.523008E-1,2.3893353E-2,-2.7634704E-1,-2.2671272E-1,2.6185924E-1,2.74924E-2,-4.127485E-1,-3.8728097E-1,-0E0,-3.338583E-1,8.6460754E-2,3.669464E-1,-0E0],"categories":[],"categories_nodes":[],"categories_segments":[],"categories_sizes":[],"default_left":[0,0,0,0,0,0,0,0,0,0,0,0,0,0,0],"id":25,"left_children":[1,3,5,7,9,11,13,-1,-1,-1,-1,-1,-1,-1,-1],"loss_changes":[1.7108477E1,1.3058745E1,1.8874243E1,1.0671219E1,5.7070446E0,2.089761E1,2.6909366E0,0E0,0E0,0E0,0E0,0E0,0E0,0E0,0E0],"parents":[2147483647,0,0,1,1,2,2,3,3,4,4,5,5,6,6],"right_children":[2,4,6,8,10,12,14,-1,-1,-1,-1,-1,-1,-1,-1],"split_conditions":[4E0,1.7E2,1.2E1,4E1,2.5E1,9.4E1,1E0,2.74924E-2,-4.127485E-1,-3.8728097E-1,-0E0,-3.338583E-1,8.6460754E-2,3.669464E-1,-0E0],"split_indices":[29,11,17,17,12,11,16,0,0,0,0,0,0,0,0],"split_type":[0,0,0,0,0,0,0,0,0,0,0,0,0,0,0],"sum_hessian":[9.996587E3,9.375676E3,6.2091144E2,9.233798E3,1.4187755E2,5.4719507E2,7.371639E1,9.181954E3,5.1843708E1,1.0979841E2,3.207914E1,4.3144913E2,1.1574593E2,5.703401E1,1.6682383E1],"tree_param":{"num_deleted":"0","num_feature":"56","num_nodes":"15","size_leaf_vector":"1"}},{"base_weights":[9.301287E-3,-2.173272E-3,1.1436084E-1,-3.0946732E-2,3.2054458E-2,1.4076245E-1,-0E0,-2.0973581E-4,-9.404525E-2,7.3619284E-2,-9.390358E-2,1.6660906E-1,-0E0,3.3046156E-2,-1.9327582E-1],"categories":[],"categories_nodes":[],"categories_segments":[],"categories_sizes":[],"default_left":[0,0,0,0,0,0,0,0,0,0,0,0,0,0,0],"id":26,"left_children":[1,3,5,7,9,11,13,-1,-1,-1,-1,-1,-1,-1,-1],"loss_changes":[9.873631E0,6.351978E0,3.4740705E0,6.1729794E0,1.4421882E1,3.5187178E0,1.834108E0,0E0,0E0,0E0,0E0,0E0,0E0,0E0,0E0],"parents":[2147483647,0,0,1,1,2,2,3,3,4,4,5,5,6,6],"right_children":[2,4,6,8,10,12,14,-1,-1,-1,-1,-1,-1,-1,-1],"split_conditions":[2.7E1,1E0,1E0,2.5E1,2.09E2,1.595E3,2.3E2,-2.0973581E-4,-9.404525E-2,7.3619284E-2,-9.390358E-2,1.6660906E-1,-0E0,3.3046156E-2,-1.9327582E-1],"split_indices":[12,14,15,11,28,28,28,0,0,0,0,0,0,0,0],"split_type":[0,0,0,0,0,0,0,0,0,0,0,0,0,0,0],"sum_hessian":[7.2585757E3,6.4589297E3,7.996463E2,3.667832E3,2.7910974E3,7.028053E2,9.684105E1,2.5736318E3,1.0942001E3,2.158592E3,6.3250555E2,6.281375E2,7.4667786E1,5.0240314E1,4.6600735E1],"tree_param":{"num_deleted":"0","num_feature":"56","num_nodes":"15","size_leaf_vector":"1"}},{"base_weights":[-7.708935E-3,-9.493787E-2,1.4737754E-1,-2.6378658E-1,-2.9091747E-4,6.0987327E-2,3.2338572E-1,-4.379263E-1,-1.1761491E-1,9.9667825E-2,-3.0016744E-1,3.157632E-1,1.0260525E-3,3.598366E-1,-0E0],"categories":[],"categories_nodes":[],"categories_segments":[],"categories_sizes":[],"default_left":[0,0,0,0,0,0,0,0,0,0,0,0,0,0,0],"id":27,"left_children":[1,3,5,7,9,11,13,-1,-1,-1,-1,-1,-1,-1,-1],"loss_changes":[5.7656147E1,4.2006447E1,1.9050083E1,1.8970802E1,5.6865936E1,1.2874523E1,8.482784E0,0E0,0E0,0E0,0E0,0E0,0E0,0E0,0E0],"parents":[2147483647,0,0,1,1,2,2,3,3,4,4,5,5,6,6],"right_children":[2,4,6,8,10,12,14,-1,-1,-1,-1,-1,-1,-1,-1],"split_conditions":[3E0,1E0,5E0,2.5E-1,6.1E1,1.41E-1,1.36E2,-4.379263E-1,-1.1761491E-1,9.9667825E-2,-3.0016744E-1,3.157632E-1,1.0260525E-3,3.598366E-1,-0E0],"split_indices":[29,14,29,35,11,32,11,0,0,0,0,0,0,0,0],"split_type":[0,0,0,0,0,0,0,0,0,0,0,0,0,0,0],"sum_hessian":[4.298707E3,2.792771E3,1.5059359E3,9.645628E2,1.8282081E3,1.0491454E3,4.567906E2,4.0804044E2,5.5652234E2,1.3466469E3,4.8156125E2,1.6728973E2,8.8185565E2,4.3425427E2,2.2536314E1],"tree_param":{"num_deleted":"0","num_feature":"56","num_nodes":"15","size_leaf_vector":"1"}},{"base_weights":[-2.4322094E-2,-7.594791E-2,2.075606E-1,-1.820125E-1,6.68726E-2,3.5243425E-1,-0E0,-3.0999684E-1,5.47719E-4,1.8666318E-2,4.0617776E-1,4.647628E-1,-1.1427416E-1,-3.709452E-2,1.4029214E-1],"categories":[],"categories_nodes":[],"categories_segments":[],"categories_sizes":[],"default_left":[0,0,0,0,0,0,0,0,0,0,0,0,0,0,0],"id":28,"left_children":[1,3,5,7,9,11,13,-1,-1,-1,-1,-1,-1,-1,-1],"loss_changes":[3.7119743E1,4.147265E1,1.3375849E1,3.9717384E1,1.3647186E1,1.9193565E1,2.2384155E0,0E0,0E0,0E0,0E0,0E0,0E0,0E0,0E0],"parents":[2147483647,0,0,1,1,2,2,3,3,4,4,5,5,6,6],"right_children":[2,4,6,8,10,12,14,-1,-1,-1,-1,-1,-1,-1,-1],"split_conditions":[1.26E2,8E0,4E0,3.89E2,3.1E1,7.8E1,1E0,-3.0999684E-1,5.47719E-4,1.8666318E-2,4.0617776E-1,4.647628E-1,-1.1427416E-1,-3.709452E-2,1.4029214E-1],"split_indices":[11,17,25,28,17,12,15,0,0,0,0,0,0,0,0],"split_type":[0,0,0,0,0,0,0,0,0,0,0,0,0,0,0],"sum_hessian":[3.2083958E3,2.6599814E3,5.484143E2,1.5664285E3,1.093553E3,2.9724823E2,2.5116606E2,9.526494E2,6.137791E2,9.842448E2,1.0930811E2,2.5685785E2,4.039036E1,1.4891736E2,1.022487E2],"tree_param":{"num_deleted":"0","num_feature":"56","num_nodes":"15","size_leaf_vector":"1"}},{"base_weights":[8.5968804E-4,-2.5770934E-2,3.932273E-2,-7.028685E-2,4.2787608E-2,4.517994E-2,-2.0913881E-1,-1.0659653E-1,1.2906307E-1,7.359923E-2,-9.68609E-2,5.9596706E-2,-2.7401965E-2,-2.7864072E-1,-0E0],"categories":[],"categories_nodes":[],"categories_segments":[],"categories_sizes":[],"default_left":[0,0,0,0,0,0,0,0,0,0,0,0,0,0,0],"id":29,"left_children":[1,3,5,7,9,11,13,-1,-1,-1,-1,-1,-1,-1,-1],"loss_changes":[1.0043797E1,1.7253567E1,4.352665E0,2.4842821E1,8.818789E0,4.5683184E0,1.5222719E0,0E0,0E0,0E0,0E0,0E0,0E0,0E0,0E0],"parents":[2147483647,0,0,1,1,2,2,3,3,4,4,5,5,6,6],"right_children":[2,4,6,8,10,12,14,-1,-1,-1,-1,-1,-1,-1,-1],"split_conditions":[3.6E-2,1.29E2,3.8E1,7E0,9E0,6.25E-1,5E0,-1.0659653E-1,1.2906307E-1,7.359923E-2,-9.68609E-2,5.9596706E-2,-2.7401965E-2,-2.7864072E-1,-0E0],"split_indices":[3,28,17,17,17,3,29,0,0,0,0,0,0,0,0],"split_type":[0,0,0,0,0,0,0,0,0,0,0,0,0,0,0],"sum_hessian":[9.67128E3,5.5612104E3,4.11007E3,3.4602576E3,2.100953E3,4.055531E3,5.453887E1,2.9699397E3,4.9031775E2,1.7802461E3,3.2070676E2,3.4985725E3,5.5695856E2,4.989458E1,4.6442895E0],"tree_param":{"num_deleted":"0","num_feature":"56","num_nodes":"15","size_leaf_vector":"1"}},{"base_weights":[1.3030282E-2,2.0302925E-2,-1.442893E-1,3.184491E-2,-6.2404264E-2,-1.905615E-1,-0E0,5.5237006E-2,-2.0931182E-2,-1.21431775E-1,1.5565819E-1,-2.2115405E-1,-0E0],"categories":[],"categories_nodes":[],"categories_segments":[],"categories_sizes":[],"default_left":[0,0,0,0,0,0,0,0,0,0,0,0,0],"id":30,"left_children":[1,3,5,7,9,11,-1,-1,-1,-1,-1,-1,-1],"loss_changes":[6.98926E0,6.315489E0,2.0948586E0,7.987872E0,9.245102E0,2.1765718E0,0E0,0E0,0E0,0E0,0E0,0E0,0E0],"parents":[2147483647,0,0,1,1,2,2,3,3,4,4,5,5],"right_children":[2,4,6,8,10,12,-1,-1,-1,-1,-1,-1,-1],"split_conditions":[1.2E2,8E0,4.54E2,9.3E1,2.02E2,3.3E1,-0E0,5.5237006E-2,-2.0931182E-2,-1.21431775E-1,1.5565819E-1,-2.2115405E-1,-0E0],"split_indices":[11,17,13,28,28,8,0,0,0,0,0,0,0],"split_type":[0,0,0,0,0,0,0,0,0,0,0,0,0],"sum_hessian":[7.1889175E3,6.932858E3,2.5605957E2,6.190485E3,7.423732E2,2.0406552E2,5.1994057E1,4.420574E3,1.7699105E3,6.2066614E2,1.217071E2,1.9575797E2,8.307556E0],"tree_param":{"num_deleted":"0","num_feature":"56","num_nodes":"13","size_leaf_vector":"1"}},{"base_weights":[-6.0039237E-3,2.990829E-2,-2.3624423E-1,-9.214933E-3,3.3505052E-1,-2.836178E-1,4.6660487E-2,2.1736048E-2,-2.8765288E-1,-0E0,4.648605E-1,-3.267342E-1,-3.8974203E-2,-0E0,4.8592272E-1],"categories":[],"categories_nodes":[],"categories_segments":[],"categories_sizes":[],"default_left":[0,0,0,0,0,0,0,0,0,0,0,0,0,0,0],"id":31,"left_children":[1,3,5,7,9,11,13,-1,-1,-1,-1,-1,-1,-1,-1],"loss_changes":[3.5043484E1,4.400701E1,1.0099327E1,2.8494328E1,1.7595097E1,1.8531837E0,3.8665752E0,0E0,0E0,0E0,0E0,0E0,0E0,0E0,0E0],"parents":[2147483647,0,0,1,1,2,2,3,3,4,4,5,5,6,6],"right_children":[2,4,6,8,10,12,14,-1,-1,-1,-1,-1,-1,-1,-1],"split_conditions":[1.43E2,2E1,4E0,8E0,1E0,3.3E1,1E0,2.1736048E-2,-2.8765288E-1,-0E0,4.648605E-1,-3.267342E-1,-3.8974203E-2,-0E0,4.8592272E-1],"split_indices":[28,12,16,17,14,12,15,0,0,0,0,0,0,0,0],"split_type":[0,0,0,0,0,0,0,0,0,0,0,0,0,0,0],"sum_hessian":[3.986821E3,3.4120557E3,5.747653E2,2.996113E3,4.1594266E2,5.2259906E2,5.2166298E1,2.6648926E3,3.3122043E2,1.1892322E2,2.9701944E2,4.092592E2,1.1333984E2,3.6300663E1,1.5865636E1],"tree_param":{"num_deleted":"0","num_feature":"56","num_nodes":"15","size_leaf_vector":"1"}},{"base_weights":[-5.7619736E-3,6.8668276E-2,-1.4636034E-1,1.3963038E-1,-2.1276751E-1,-2.4926145E-1,3.2596894E-2,2.5660807E-1,-0E0,-3.592489E-1,1.6986538E-2,-3.365739E-1,-0E0,-1.0509063E-1,1.8339008E-1],"categories":[],"categories_nodes":[],"categories_segments":[],"categories_sizes":[],"default_left":[0,0,0,0,0,0,0,0,0,0,0,0,0,0,0],"id":32,"left_children":[1,3,5,7,9,11,13,-1,-1,-1,-1,-1,-1,-1,-1],"loss_changes":[3.2023693E1,3.73617E1,2.2063519E1,2.661197E1,1.54034E1,1.5590473E1,8.270605E0,0E0,0E0,0E0,0E0,0E0,0E0,0E0,0E0],"parents":[2147483647,0,0,1,1,2,2,3,3,4,4,5,5,6,6],"right_children":[2,4,6,8,10,12,14,-1,-1,-1,-1,-1,-1,-1,-1],"split_conditions":[1E0,2E0,1.4E1,1.5E1,1.07E2,1.36E2,7.2E1,2.5660807E-1,-0E0,-3.592489E-1,1.6986538E-2,-3.365739E-1,-0E0,-1.0509063E-1,1.8339008E-1],"split_indices":[25,29,17,12,11,11,11,0,0,0,0,0,0,0,0],"split_type":[0,0,0,0,0,0,0,0,0,0,0,0,0,0,0],"sum_hessian":[2.983941E3,1.9049053E3,1.0790356E3,1.5500953E3,3.5480997E2,7.2032965E2,3.5870596E2,8.624033E2,6.87692E2,2.4290518E2,1.1190479E2,5.3224976E2,1.8807988E2,1.5299503E2,2.0571092E2],"tree_param":{"num_deleted":"0","num_feature":"56","num_nodes":"15","size_leaf_vector":"1"}},{"base_weights":[-0E0,7.008474E-3,-9.866563E-2,1.2210475E-2,-2.6397604E-1,-1.8049145E-1,1.3829173E-1,2.4042016E-2,-3.3621594E-2,-3.4486735E-1,-0E0,-2.9852316E-1,6.2435485E-2,2.2427367E-1,-0E0],"categories":[],"categories_nodes":[],"categories_segments":[],"categories_sizes":[],"default_left":[0,0,0,0,0,0,0,0,0,0,0,0,0,0,0],"id":33,"left_children":[1,3,5,7,9,11,13,-1,-1,-1,-1,-1,-1,-1,-1],"loss_changes":[6.8896594E0,9.827872E0,1.3312689E1,4.583537E0,4.1298914E0,1.7433798E1,3.158033E0,0E0,0E0,0E0,0E0,0E0,0E0,0E0,0E0],"parents":[2147483647,0,0,1,1,2,2,3,3,4,4,5,5,6,6],"right_children":[2,4,6,8,10,12,14,-1,-1,-1,-1,-1,-1,-1,-1],"split_conditions":[4.1E1,2.205E3,4.91E2,1E0,3E0,7E0,1.53E2,2.4042016E-2,-3.3621594E-2,-3.4486735E-1,-0E0,-2.9852316E-1,6.2435485E-2,2.2427367E-1,-0E0],"split_indices":[25,28,28,48,25,17,25,0,0,0,0,0,0,0,0],"split_type":[0,0,0,0,0,0,0,0,0,0,0,0,0,0,0],"sum_hessian":[9.417059E3,8.754508E3,6.625503E2,8.626761E3,1.2774768E2,5.240321E2,1.3851814E2,7.030501E3,1.5962595E3,1.09157875E2,1.8589804E1,3.802262E2,1.4380594E2,1.148333E2,2.3684841E1],"tree_param":{"num_deleted":"0","num_feature":"56","num_nodes":"15","size_leaf_vector":"1"}},{"base_weights":[4.6819467E-3,-2.7132431E-2,4.8589777E-2,-4.3608613E-2,8.569424E-2,7.0334256E-2,-5.1914703E-2,-7.060797E-2,1.2749226E-2,-0E0,1.6582678E-1,8.22401E-2,-0E0,-1.3544269E-1,5.7058536E-2],"categories":[],"categories_nodes":[],"categories_segments":[],"categories_sizes":[],"default_left":[0,0,0,0,0,0,0,0,0,0,0,0,0,0,0],"id":34,"left_children":[1,3,5,7,9,11,13,-1,-1,-1,-1,-1,-1,-1,-1],"loss_changes":[1.022314E1,7.060693E0,7.0550876E0,6.039113E0,4.5474143E0,2.4091883E0,5.1397247E0,0E0,0E0,0E0,0E0,0E0,0E0,0E0,0E0],"parents":[2147483647,0,0,1,1,2,2,3,3,4,4,5,5,6,6],"right_children":[2,4,6,8,10,12,14,-1,-1,-1,-1,-1,-1,-1,-1],"split_conditions":[1E0,4E0,7.8E1,8.67E-1,1E0,3E0,2E0,-7.060797E-2,1.2749226E-2,-0E0,1.6582678E-1,8.22401E-2,-0E0,-1.3544269E-1,5.7058536E-2],"split_indices":[14,29,11,35,8,29,29,0,0,0,0,0,0,0,0],"split_type":[0,0,0,0,0,0,0,0,0,0,0,0,0,0,0],"sum_hessian":[7.1628955E3,4.021594E3,3.1413015E3,3.587023E3,4.345712E2,2.6646038E3,4.766977E2,2.5449827E3,1.0420403E3,1.5388214E2,2.8068906E2,2.3048826E3,3.5972122E2,3.2166455E2,1.5503313E2],"tree_param":{"num_deleted":"0","num_feature":"56","num_nodes":"15","size_leaf_vector":"1"}},{"base_weights":[-5.765002E-4,5.3604208E-2,-1.3557492E-1,8.877964E-3,4.206879E-1,-1.8940562E-1,5.5185366E-2,4.3068103E-2,-1.999422E-1,4.6474543E-1,-0E0,-9.579367E-2,-3.797129E-1,-0E0,1.9993082E-1],"categories":[],"categories_nodes":[],"categories_segments":[],"categories_sizes":[],"default_left":[0,0,0,0,0,0,0,0,0,0,0,0,0,0,0],"id":35,"left_children":[1,3,5,7,9,11,13,-1,-1,-1,-1,-1,-1,-1,-1],"loss_changes":[2.9182476E1,4.026449E1,1.3299646E1,1.5894698E1,7.315506E0,1.2105904E1,2.4786496E0,0E0,0E0,0E0,0E0,0E0,0E0,0E0,0E0],"parents":[2147483647,0,0,1,1,2,2,3,3,4,4,5,5,6,6],"right_children":[2,4,6,8,10,12,14,-1,-1,-1,-1,-1,-1,-1,-1],"split_conditions":[4.9E1,1E0,4.7E1,1E2,1.1E1,1E0,1E0,4.3068103E-2,-1.999422E-1,4.6474543E-1,-0E0,-9.579367E-2,-3.797129E-1,-0E0,1.9993082E-1],"split_indices":[11,16,25,28,17,15,27,0,0,0,0,0,0,0,0],"split_type":[0,0,0,0,0,0,0,0,0,0,0,0,0,0,0],"sum_hessian":[3.8757158E3,2.7132852E3,1.1624308E3,2.443794E3,2.6949106E2,9.4748785E2,2.1494296E2,2.141799E3,3.0199503E2,2.5450713E2,1.4983923E1,6.7131744E2,2.7617038E2,1.3748149E2,7.7461464E1],"tree_param":{"num_deleted":"0","num_feature":"56","num_nodes":"15","size_leaf_vector":"1"}},{"base_weights":[-1.2396896E-2,-1.2426061E-1,4.6808135E-2,-2.4499282E-1,-0E0,7.268512E-2,-3.1543937E-1,-3.8901374E-1,-8.3373636E-2,-6.0959987E-2,1.4677876E-1,1.4013442E-1,-6.4329505E-2,-3.5974252E-1,-0E0],"categories":[],"categories_nodes":[],"categories_segments":[],"categories_sizes":[],"default_left":[0,0,0,0,0,0,0,0,0,0,0,0,0,0,0],"id":36,"left_children":[1,3,5,7,9,11,13,-1,-1,-1,-1,-1,-1,-1,-1],"loss_changes":[1.9755547E1,1.4934769E1,1.4616328E1,7.324644E0,4.4836593E0,1.6674538E1,2.1678772E0,0E0,0E0,0E0,0E0,0E0,0E0,0E0,0E0],"parents":[2147483647,0,0,1,1,2,2,3,3,4,4,5,5,6,6],"right_children":[2,4,6,8,10,12,14,-1,-1,-1,-1,-1,-1,-1,-1],"split_conditions":[6.7E1,9E0,4E0,2.3E2,4.69E2,1.3E1,4.4E1,-3.8901374E-1,-8.3373636E-2,-6.0959987E-2,1.4677876E-1,1.4013442E-1,-6.4329505E-2,-3.5974252E-1,-0E0],"split_indices":[11,17,29,28,28,25,17,0,0,0,0,0,0,0,0],"split_type":[0,0,0,0,0,0,0,0,0,0,0,0,0,0,0],"sum_hessian":[2.8640923E3,1.0493069E3,1.8147854E3,5.180182E2,5.312887E2,1.7203011E3,9.448416E1,2.404602E2,2.7755798E2,3.9195273E2,1.3933601E2,1.2016952E3,5.186061E2,8.9165504E1,5.3186526E0],"tree_param":{"num_deleted":"0","num_feature":"56","num_nodes":"15","size_leaf_vector":"1"}},{"base_weights":[-0E0,5.9925634E-3,-6.8183385E-2,3.46161E-2,-2.8902354E-2,-2.8459495E-1,-0E0,4.8224654E-2,-6.793458E-2,-6.439527E-2,9.8631315E-2,-5.699499E-1,-0E0,-4.6683755E-2,1.9008002E-1],"categories":[],"categories_nodes":[],"categories_segments":[],"categories_sizes":[],"default_left":[0,0,0,0,0,0,0,0,0,0,0,0,0,0,0],"id":37,"left_children":[1,3,5,7,9,11,13,-1,-1,-1,-1,-1,-1,-1,-1],"loss_changes":[3.7321496E0,8.567525E0,1.08165865E1,6.5582104E0,1.633194E1,1.3597037E1,4.9677773E0,0E0,0E0,0E0,0E0,0E0,0E0,0E0,0E0],"parents":[2147483647,0,0,1,1,2,2,3,3,4,4,5,5,6,6],"right_children":[2,4,6,8,10,12,14,-1,-1,-1,-1,-1,-1,-1,-1],"split_conditions":[9.96E2,1E0,2.2E1,1.1E1,9E0,1E0,2.7E1,4.8224654E-2,-6.793458E-2,-6.439527E-2,9.8631315E-2,-5.699499E-1,-0E0,-4.6683755E-2,1.9008002E-1],"split_indices":[28,14,12,17,17,14,14,0,0,0,0,0,0,0,0],"split_type":[0,0,0,0,0,0,0,0,0,0,0,0,0,0,0],"sum_hessian":[9.254456E3,8.518475E3,7.359817E2,4.837204E3,3.6812703E3,1.748494E2,5.6113226E2,4.3570615E3,4.8014276E2,2.9415388E3,7.397313E2,8.4702446E1,9.014695E1,4.5195883E2,1.0917342E2],"tree_param":{"num_deleted":"0","num_feature":"56","num_nodes":"15","size_leaf_vector":"1"}},{"base_weights":[5.911526E-3,-4.2907596E-3,6.0718555E-2,4.4404133E-3,-4.14107E-2,9.409996E-2,-0E0,3.982393E-2,-6.3683945E-3,-6.231225E-2,-0E0,1.1977106E-1,-0E0,-2.3353903E-2,6.477224E-2],"categories":[],"categories_nodes":[],"categories_segments":[],"categories_sizes":[],"default_left":[0,0,0,0,0,0,0,0,0,0,0,0,0,0,0],"id":38,"left_children":[1,3,5,7,9,11,13,-1,-1,-1,-1,-1,-1,-1,-1],"loss_changes":[4.5537734E0,2.2697146E0,2.6895518E0,2.066717E0,1.5535574E0,2.3785305E0,6.202677E-1,0E0,0E0,0E0,0E0,0E0,0E0,0E0,0E0],"parents":[2147483647,0,0,1,1,2,2,3,3,4,4,5,5,6,6],"right_children":[2,4,6,8,10,12,14,-1,-1,-1,-1,-1,-1,-1,-1],"split_conditions":[1.9E1,1.29E2,2.7E4,5E1,5E-1,3.6E-2,2.9E1,3.982393E-2,-6.3683945E-3,-6.231225E-2,-0E0,1.1977106E-1,-0E0,-2.3353903E-2,6.477224E-2],"split_indices":[12,31,30,13,0,3,14,0,0,0,0,0,0,0,0],"split_type":[0,0,0,0,0,0,0,0,0,0,0,0,0,0,0],"sum_hessian":[7.133375E3,5.860846E3,1.2725286E3,4.527413E3,1.3334329E3,8.3297943E2,4.3954907E2,1.2752535E3,3.2521597E3,9.8846326E2,3.4496967E2,6.795982E2,1.5338123E2,3.365927E2,1.02956375E2],"tree_param":{"num_deleted":"0","num_feature":"56","num_nodes":"15","size_leaf_vector":"1"}},{"base_weights":[-0E0,-1.9385725E-2,2.7500653E-1,6.617472E-3,-2.152232E-1,3.2581553E-1,-0E0,-8.389037E-2,8.446944E-2,-2.7611607E-1,-0E0,3.480087E-1,-0E0],"categories":[],"categories_nodes":[],"categories_segments":[],"categories_sizes":[],"default_left":[0,0,0,0,0,0,0,0,0,0,0,0,0],"id":39,"left_children":[1,3,5,7,9,11,-1,-1,-1,-1,-1,-1,-1],"loss_changes":[1.8408077E1,2.0343832E1,4.6899147E0,2.2001934E1,7.28393E0,1.9779243E0,0E0,0E0,0E0,0E0,0E0,0E0,0E0],"parents":[2147483647,0,0,1,1,2,2,3,3,4,4,5,5],"right_children":[2,4,6,8,10,12,-1,-1,-1,-1,-1,-1,-1],"split_conditions":[6E0,6.9E1,1.3E2,1E0,5E0,8E0,-0E0,-8.389037E-2,8.446944E-2,-2.7611607E-1,-0E0,3.480087E-1,-0E0],"split_indices":[29,11,11,14,16,2,0,0,0,0,0,0,0],"split_type":[0,0,0,0,0,0,0,0,0,0,0,0,0],"sum_hessian":[3.8086052E3,3.5840186E3,2.245867E2,3.1196912E3,4.6432755E2,2.0389438E2,2.0692331E1,1.383157E3,1.736534E3,3.7725742E2,8.707011E1,1.9492627E2,8.968097E0],"tree_param":{"num_deleted":"0","num_feature":"56","num_nodes":"13","size_leaf_vector":"1"}},{"base_weights":[-1.5718084E-2,8.451542E-5,-2.6538727E-1,6.5426946E-2,-9.669332E-2,-3.4761488E-1,-0E0,-1.7069438E-2,1.4480294E-1,-1.7937946E-1,3.8965903E-2,-4.1998118E-1,-0E0],"categories":[],"categories_nodes":[],"categories_segments":[],"categories_sizes":[],"default_left":[0,0,0,0,0,0,0,0,0,0,0,0,0],"id":40,"left_children":[1,3,5,7,9,11,-1,-1,-1,-1,-1,-1,-1],"loss_changes":[1.3508865E1,1.5825677E1,5.569895E0,1.16595745E1,1.2257153E1,4.7916374E0,0E0,0E0,0E0,0E0,0E0,0E0,0E0],"parents":[2147483647,0,0,1,1,2,2,3,3,4,4,5,5],"right_children":[2,4,6,8,10,12,-1,-1,-1,-1,-1,-1,-1],"split_conditions":[6.15E-1,1.4E1,2E1,7.5E1,1.287E3,1.6E2,-0E0,-1.7069438E-2,1.4480294E-1,-1.7937946E-1,3.8965903E-2,-4.1998118E-1,-0E0],"split_indices":[35,12,17,11,28,11,0,0,0,0,0,0,0],"split_type":[0,0,0,0,0,0,0,0,0,0,0,0,0],"sum_hessian":[2.7504968E3,2.5500408E3,2.0045602E2,1.5841251E3,9.659157E2,1.6251503E2,3.7940987E1,7.15402E2,8.6872314E2,6.457277E2,3.2018802E2,1.381857E2,2.4329329E1],"tree_param":{"num_deleted":"0","num_feature":"56","num_nodes":"13","size_leaf_vector":"1"}},{"base_weights":[1.551686E-3,2.101488E-2,-4.1761268E-2,1.3436679E-2,2.0681037E-1,-0E0,-1.6905259E-1,-1.1861152E-3,8.531738E-2,3.5922578E-1,-0E0,-9.85497E-2,5.3420816E-2,-2.3730333E-1,-0E0],"categories":[],"categories_nodes":[],"categories_segments":[],"categories_sizes":[],"default_left":[0,0,0,0,0,0,0,0,0,0,0,0,0,0,0],"id":41,"left_children":[1,3,5,7,9,11,13,-1,-1,-1,-1,-1,-1,-1,-1],"loss_changes":[7.4920015E0,6.891609E0,1.5353166E1,7.4217443E0,6.632922E0,1.0086752E1,1.031992E1,0E0,0E0,0E0,0E0,0E0,0E0,0E0,0E0],"parents":[2147483647,0,0,1,1,2,2,3,3,4,4,5,5,6,6],"right_children":[2,4,6,8,10,12,14,-1,-1,-1,-1,-1,-1,-1,-1],"split_conditions":[2E0,7.4E1,1.2E1,1E0,2.205E3,1.6E1,9.4E1,-1.1861152E-3,8.531738E-2,3.5922578E-1,-0E0,-9.85497E-2,5.3420816E-2,-2.3730333E-1,-0E0],"split_indices":[29,12,25,15,28,11,11,0,0,0,0,0,0,0,0],"split_type":[0,0,0,0,0,0,0,0,0,0,0,0,0,0,0],"sum_hessian":[9.131278E3,6.459857E3,2.6714214E3,6.259443E3,2.0041437E2,1.9721158E3,6.993056E2,5.086544E3,1.1728988E3,1.1715831E2,8.325606E1,6.482977E2,1.3238181E3,5.3766547E2,1.6164015E2],"tree_param":{"num_deleted":"0","num_feature":"56","num_nodes":"15","size_leaf_vector":"1"}},{"base_weights":[5.232211E-3,2.606226E-2,-1.3127459E-2,4.562118E-2,-2.7584672E-2,-3.42118E-2,4.738815E-2,6.531629E-2,-1.6626969E-2,-1.1051257E-1,6.6707395E-2,-1.4868966E-2,-1.3024518E-1,-0E0,1.2820251E-1],"categories":[],"categories_nodes":[],"categories_segments":[],"categories_sizes":[],"default_left":[0,0,0,0,0,0,0,0,0,0,0,0,0,0,0],"id":42,"left_children":[1,3,5,7,9,11,13,-1,-1,-1,-1,-1,-1,-1,-1],"loss_changes":[2.8499138E0,3.9462047E0,4.368992E0,3.8792872E0,6.8776727E0,3.633238E0,2.7644548E0,0E0,0E0,0E0,0E0,0E0,0E0,0E0,0E0],"parents":[2147483647,0,0,1,1,2,2,3,3,4,4,5,5,6,6],"right_children":[2,4,6,8,10,12,14,-1,-1,-1,-1,-1,-1,-1,-1],"split_conditions":[2.9E1,1E0,7.27E-1,2E0,2.4E1,5E0,1E2,6.531629E-2,-1.6626969E-2,-1.1051257E-1,6.6707395E-2,-1.4868966E-2,-1.3024518E-1,-0E0,1.2820251E-1],"split_indices":[28,35,35,17,11,9,28,0,0,0,0,0,0,0,0],"split_type":[0,0,0,0,0,0,0,0,0,0,0,0,0,0,0],"sum_hessian":[7.111945E3,3.5867893E3,3.5251558E3,2.7651924E3,8.2159686E2,2.7371738E3,7.879819E2,2.222575E3,5.426173E2,4.9347626E2,3.281206E2,2.3659204E3,3.712533E2,5.1298694E2,2.7499493E2],"tree_param":{"num_deleted":"0","num_feature":"56","num_nodes":"15","size_leaf_vector":"1"}},{"base_weights":[-2.1890677E-3,2.096735E-2,-1.544165E-1,5.832468E-2,-8.63911E-2,-1.873668E-1,8.8955894E-2,-4.001183E-3,1.434297E-1,1.0834878E-1,-2.1056609E-1,-2.872767E-1,-7.110228E-2,-0E0,4.4268736E-1],"categories":[],"categories_nodes":[],"categories_segments":[],"categories_sizes":[],"default_left":[0,0,0,0,0,0,0,0,0,0,0,0,0,0,0],"id":43,"left_children":[1,3,5,7,9,11,13,-1,-1,-1,-1,-1,-1,-1,-1],"loss_changes":[1.4443191E1,1.2441287E1,5.395385E0,1.4241653E1,1.9177067E1,2.426506E0,2.1823018E0,0E0,0E0,0E0,0E0,0E0,0E0,0E0,0E0],"parents":[2147483647,0,0,1,1,2,2,3,3,4,4,5,5,6,6],"right_children":[2,4,6,8,10,12,14,-1,-1,-1,-1,-1,-1,-1,-1],"split_conditions":[3E0,1E0,1.07E2,1E0,2.1E1,1E0,1E0,-4.001183E-3,1.434297E-1,1.0834878E-1,-2.1056609E-1,-2.872767E-1,-7.110228E-2,-0E0,4.4268736E-1],"split_indices":[17,15,14,14,11,27,15,0,0,0,0,0,0,0,0],"split_type":[0,0,0,0,0,0,0,0,0,0,0,0,0,0,0],"sum_hessian":[3.7168171E3,3.169806E3,5.470111E2,2.4209834E3,7.4882263E2,5.181746E2,2.8836487E1,1.3302433E3,1.09074E3,2.6026028E2,4.8856238E2,2.3163847E2,2.865361E2,1.7495941E1,1.1340544E1],"tree_param":{"num_deleted":"0","num_feature":"56","num_nodes":"15","size_leaf_vector":"1"}},{"base_weights":[-2.2936354E-3,-3.106322E-1,7.7645797E-3,-3.2747218E-1,-0E0,-5.3879358E-2,7.917283E-2,-3.4562194E-1,-0E0,-5.203929E-3,-1.8873094E-1,1.5244406E-1,-0E0],"categories":[],"categories_nodes":[],"categories_segments":[],"categories_sizes":[],"default_left":[0,0,0,0,0,0,0,0,0,0,0,0,0],"id":44,"left_children":[1,3,5,7,-1,9,11,-1,-1,-1,-1,-1,-1],"loss_changes":[1.1309195E1,8.874922E-1,1.15016165E1,7.9242706E-1,0E0,6.5691576E0,7.8177695E0,0E0,0E0,0E0,0E0,0E0,0E0],"parents":[2147483647,0,0,1,1,2,2,3,3,5,5,6,6],"right_children":[2,4,6,8,-1,10,12,-1,-1,-1,-1,-1,-1],"split_conditions":[2.1E1,6E4,3E0,5E0,-0E0,4E0,1E0,-3.4562194E-1,-0E0,-5.203929E-3,-1.8873094E-1,1.5244406E-1,-0E0],"split_indices":[11,30,17,9,0,25,14,0,0,0,0,0,0],"split_type":[0,0,0,0,0,0,0,0,0,0,0,0,0],"sum_hessian":[2.6682068E3,1.14752495E2,2.5534543E3,1.1142956E2,3.3229373E0,1.2953958E3,1.2580586E3,1.0656521E2,4.864354E0,1.0070791E3,2.8831662E2,6.75012E2,5.8304663E2],"tree_param":{"num_deleted":"0","num_feature":"56","num_nodes":"13","size_leaf_vector":"1"}},{"base_weights":[1.60323E-3,1.0799359E-2,-5.277409E-2,1.9795122E-2,-4.730923E-2,-8.204989E-2,2.108513E-1,-1.1118787E-2,3.4515303E-2,5.6765415E-2,-1.5226793E-1,-1.1582557E-1,1.0059385E-1,3.0544132E-1,-0E0],"categories":[],"categories_nodes":[],"categories_segments":[],"categories_sizes":[],"default_left":[0,0,0,0,0,0,0,0,0,0,0,0,0,0,0],"id":45,"left_children":[1,3,5,7,9,11,13,-1,-1,-1,-1,-1,-1,-1,-1],"loss_changes":[4.0783315E0,3.829783E0,7.557535E0,3.3962276E0,1.0835884E1,6.730192E0,2.437874E0,0E0,0E0,0E0,0E0,0E0,0E0,0E0,0E0],"parents":[2147483647,0,0,1,1,2,2,3,3,4,4,5,5,6,6],"right_children":[2,4,6,8,10,12,14,-1,-1,-1,-1,-1,-1,-1,-1],"split_conditions":[3E0,1.1E1,1.9E1,1E0,5.4E1,1.14E2,1E0,-1.1118787E-2,3.4515303E-2,5.6765415E-2,-1.5226793E-1,-1.1582557E-1,1.0059385E-1,3.0544132E-1,-0E0],"split_indices":[29,17,17,8,11,11,54,0,0,0,0,0,0,0,0],"split_type":[0,0,0,0,0,0,0,0,0,0,0,0,0,0,0],"sum_hessian":[8.992924E3,7.850049E3,1.142875E3,6.9472925E3,9.0275604E2,1.0634045E3,7.94705E1,2.0219316E3,4.925361E3,4.056783E2,4.9707773E2,9.439587E2,1.1944582E2,6.3478184E1,1.5992316E1],"tree_param":{"num_deleted":"0","num_feature":"56","num_nodes":"15","size_leaf_vector":"1"}},{"base_weights":[2.6909802E-3,-6.029855E-3,3.283122E-2,-1.41087845E-2,4.329846E-2,6.29529E-2,-0E0,1.7308693E-2,-3.6565628E-2,-4.3337755E-2,9.610764E-2,1.0214579E-1,-0E0,1.4003669E-2,-6.4359054E-2],"categories":[],"categories_nodes":[],"categories_segments":[],"categories_sizes":[],"default_left":[0,0,0,0,0,0,0,0,0,0,0,0,0,0,0],"id":46,"left_children":[1,3,5,7,9,11,13,-1,-1,-1,-1,-1,-1,-1,-1],"loss_changes":[2.1347923E0,1.8014476E0,2.0334792E0,3.5001984E0,3.1171331E0,3.205974E0,9.1619927E-1,0E0,0E0,0E0,0E0,0E0,0E0,0E0,0E0],"parents":[2147483647,0,0,1,1,2,2,3,3,4,4,5,5,6,6],"right_children":[2,4,6,8,10,12,14,-1,-1,-1,-1,-1,-1,-1,-1],"split_conditions":[1.4E1,4E0,7E1,1E0,1.2E1,2E0,1E0,1.7308693E-2,-3.6565628E-2,-4.3337755E-2,9.610764E-2,1.0214579E-1,-0E0,1.4003669E-2,-6.4359054E-2],"split_indices":[12,29,28,8,11,8,15,0,0,0,0,0,0,0,0],"split_type":[0,0,0,0,0,0,0,0,0,0,0,0,0,0,0],"sum_hessian":[7.1003687E3,5.2502646E3,1.8501041E3,4.6862017E3,5.640629E2,1.015577E3,8.3452704E2,1.7678634E3,2.9183381E3,1.4197078E2,4.2209213E2,6.9239685E2,3.231802E2,6.4491455E2,1.896125E2],"tree_param":{"num_deleted":"0","num_feature":"56","num_nodes":"15","size_leaf_vector":"1"}},{"base_weights":[-7.446089E-3,-6.0005296E-2,7.8290105E-2,-2.5397459E-2,-1.8683992E-1,1.4810476E-1,-0E0,-5.1636193E-2,1.3846715E-1,-2.230749E-1,2.011699E-1,1.7619428E-1,-0E0,-6.9279455E-2,1.9689818E-1],"categories":[],"categories_nodes":[],"categories_segments":[],"categories_sizes":[],"default_left":[0,0,0,0,0,0,0,0,0,0,0,0,0,0,0],"id":47,"left_children":[1,3,5,7,9,11,13,-1,-1,-1,-1,-1,-1,-1,-1],"loss_changes":[1.6407888E1,8.2088585E0,7.872426E0,7.3641725E0,6.487712E0,3.9626255E0,7.640968E0,0E0,0E0,0E0,0E0,0E0,0E0,0E0,0E0],"parents":[2147483647,0,0,1,1,2,2,3,3,4,4,5,5,6,6],"right_children":[2,4,6,8,10,12,14,-1,-1,-1,-1,-1,-1,-1,-1],"split_conditions":[3E0,5.7E1,3E1,2.8E1,5.16E2,5E0,1E0,-5.1636193E-2,1.3846715E-1,-2.230749E-1,2.011699E-1,1.7619428E-1,-0E0,-6.9279455E-2,1.9689818E-1],"split_indices":[29,11,11,12,14,27,16,0,0,0,0,0,0,0,0],"split_type":[0,0,0,0,0,0,0,0,0,0,0,0,0,0,0],"sum_hessian":[3.6796936E3,2.35372E3,1.3259735E3,1.9120461E3,4.4167392E2,7.286961E2,5.972774E2,1.7013322E3,2.1071404E2,4.279104E2,1.376354E1,6.4222424E2,8.647192E1,4.580138E2,1.3926363E2],"tree_param":{"num_deleted":"0","num_feature":"56","num_nodes":"15","size_leaf_vector":"1"}},{"base_weights":[-6.0656187E-3,-4.985349E-2,8.315213E-2,-9.614427E-2,1.1212599E-1,2.1031632E-1,-1.798376E-2,-1.3624091E-1,1.320835E-1,2.046852E-1,-0E0,2.574493E-1,-0E0,-1.5444346E-1,2.2985648E-2],"categories":[],"categories_nodes":[],"categories_segments":[],"categories_sizes":[],"default_left":[0,0,0,0,0,0,0,0,0,0,0,0,0,0,0],"id":48,"left_children":[1,3,5,7,9,11,13,-1,-1,-1,-1,-1,-1,-1,-1],"loss_changes":[9.855867E0,1.353171E1,1.2003166E1,1.3489562E1,4.298167E0,4.1176414E0,3.5181353E0,0E0,0E0,0E0,0E0,0E0,0E0,0E0,0E0],"parents":[2147483647,0,0,1,1,2,2,3,3,4,4,5,5,6,6],"right_children":[2,4,6,8,10,12,14,-1,-1,-1,-1,-1,-1,-1,-1],"split_conditions":[4.8E2,1.33E2,3E1,2.3E1,9E0,1.01E2,6.7E1,-1.3624091E-1,1.320835E-1,2.046852E-1,-0E0,2.574493E-1,-0E0,-1.5444346E-1,2.2985648E-2],"split_indices":[28,11,12,17,12,11,11,0,0,0,0,0,0,0,0],"split_type":[0,0,0,0,0,0,0,0,0,0,0,0,0,0,0],"sum_hessian":[2.606015E3,1.8235482E3,7.824668E2,1.4665715E3,3.5697668E2,3.89953E2,3.925138E2,1.2850278E3,1.815437E2,2.090136E2,1.479631E2,3.2203256E2,6.792043E1,1.463547E2,2.4615909E2],"tree_param":{"num_deleted":"0","num_feature":"56","num_nodes":"15","size_leaf_vector":"1"}},{"base_weights":[-0E0,-4.9316767E-3,6.9966234E-2,3.8169448E-3,-4.076133E-2,9.420954E-2,-0E0,1.8081741E-2,-3.584188E-2,-1.1491975E-1,9.8814E-4,1.1994928E-1,-0E0],"categories":[],"categories_nodes":[],"categories_segments":[],"categories_sizes":[],"default_left":[0,0,0,0,0,0,0,0,0,0,0,0,0],"id":49,"left_children":[1,3,5,7,9,11,-1,-1,-1,-1,-1,-1,-1],"loss_changes":[3.191822E0,2.9556868E0,1.3646917E0,3.4479918E0,6.8471174E0,1.9537072E0,0E0,0E0,0E0,0E0,0E0,0E0,0E0],"parents":[2147483647,0,0,1,1,2,2,3,3,4,4,5,5],"right_children":[2,4,6,8,10,12,-1,-1,-1,-1,-1,-1,-1],"split_conditions":[1E0,4.67E-1,1.85E2,7.4E1,5.63E-1,3E0,-0E0,1.8081741E-2,-3.584188E-2,-1.1491975E-1,9.8814E-4,1.1994928E-1,-0E0],"split_indices":[50,35,31,11,32,2,0,0,0,0,0,0,0],"split_type":[0,0,0,0,0,0,0,0,0,0,0,0,0],"sum_hessian":[8.859165E3,8.249133E3,6.100316E2,6.4066094E3,1.8425239E3,4.8977686E2,1.2025473E2,4.8976714E3,1.508938E3,7.493124E2,1.0932115E3,4.3753494E2,5.2241932E1],"tree_param":{"num_deleted":"0","num_feature":"56","num_nodes":"13","size_leaf_vector":"1"}},{"base_weights":[4.283154E-3,-1.1210359E-2,2.4869518E-2,-2.1527447E-2,3.750874E-2,5.194392E-2,-0E0,-4.953096E-2,1.211479E-2,-0E0,9.468429E-2,8.3133765E-2,-0E0,-8.9230705E-3,1.0083028E-1],"categories":[],"categories_nodes":[],"categories_segments":[],"categories_sizes":[],"default_left":[0,0,0,0,0,0,0,0,0,0,0,0,0,0,0],"id":50,"left_children":[1,3,5,7,9,11,13,-1,-1,-1,-1,-1,-1,-1,-1],"loss_changes":[2.389594E0,1.727608E0,2.3031836E0,3.4530725E0,1.665179E0,2.0506415E0,1.3982116E0,0E0,0E0,0E0,0E0,0E0,0E0,0E0,0E0],"parents":[2147483647,0,0,1,1,2,2,3,3,4,4,5,5,6,6],"right_children":[2,4,6,8,10,12,14,-1,-1,-1,-1,-1,-1,-1,-1],"split_conditions":[1E0,1E0,5.78E-1,4E0,6.8E1,6.5E1,5.9E1,-4.953096E-2,1.211479E-2,-0E0,9.468429E-2,8.3133765E-2,-0E0,-8.9230705E-3,1.0083028E-1],"split_indices":[55,42,32,14,31,28,14,0,0,0,0,0,0,0,0],"split_type":[0,0,0,0,0,0,0,0,0,0,0,0,0,0,0],"sum_hessian":[7.0618247E3,3.752415E3,3.3094097E3,3.266496E3,4.8591895E2,1.6114434E3,1.6979663E3,1.9446002E3,1.3218958E3,2.2476636E2,2.611526E2,9.2521674E2,6.862267E2,1.5737712E3,1.2419506E2],"tree_param":{"num_deleted":"0","num_feature":"56","num_nodes":"15","size_leaf_vector":"1"}},{"base_weights":[-1.820603E-3,-6.0322925E-2,5.845553E-2,-1.778318E-1,-1.3791734E-2,1.5671626E-1,-0E0,-2.3869373E-1,-0E0,2.6923688E-2,-1.0068404E-1,1.8308116E-1,-0E0,-6.023643E-2,6.685825E-2],"categories":[],"categories_nodes":[],"categories_segments":[],"categories_sizes":[],"default_left":[0,0,0,0,0,0,0,0,0,0,0,0,0,0,0],"id":51,"left_children":[1,3,5,7,9,11,13,-1,-1,-1,-1,-1,-1,-1,-1],"loss_changes":[1.2616954E1,8.454802E0,1.0284958E1,6.050929E0,5.767892E0,2.8255806E0,4.102474E0,0E0,0E0,0E0,0E0,0E0,0E0,0E0,0E0],"parents":[2147483647,0,0,1,1,2,2,3,3,4,4,5,5,6,6],"right_children":[2,4,6,8,10,12,14,-1,-1,-1,-1,-1,-1,-1,-1],"split_conditions":[1.82E-1,1E0,2E0,6.43E-1,1E0,3.7E4,1E0,-2.3869373E-1,-0E0,2.6923688E-2,-1.0068404E-1,1.8308116E-1,-0E0,-6.023643E-2,6.685825E-2],"split_indices":[35,14,9,0,15,30,14,0,0,0,0,0,0,0,0],"split_type":[0,0,0,0,0,0,0,0,0,0,0,0,0,0,0],"sum_hessian":[3.570669E3,1.8961863E3,1.6744828E3,4.7610626E2,1.4200801E3,6.508801E2,1.02360266E3,3.700245E2,1.0608175E2,8.8908405E2,5.30996E2,5.609472E2,8.993291E1,5.7171454E2,4.5188812E2],"tree_param":{"num_deleted":"0","num_feature":"56","num_nodes":"15","size_leaf_vector":"1"}},{"base_weights":[-1.194647E-3,-9.770593E-2,2.7777124E-2,-2.0577998E-1,2.7917964E-2,1.0094481E-1,-1.7675068E-2,-3.4264123E-1,-0E0,1.1387018E-1,-3.27401E-2,-9.9134885E-2,1.3216922E-1,-4.253455E-2,1.9887935E-1],"categories":[],"categories_nodes":[],"categories_segments":[],"categories_sizes":[],"default_left":[0,0,0,0,0,0,0,0,0,0,0,0,0,0,0],"id":52,"left_children":[1,3,5,7,9,11,13,-1,-1,-1,-1,-1,-1,-1,-1],"loss_changes":[7.7757025E0,1.0799398E1,7.0428853E0,8.787794E0,2.197504E0,5.339945E0,4.194826E0,0E0,0E0,0E0,0E0,0E0,0E0,0E0,0E0],"parents":[2147483647,0,0,1,1,2,2,3,3,4,4,5,5,6,6],"right_children":[2,4,6,8,10,12,14,-1,-1,-1,-1,-1,-1,-1,-1],"split_conditions":[3E1,1.09E2,7.4E1,1.2E1,4E-2,3E1,2.474E3,-3.4264123E-1,-0E0,1.1387018E-1,-3.27401E-2,-9.9134885E-2,1.3216922E-1,-4.253455E-2,1.9887935E-1],"split_indices":[28,11,13,17,35,11,28,0,0,0,0,0,0,0,0],"split_type":[0,0,0,0,0,0,0,0,0,0,0,0,0,0,0],"sum_hessian":[2.528843E3,6.630085E2,1.8658345E3,3.9884622E2,2.6416223E2,7.9877655E2,1.0670579E3,2.180697E2,1.8077652E2,1.7713872E2,8.7023506E1,6.430241E1,7.344741E2,9.993216E2,6.77363E1],"tree_param":{"num_deleted":"0","num_feature":"56","num_nodes":"15","size_leaf_vector":"1"}},{"base_weights":[-1.3493757E-3,-1.6368182E-2,1.6449763E-2,-4.2786743E-2,-0E0,-0E0,6.1520707E-2,-1.2741004E-2,-9.181465E-2,-1.2457593E-2,1.651757E-2,2.368177E-2,-1.5620767E-2,8.4336534E-2,-0E0],"categories":[],"categories_nodes":[],"categories_segments":[],"categories_sizes":[],"default_left":[0,0,0,0,0,0,0,0,0,0,0,0,0,0,0],"id":53,"left_children":[1,3,5,7,9,11,13,-1,-1,-1,-1,-1,-1,-1,-1],"loss_changes":[2.3376353E0,2.4304638E0,2.2194257E0,1.9974279E0,6.375768E-1,1.1227102E0,1.5169678E0,0E0,0E0,0E0,0E0,0E0,0E0,0E0,0E0],"parents":[2147483647,0,0,1,1,2,2,3,3,4,4,5,5,6,6],"right_children":[2,4,6,8,10,12,14,-1,-1,-1,-1,-1,-1,-1,-1],"split_conditions":[3.6E-2,7.6E1,2E0,4E0,7.6E1,4.4E1,4.17E-1,-1.2741004E-2,-9.181465E-2,-1.2457593E-2,1.651757E-2,2.368177E-2,-1.5620767E-2,8.4336534E-2,-0E0],"split_indices":[3,31,27,14,28,28,3,0,0,0,0,0,0,0,0],"split_type":[0,0,0,0,0,0,0,0,0,0,0,0,0,0,0],"sum_hessian":[8.745693E3,5.048069E3,3.6976248E3,2.065524E3,2.982545E3,2.8477856E3,8.4983923E2,1.4079291E3,6.575949E2,1.5010337E3,1.4815112E3,1.3478469E3,1.4999386E3,6.650275E2,1.8481166E2],"tree_param":{"num_deleted":"0","num_feature":"56","num_nodes":"15","size_leaf_vector":"1"}},{"base_weights":[4.4684205E-3,9.057956E-3,-6.7309685E-2,-5.954877E-3,3.247129E-2,-1.1849288E-1,-0E0,-1.8173471E-2,9.761154E-2,5.629047E-2,-5.569283E-2,-0E0,-1.6509965E-1,3.820721E-2,-0E0],"categories":[],"categories_nodes":[],"categories_segments":[],"categories_sizes":[],"default_left":[0,0,0,0,0,0,0,0,0,0,0,0,0,0,0],"id":54,"left_children":[1,3,5,7,9,11,13,-1,-1,-1,-1,-1,-1,-1,-1],"loss_changes":[1.7388476E0,2.6391277E0,1.7197254E0,4.0861654E0,6.0966682E0,1.5942159E0,9.3511835E-2,0E0,0E0,0E0,0E0,0E0,0E0,0E0,0E0],"parents":[2147483647,0,0,1,1,2,2,3,3,4,4,5,5,6,6],"right_children":[2,4,6,8,10,12,14,-1,-1,-1,-1,-1,-1,-1,-1],"split_conditions":[4E0,1E0,3.3E1,7E1,7.2E1,2E1,1.05E2,-1.8173471E-2,9.761154E-2,5.629047E-2,-5.569283E-2,-0E0,-1.6509965E-1,3.820721E-2,-0E0],"split_indices":[15,14,14,11,11,11,11,0,0,0,0,0,0,0,0],"split_type":[0,0,0,0,0,0,0,0,0,0,0,0,0,0,0],"sum_hessian":[7.0437993E3,6.7522485E3,2.9155078E2,3.854408E3,2.8978408E3,2.158826E2,7.566817E1,3.5347632E3,3.196446E2,2.3710452E3,5.267956E2,4.667981E1,1.6920279E2,6.305837E1,1.26098E1],"tree_param":{"num_deleted":"0","num_feature":"56","num_nodes":"15","size_leaf_vector":"1"}},{"base_weights":[-0E0,-8.656101E-3,3.8495204E-1,-0E0,-2.5920886E-1,4.4170934E-1,-0E0,-3.0254105E-2,8.166039E-2,-3.3505332E-1,-0E0,4.749535E-1,-0E0],"categories":[],"categories_nodes":[],"categories_segments":[],"categories_sizes":[],"default_left":[0,0,0,0,0,0,0,0,0,0,0,0,0],"id":55,"left_children":[1,3,5,7,9,11,-1,-1,-1,-1,-1,-1,-1],"loss_changes":[9.231687E0,9.503955E0,2.2879267E0,8.5934925E0,4.5310564E0,1.4895496E0,0E0,0E0,0E0,0E0,0E0,0E0,0E0],"parents":[2147483647,0,0,1,1,2,2,3,3,4,4,5,5],"right_children":[2,4,6,8,10,12,-1,-1,-1,-1,-1,-1,-1],"split_conditions":[9E0,1E2,1.64E2,1.2E1,4E0,2.6E1,-0E0,-3.0254105E-2,8.166039E-2,-3.3505332E-1,-0E0,4.749535E-1,-0E0],"split_indices":[29,11,11,12,15,29,0,0,0,0,0,0,0],"split_type":[0,0,0,0,0,0,0,0,0,0,0,0,0],"sum_hessian":[3.5199146E3,3.4603677E3,5.9546936E1,3.3160571E3,1.4431061E2,5.671321E1,2.833724E0,2.3512422E3,9.6481494E2,1.2633184E2,1.797876E1,5.5519917E1,1.1932936E0],"tree_param":{"num_deleted":"0","num_feature":"56","num_nodes":"13","size_leaf_vector":"1"}},{"base_weights":[-3.8028304E-3,3.586864E-2,-8.9791566E-2,-1.2939123E-3,1.5126352E-1,-2.0425849E-1,5.8392998E-2,-5.8648642E-2,3.8181197E-2,1.8600065E-1,-0E0,-2.5341845E-1,-0E0,1.3518871E-1,-1.5968715E-1],"categories":[],"categories_nodes":[],"categories_segments":[],"categories_sizes":[],"default_left":[0,0,0,0,0,0,0,0,0,0,0,0,0,0,0],"id":56,"left_children":[1,3,5,7,9,11,13,-1,-1,-1,-1,-1,-1,-1,-1],"loss_changes":[8.984397E0,8.423729E0,1.6077421E1,2.825784E0,3.725068E0,5.8031178E0,5.4372993E0,0E0,0E0,0E0,0E0,0E0,0E0,0E0,0E0],"parents":[2147483647,0,0,1,1,2,2,3,3,4,4,5,5,6,6],"right_children":[2,4,6,8,10,12,14,-1,-1,-1,-1,-1,-1,-1,-1],"split_conditions":[1E0,4E0,1E0,7.4E1,3E0,7.2E1,5E0,-5.8648642E-2,3.8181197E-2,1.8600065E-1,-0E0,-2.5341845E-1,-0E0,1.3518871E-1,-1.5968715E-1],"split_indices":[14,8,15,11,29,14,16,0,0,0,0,0,0,0,0],"split_type":[0,0,0,0,0,0,0,0,0,0,0,0,0,0,0],"sum_hessian":[2.4737012E3,1.6135621E3,8.6013904E2,1.1557019E3,4.578603E2,5.2313904E2,3.3699997E2,5.7422675E2,5.814751E2,4.101456E2,4.7714672E1,4.298722E2,9.326686E1,2.8342737E2,5.3572586E1],"tree_param":{"num_deleted":"0","num_feature":"56","num_nodes":"15","size_leaf_vector":"1"}},{"base_weights":[-0E0,-6.9059893E-3,5.30858E-2,2.5105334E-4,-7.186523E-2,-2.4458028E-2,1.3356334E-1,-1.1899886E-2,8.657344E-2,-4.593823E-1,-8.776302E-3,6.7359366E-2,-9.522289E-2,2.333809E-1,-0E0],"categories":[],"categories_nodes":[],"categories_segments":[],"categories_sizes":[],"default_left":[0,0,0,0,0,0,0,0,0,0,0,0,0,0,0],"id":57,"left_children":[1,3,5,7,9,11,13,-1,-1,-1,-1,-1,-1,-1,-1],"loss_changes":[3.313059E0,4.2739344E0,7.6227093E0,7.8334737E0,1.7271824E1,3.3410354E0,8.177928E0,0E0,0E0,0E0,0E0,0E0,0E0,0E0,0E0],"parents":[2147483647,0,0,1,1,2,2,3,3,4,4,5,5,6,6],"right_children":[2,4,6,8,10,12,14,-1,-1,-1,-1,-1,-1,-1,-1],"split_conditions":[9.7E1,1E0,1E0,1E0,2.9E1,1.09E2,1E0,-1.1899886E-2,8.657344E-2,-4.593823E-1,-8.776302E-3,6.7359366E-2,-9.522289E-2,2.333809E-1,-0E0],"split_indices":[11,16,14,15,11,11,15,0,0,0,0,0,0,0,0],"split_type":[0,0,0,0,0,0,0,0,0,0,0,0,0,0,0],"sum_hessian":[8.696636E3,7.6515093E3,1.0451261E3,6.7543823E3,8.971271E2,4.6933652E2,5.7578955E2,5.8201426E3,9.3423944E2,1.0253413E2,7.9459296E2,1.4279504E2,3.2654147E2,3.380584E2,2.3773119E2],"tree_param":{"num_deleted":"0","num_feature":"56","num_nodes":"15","size_leaf_vector":"1"}},{"base_weights":[1.413004E-4,-2.607737E-3,4.4106547E-2,-8.054135E-3,4.8817452E-2,1.16147175E-1,-0E0,-1.5188044E-2,3.6165543E-2,1.023506E-1,-0E0,-0E0,2.039385E-1,-1.6485877E-2,4.379783E-2],"categories":[],"categories_nodes":[],"categories_segments":[],"categories_sizes":[],"default_left":[0,0,0,0,0,0,0,0,0,0,0,0,0,0,0],"id":58,"left_children":[1,3,5,7,9,11,13,-1,-1,-1,-1,-1,-1,-1,-1],"loss_changes":[1.2682887E0,1.3938627E0,1.7074988E0,1.680841E0,1.8820728E0,2.6013687E0,3.6791992E-1,0E0,0E0,0E0,0E0,0E0,0E0,0E0,0E0],"parents":[2147483647,0,0,1,1,2,2,3,3,4,4,5,5,6,6],"right_children":[2,4,6,8,10,12,14,-1,-1,-1,-1,-1,-1,-1,-1],"split_conditions":[4.55E-1,4.6E1,1.85E4,7.5E-1,6.6E1,1E0,2.61E-1,-1.5188044E-2,3.6165543E-2,1.023506E-1,-0E0,-0E0,2.039385E-1,-1.6485877E-2,4.379783E-2],"split_indices":[1,25,30,0,11,40,35,0,0,0,0,0,0,0,0],"split_type":[0,0,0,0,0,0,0,0,0,0,0,0,0,0,0],"sum_hessian":[7.0581655E3,6.429625E3,6.2854016E2,5.990479E3,4.39146E2,2.1635818E2,4.1218198E2,5.353591E3,6.368883E2,2.7879224E2,1.6035376E2,8.4310684E1,1.320475E2,2.5809106E2,1.5409091E2],"tree_param":{"num_deleted":"0","num_feature":"56","num_nodes":"15","size_leaf_vector":"1"}},{"base_weights":[-0E0,1.5064332E-2,-1.8634002E-1,-0E0,2.1852978E-1,-2.2978128E-1,-0E0,3.4146942E-2,-6.958129E-2,2.5378668E-1,-0E0,-2.523555E-1,-0E0,-0E0,1.5962939E-1],"categories":[],"categories_nodes":[],"categories_segments":[],"categories_sizes":[],"default_left":[0,0,0,0,0,0,0,0,0,0,0,0,0,0,0],"id":59,"left_children":[1,3,5,7,9,11,13,-1,-1,-1,-1,-1,-1,-1,-1],"loss_changes":[8.814611E0,1.1193237E1,3.6322756E0,7.345916E0,2.8456888E0,1.2065439E0,1.20299034E-1,0E0,0E0,0E0,0E0,0E0,0E0,0E0,0E0],"parents":[2147483647,0,0,1,1,2,2,3,3,4,4,5,5,6,6],"right_children":[2,4,6,8,10,12,14,-1,-1,-1,-1,-1,-1,-1,-1],"split_conditions":[4.04E2,2.9E1,1.53E2,3.8E1,2E0,1E0,1E0,3.4146942E-2,-6.958129E-2,2.5378668E-1,-0E0,-2.523555E-1,-0E0,-0E0,1.5962939E-1],"split_indices":[28,12,25,11,10,42,15,0,0,0,0,0,0,0,0],"split_type":[0,0,0,0,0,0,0,0,0,0,0,0,0,0,0],"sum_hessian":[3.4875698E3,3.2559983E3,2.3157147E2,3.0071335E3,2.4886482E2,2.2074028E2,1.0831194E1,1.9641448E3,1.0429889E3,2.2844545E2,2.0419382E1,2.0178955E2,1.8950731E1,7.110168E0,3.7210264E0],"tree_param":{"num_deleted":"0","num_feature":"56","num_nodes":"15","size_leaf_vector":"1"}},{"base_weights":[-0E0,1.2720419E-2,-1.6351746E-1,3.1083014E-2,-1.08263984E-1,-2.2998326E-1,-0E0,-5.676699E-2,6.495924E-2,-1.4624804E-1,-0E0,-3.0140424E-1,-0E0],"categories":[],"categories_nodes":[],"categories_segments":[],"categories_sizes":[],"default_left":[0,0,0,0,0,0,0,0,0,0,0,0,0],"id":60,"left_children":[1,3,5,7,9,11,-1,-1,-1,-1,-1,-1,-1],"loss_changes":[6.278869E0,4.1740804E0,3.0847716E0,6.049985E0,1.2786422E0,3.454957E0,0E0,0E0,0E0,0E0,0E0,0E0,0E0],"parents":[2147483647,0,0,1,1,2,2,3,3,4,4,5,5],"right_children":[2,4,6,8,10,12,-1,-1,-1,-1,-1,-1,-1],"split_conditions":[4.38E-1,6.2E1,1.9E1,5.4E1,2E0,1.6E2,-0E0,-5.676699E-2,6.495924E-2,-1.4624804E-1,-0E0,-3.0140424E-1,-0E0],"split_indices":[35,12,17,11,8,11,0,0,0,0,0,0,0],"split_type":[0,0,0,0,0,0,0,0,0,0,0,0,0],"sum_hessian":[2.4441377E3,2.2237715E3,2.2036624E2,2.0031403E3,2.2063133E2,1.6922615E2,5.1140083E1,4.7513132E2,1.5280089E3,1.8023781E2,4.039353E1,1.3614212E2,3.308403E1],"tree_param":{"num_deleted":"0","num_feature":"56","num_nodes":"13","size_leaf_vector":"1"}},{"base_weights":[-7.802614E-4,1.4940906E-2,-2.4113428E-2,2.9308295E-2,-7.0394136E-2,-0E0,-1.063062E-1,-4.8756834E-2,4.6220057E-2,-2.3395921E-1,-0E0,-4.8444353E-2,5.1136788E-2,-1.3214955E-1,8.456765E-4],"categories":[],"categories_nodes":[],"categories_segments":[],"categories_sizes":[],"default_left":[0,0,0,0,0,0,0,0,0,0,0,0,0,0,0],"id":61,"left_children":[1,3,5,7,9,11,13,-1,-1,-1,-1,-1,-1,-1,-1],"loss_changes":[3.2674348E0,5.6188107E0,7.787117E0,5.6655297E0,6.093855E0,7.098091E0,3.7542915E0,0E0,0E0,0E0,0E0,0E0,0E0,0E0,0E0],"parents":[2147483647,0,0,1,1,2,2,3,3,4,4,5,5,6,6],"right_children":[2,4,6,8,10,12,14,-1,-1,-1,-1,-1,-1,-1,-1],"split_conditions":[1E0,5.35E2,2E0,8E0,2E1,4.7E1,1.3E2,-4.8756834E-2,4.6220057E-2,-2.3395921E-1,-0E0,-4.8444353E-2,5.1136788E-2,-1.3214955E-1,8.456765E-4],"split_indices":[14,28,29,11,12,11,11,0,0,0,0,0,0,0,0],"split_type":[0,0,0,0,0,0,0,0,0,0,0,0,0,0,0],"sum_hessian":[8.655315E3,4.915314E3,3.7400015E3,4.3078643E3,6.074495E2,2.8594565E3,8.8054504E2,6.614423E2,3.6464219E3,1.6541287E2,4.4203665E2,1.4332108E3,1.4262457E3,7.844422E2,9.610287E1],"tree_param":{"num_deleted":"0","num_feature":"56","num_nodes":"15","size_leaf_vector":"1"}},{"base_weights":[1.5228102E-3,-6.441738E-4,3.0258825E-2,8.830261E-3,-2.9847471E-2,-0E0,1.5524407E-1,1.8027568E-2,-6.1969794E-2,-6.471641E-2,-0E0,2.8610896E-2,-7.635358E-2,1.9841246E-1,-0E0],"categories":[],"categories_nodes":[],"categories_segments":[],"categories_sizes":[],"default_left":[0,0,0,0,0,0,0,0,0,0,0,0,0,0,0],"id":62,"left_children":[1,3,5,7,9,11,13,-1,-1,-1,-1,-1,-1,-1,-1],"loss_changes":[7.349924E-1,1.9342726E0,3.315772E0,2.4570446E0,2.398347E0,1.491001E0,1.9811764E0,0E0,0E0,0E0,0E0,0E0,0E0,0E0,0E0],"parents":[2147483647,0,0,1,1,2,2,3,3,4,4,5,5,6,6],"right_children":[2,4,6,8,10,12,14,-1,-1,-1,-1,-1,-1,-1,-1],"split_conditions":[4.54E2,8.6E1,1.54E2,1.9E2,1.52E-1,1E0,8.2E1,1.8027568E-2,-6.1969794E-2,-6.471641E-2,-0E0,2.8610896E-2,-7.635358E-2,1.9841246E-1,-0E0],"split_indices":[13,13,31,31,3,10,12,0,0,0,0,0,0,0,0],"split_type":[0,0,0,0,0,0,0,0,0,0,0,0,0,0,0],"sum_hessian":[7.0461006E3,6.2293286E3,8.167717E2,4.4453823E3,1.7839463E3,6.4912445E2,1.6764726E2,4.05996E3,3.8542236E2,9.513163E2,8.3263007E2,4.589557E2,1.9016878E2,1.5257074E2,1.5076519E1],"tree_param":{"num_deleted":"0","num_feature":"56","num_nodes":"15","size_leaf_vector":"1"}},{"base_weights":[-0E0,-5.14417E-2,3.857305E-2,-2.5864172E-1,1.0918191E-3,5.4273263E-2,-1.61655E-1,-2.9542243E-2,-3.4582338E-1,8.585597E-2,-1.4369453E-1,7.445483E-3,1.3462073E-1,-2.1433054E-1,-0E0],"categories":[],"categories_nodes":[],"categories_segments":[],"categories_sizes":[],"default_left":[0,0,0,0,0,0,0,0,0,0,0,0,0,0,0],"id":63,"left_children":[1,3,5,7,9,11,13,-1,-1,-1,-1,-1,-1,-1,-1],"loss_changes":[6.811955E0,1.8233208E1,5.284964E0,2.8162155E0,1.3056679E1,5.802897E0,1.1025069E0,0E0,0E0,0E0,0E0,0E0,0E0,0E0,0E0],"parents":[2147483647,0,0,1,1,2,2,3,3,4,4,5,5,6,6],"right_children":[2,4,6,8,10,12,14,-1,-1,-1,-1,-1,-1,-1,-1],"split_conditions":[1E0,2E0,1E0,1E1,2.3E1,1E0,8.67E-1,-2.9542243E-2,-3.4582338E-1,8.585597E-2,-1.4369453E-1,7.445483E-3,1.3462073E-1,-2.1433054E-1,-0E0],"split_indices":[14,29,38,11,11,37,35,0,0,0,0,0,0,0,0],"split_type":[0,0,0,0,0,0,0,0,0,0,0,0,0,0,0],"sum_hessian":[3.4564124E3,1.4374479E3,2.0189646E3,3.2844464E2,1.1090032E3,1.9191526E3,9.981197E1,1.2252098E2,2.0592366E2,7.433112E2,3.65692E2,1.2918146E3,6.27338E2,8.0348625E1,1.9463343E1],"tree_param":{"num_deleted":"0","num_feature":"56","num_nodes":"15","size_leaf_vector":"1"}},{"base_weights":[-0E0,7.342257E-3,-3.3699977E-1,-9.204242E-3,8.779029E-2,-3.667307E-1,-0E0,3.541902E-3,-1.6269748E-1,-1.5468606E-2,1.4900886E-1,-3.7913457E-1,-0E0],"categories":[],"categories_nodes":[],"categories_segments":[],"categories_sizes":[],"default_left":[0,0,0,0,0,0,0,0,0,0,0,0,0],"id":64,"left_children":[1,3,5,7,9,11,-1,-1,-1,-1,-1,-1,-1],"loss_changes":[5.7825756E0,3.9304526E0,7.8809404E-1,5.2245655E0,4.5368648E0,2.987008E-1,0E0,0E0,0E0,0E0,0E0,0E0,0E0],"parents":[2147483647,0,0,1,1,2,2,3,3,4,4,5,5],"right_children":[2,4,6,8,10,12,-1,-1,-1,-1,-1,-1,-1],"split_conditions":[5E0,1.4E1,5.1E1,1E0,2E4,2E0,-0E0,3.541902E-3,-1.6269748E-1,-1.5468606E-2,1.4900886E-1,-3.7913457E-1,-0E0],"split_indices":[29,17,17,16,30,18,0,0,0,0,0,0,0],"split_type":[0,0,0,0,0,0,0,0,0,0,0,0,0],"sum_hessian":[2.4095305E3,2.3607346E3,4.8795845E1,1.855648E3,5.0508676E2,4.690902E1,1.8868265E0,1.6541168E3,2.015311E2,1.2747301E2,3.7761374E2,4.5903503E1,1.0055138E0],"tree_param":{"num_deleted":"0","num_feature":"56","num_nodes":"13","size_leaf_vector":"1"}},{"base_weights":[-0E0,6.051582E-3,-3.1782757E-2,-1.5154191E-3,2.7573036E-2,-0E0,-6.313484E-2,-1.04782276E-1,5.599898E-5,-2.040908E-3,5.8646876E-2,-5.774746E-2,4.2564947E-2,-7.884299E-2,-0E0],"categories":[],"categories_nodes":[],"categories_segments":[],"categories_sizes":[],"default_left":[0,0,0,0,0,0,0,0,0,0,0,0,0,0,0],"id":65,"left_children":[1,3,5,7,9,11,13,-1,-1,-1,-1,-1,-1,-1,-1],"loss_changes":[1.847923E0,1.3970234E0,2.0473084E0,1.8294379E0,2.5530243E0,1.5206504E0,1.0637853E0,0E0,0E0,0E0,0E0,0E0,0E0,0E0,0E0],"parents":[2147483647,0,0,1,1,2,2,3,3,4,4,5,5,6,6],"right_children":[2,4,6,8,10,12,14,-1,-1,-1,-1,-1,-1,-1,-1],"split_conditions":[1E0,1.76E-1,6.6E1,2.6E1,3.1E1,2.9E1,9.06E-1,-1.04782276E-1,5.599898E-5,-2.040908E-3,5.8646876E-2,-5.774746E-2,4.2564947E-2,-7.884299E-2,-0E0],"split_indices":[48,3,13,31,11,28,32,0,0,0,0,0,0,0,0],"split_type":[0,0,0,0,0,0,0,0,0,0,0,0,0,0,0],"sum_hessian":[8.552494E3,6.9771113E3,1.5753827E3,4.819011E3,2.1581003E3,6.6326825E2,9.121145E2,1.6663255E2,4.6523784E3,9.4070825E2,1.2173921E3,2.0604877E2,4.5721945E2,7.5564453E2,1.5646996E2],"tree_param":{"num_deleted":"0","num_feature":"56","num_nodes":"15","size_leaf_vector":"1"}},{"base_weights":[3.2349373E-3,1.9661857E-2,-7.711436E-3,3.4331925E-2,-8.696024E-2,7.1109207E-3,-7.15813E-2,5.0690312E-2,-2.977155E-2,-2.2491236E-1,4.790718E-2,-1.562618E-2,1.0441125E-1,-1.3767998E-1,9.149891E-4],"categories":[],"categories_nodes":[],"categories_segments":[],"categories_sizes":[],"default_left":[0,0,0,0,0,0,0,0,0,0,0,0,0,0,0],"id":66,"left_children":[1,3,5,7,9,11,13,-1,-1,-1,-1,-1,-1,-1,-1],"loss_changes":[1.3818895E0,4.4392805E0,4.2880483E0,3.2224908E0,7.391593E0,7.519753E0,5.4502773E0,0E0,0E0,0E0,0E0,0E0,0E0,0E0,0E0],"parents":[2147483647,0,0,1,1,2,2,3,3,4,4,5,5,6,6],"right_children":[2,4,6,8,10,12,14,-1,-1,-1,-1,-1,-1,-1,-1],"split_conditions":[2.3E1,2.02E2,1E0,1E0,1E0,2.02E2,2E0,5.0690312E-2,-2.977155E-2,-2.2491236E-1,4.790718E-2,-1.562618E-2,1.0441125E-1,-1.3767998E-1,9.149891E-4],"split_indices":[11,28,15,17,15,28,29,0,0,0,0,0,0,0,0],"split_type":[0,0,0,0,0,0,0,0,0,0,0,0,0,0,0],"sum_hessian":[7.018616E3,3.1716929E3,3.8469233E3,2.871124E3,3.0056903E2,2.995966E3,8.509573E2,2.4118562E3,4.5926782E2,1.8490948E2,1.1565953E2,2.345853E3,6.501131E2,5.168013E2,3.3415598E2],"tree_param":{"num_deleted":"0","num_feature":"56","num_nodes":"15","size_leaf_vector":"1"}},{"base_weights":[-4.5003598E-3,-2.3547607E-2,1.528796E-1,-8.243065E-3,-2.4684766E-1,-0E0,2.235349E-1,1.1475419E-3,-1.7550163E-1,-2.961552E-1,-0E0,3.0406564E-3,-0E0,2.5695947E-1,-0E0],"categories":[],"categories_nodes":[],"categories_segments":[],"categories_sizes":[],"default_left":[0,0,0,0,0,0,0,0,0,0,0,0,0,0,0],"id":67,"left_children":[1,3,5,7,9,11,13,-1,-1,-1,-1,-1,-1,-1,-1],"loss_changes":[8.964186E0,8.071719E0,2.8367853E0,6.3810015E0,3.22058E0,7.1615475E-4,2.2153034E0,0E0,0E0,0E0,0E0,0E0,0E0,0E0,0E0],"parents":[2147483647,0,0,1,1,2,2,3,3,4,4,5,5,6,6],"right_children":[2,4,6,8,10,12,14,-1,-1,-1,-1,-1,-1,-1,-1],"split_conditions":[5E0,1E1,2.63E-1,4E0,8.9E1,1.3E1,1.3E2,1.1475419E-3,-1.7550163E-1,-2.961552E-1,-0E0,3.0406564E-3,-0E0,2.5695947E-1,-0E0],"split_indices":[29,17,35,27,25,28,11,0,0,0,0,0,0,0,0],"split_type":[0,0,0,0,0,0,0,0,0,0,0,0,0,0,0],"sum_hessian":[3.4196423E3,3.1078938E3,3.1174863E2,2.9514285E3,1.5646532E2,1.0969006E2,2.0205856E2,2.7388625E3,2.1256592E2,1.4511609E2,1.1349233E1,7.645906E1,3.3231007E1,1.8621866E2,1.5839912E1],"tree_param":{"num_deleted":"0","num_feature":"56","num_nodes":"15","size_leaf_vector":"1"}},{"base_weights":[-0E0,-1.2613887E-2,1.5195434E-1,-0E0,-2.0589924E-1,1.3507265E-3,3.1801972E-1,-9.9278234E-2,2.2502305E-2,-0E0,-2.2620562E-1,-0E0,1.1300864E-1,3.5166395E-1,-0E0],"categories":[],"categories_nodes":[],"categories_segments":[],"categories_sizes":[],"default_left":[0,0,0,0,0,0,0,0,0,0,0,0,0,0,0],"id":68,"left_children":[1,3,5,7,9,11,13,-1,-1,-1,-1,-1,-1,-1,-1],"loss_changes":[4.705012E0,6.0682945E0,1.5225368E0,4.3258247E0,9.608197E-1,5.715044E-1,1.1133995E0,0E0,0E0,0E0,0E0,0E0,0E0,0E0,0E0],"parents":[2147483647,0,0,1,1,2,2,3,3,4,4,5,5,6,6],"right_children":[2,4,6,8,10,12,14,-1,-1,-1,-1,-1,-1,-1,-1],"split_conditions":[1.824E3,5.2E1,2E0,4.7E1,3.2E1,8.8E1,1E0,-9.9278234E-2,2.2502305E-2,-0E0,-2.2620562E-1,-0E0,1.1300864E-1,3.5166395E-1,-0E0],"split_indices":[28,12,8,11,31,11,48,0,0,0,0,0,0,0,0],"split_type":[0,0,0,0,0,0,0,0,0,0,0,0,0,0,0],"sum_hessian":[2.3889832E3,2.201392E3,1.8759102E2,2.0509875E3,1.5040448E2,1.3048259E2,5.710842E1,3.5048148E2,1.7005061E3,7.185524E0,1.4321896E2,8.671348E1,4.3769115E1,5.5524822E1,1.5836E0],"tree_param":{"num_deleted":"0","num_feature":"56","num_nodes":"15","size_leaf_vector":"1"}},{"base_weights":[-0E0,6.824519E-3,-1.9964175E-2,-0E0,6.512643E-2,-0E0,-8.8258795E-2,2.6276987E-3,-4.9070783E-2,8.9983836E-2,-7.1777715E-3,-2.7720258E-2,3.935208E-2,-1.5546693E-1,-0E0],"categories":[],"categories_nodes":[],"categories_segments":[],"categories_sizes":[],"default_left":[0,0,0,0,0,0,0,0,0,0,0,0,0,0,0],"id":69,"left_children":[1,3,5,7,9,11,13,-1,-1,-1,-1,-1,-1,-1,-1],"loss_changes":[1.1600525E0,3.14625E0,2.8471851E0,1.1583443E0,2.2869818E0,1.8348293E0,3.107119E0,0E0,0E0,0E0,0E0,0E0,0E0,0E0,0E0],"parents":[2147483647,0,0,1,1,2,2,3,3,4,4,5,5,6,6],"right_children":[2,4,6,8,10,12,14,-1,-1,-1,-1,-1,-1,-1,-1],"split_conditions":[1.76E-1,1E0,1.3E1,1E0,2.54E2,5E1,1E0,2.6276987E-3,-4.9070783E-2,8.9983836E-2,-7.1777715E-3,-2.7720258E-2,3.935208E-2,-1.5546693E-1,-0E0],"split_indices":[35,27,25,5,28,28,15,0,0,0,0,0,0,0,0],"split_type":[0,0,0,0,0,0,0,0,0,0,0,0,0,0,0],"sum_hessian":[8.505128E3,6.33609E3,2.1690383E3,5.5257183E3,8.103719E2,1.6934944E3,4.75544E2,5.0601797E3,4.655386E2,7.057891E2,1.0458277E2,1.01260803E3,6.808863E2,2.8113586E2,1.9440814E2],"tree_param":{"num_deleted":"0","num_feature":"56","num_nodes":"15","size_leaf_vector":"1"}},{"base_weights":[-0E0,3.2560816E-3,-4.3400493E-2,-3.5394207E-3,3.2595705E-2,-8.566507E-2,-0E0,1.9767736E-3,-8.03149E-2,6.507189E-2,-4.3072227E-2,-1.1260782E-1,-0E0,7.6247625E-2,-3.333539E-2],"categories":[],"categories_nodes":[],"categories_segments":[],"categories_sizes":[],"default_left":[0,0,0,0,0,0,0,0,0,0,0,0,0,0,0],"id":70,"left_children":[1,3,5,7,9,11,13,-1,-1,-1,-1,-1,-1,-1,-1],"loss_changes":[9.0171945E-1,1.5987502E0,1.198236E0,2.9227388E0,3.9350662E0,1.0094655E0,6.190523E-1,0E0,0E0,0E0,0E0,0E0,0E0,0E0,0E0],"parents":[2147483647,0,0,1,1,2,2,3,3,4,4,5,5,6,6],"right_children":[2,4,6,8,10,12,14,-1,-1,-1,-1,-1,-1,-1,-1],"split_conditions":[7.22E2,5.1E1,6.17E2,7E0,1E0,1E0,1.595E3,1.9767736E-3,-8.03149E-2,6.507189E-2,-4.3072227E-2,-1.1260782E-1,-0E0,7.6247625E-2,-3.333539E-2],"split_indices":[28,11,13,17,15,4,28,0,0,0,0,0,0,0,0],"split_type":[0,0,0,0,0,0,0,0,0,0,0,0,0,0,0],"sum_hessian":[7.000573E3,6.559781E3,4.407925E2,5.050136E3,1.5096447E3,2.756773E2,1.6511522E2,4.591004E3,4.591319E2,1.1488585E3,3.6078613E2,2.3872697E2,3.695033E1,9.1153145E1,7.396207E1],"tree_param":{"num_deleted":"0","num_feature":"56","num_nodes":"15","size_leaf_vector":"1"}},{"base_weights":[-0E0,1.3504745E-2,-9.707328E-2,3.875742E-2,-3.9675783E-2,-1.3555805E-1,3.3601266E-3,7.562761E-2,-1.9708214E-2,-1.4268722E-1,-0E0,-1.6731153E-1,-0E0,-0E0,1.2737958E-1],"categories":[],"categories_nodes":[],"categories_segments":[],"categories_sizes":[],"default_left":[0,0,0,0,0,0,0,0,0,0,0,0,0,0,0],"id":71,"left_children":[1,3,5,7,9,11,13,-1,-1,-1,-1,-1,-1,-1,-1],"loss_changes":[4.6650476E0,3.9266574E0,3.0167608E0,5.118513E0,3.315925E0,2.915011E0,3.6335284E-1,0E0,0E0,0E0,0E0,0E0,0E0,0E0,0E0],"parents":[2147483647,0,0,1,1,2,2,3,3,4,4,5,5,6,6],"right_children":[2,4,6,8,10,12,14,-1,-1,-1,-1,-1,-1,-1,-1],"split_conditions":[3E0,4.8E1,4E0,3.9E1,1E0,7E0,2E0,7.562761E-2,-1.9708214E-2,-1.4268722E-1,-0E0,-1.6731153E-1,-0E0,-0E0,1.2737958E-1],"split_indices":[17,28,16,11,14,29,15,0,0,0,0,0,0,0,0],"split_type":[0,0,0,0,0,0,0,0,0,0,0,0,0,0,0],"sum_hessian":[3.3659553E3,2.9285964E3,4.373589E2,2.1133745E3,8.15222E2,3.8792847E2,4.9430428E1,1.40076E3,7.126144E2,2.2497624E2,5.902458E2,3.5844354E2,2.948494E1,2.8001476E1,2.142895E1],"tree_param":{"num_deleted":"0","num_feature":"56","num_nodes":"15","size_leaf_vector":"1"}},{"base_weights":[-0E0,-4.7656526E-3,2.1113992E-1,-9.3227535E-2,1.9845134E-2,2.627235E-1,-0E0,-1.2251127E-1,6.891952E-2,-8.74225E-3,7.9922736E-2,2.93462E-1,-0E0],"categories":[],"categories_nodes":[],"categories_segments":[],"categories_sizes":[],"default_left":[0,0,0,0,0,0,0,0,0,0,0,0,0],"id":72,"left_children":[1,3,5,7,9,11,-1,-1,-1,-1,-1,-1,-1],"loss_changes":[3.3984976E0,5.71224E0,1.4859307E0,3.3275137E0,3.6334102E0,9.7386837E-1,0E0,0E0,0E0,0E0,0E0,0E0,0E0],"parents":[2147483647,0,0,1,1,2,2,3,3,4,4,5,5],"right_children":[2,4,6,8,10,12,-1,-1,-1,-1,-1,-1,-1],"split_conditions":[1.81E2,3.6E1,1.41E2,3.4E1,8E0,3.3E2,-0E0,-1.2251127E-1,6.891952E-2,-8.74225E-3,7.9922736E-2,2.93462E-1,-0E0],"split_indices":[11,28,12,17,17,14,0,0,0,0,0,0,0],"split_type":[0,0,0,0,0,0,0,0,0,0,0,0,0],"sum_hessian":[2.358921E3,2.2848518E3,7.406903E1,5.851403E2,1.6997114E3,6.9012436E1,5.0565944E0,5.4807495E2,3.706538E1,1.039485E3,6.602264E2,6.642203E1,2.5904088E0],"tree_param":{"num_deleted":"0","num_feature":"56","num_nodes":"13","size_leaf_vector":"1"}},{"base_weights":[-4.702252E-4,-9.149134E-3,1.9461965E-2,-1.7338177E-2,3.277343E-2,-6.3749305E-3,4.3016084E-2,-2.7293548E-2,-0E0,-1.1005193E-2,8.700652E-2,6.3495385E-3,-4.6340793E-2,7.010324E-2,-0E0],"categories":[],"categories_nodes":[],"categories_segments":[],"categories_sizes":[],"default_left":[0,0,0,0,0,0,0,0,0,0,0,0,0,0,0],"id":73,"left_children":[1,3,5,7,9,11,13,-1,-1,-1,-1,-1,-1,-1,-1],"loss_changes":[1.3569114E0,1.9847739E0,1.7120413E0,1.1247194E0,2.7049143E0,8.338262E-1,1.8174641E0,0E0,0E0,0E0,0E0,0E0,0E0,0E0,0E0],"parents":[2147483647,0,0,1,1,2,2,3,3,4,4,5,5,6,6],"right_children":[2,4,6,8,10,12,14,-1,-1,-1,-1,-1,-1,-1,-1],"split_conditions":[2.86E-1,1.89E2,1.3E1,1E0,5.7E1,7.63E-1,1E0,-2.7293548E-2,-0E0,-1.1005193E-2,8.700652E-2,6.3495385E-3,-4.6340793E-2,7.010324E-2,-0E0],"split_indices":[0,31,11,49,11,32,14,0,0,0,0,0,0,0,0],"split_type":[0,0,0,0,0,0,0,0,0,0,0,0,0,0,0],"sum_hessian":[8.438012E3,6.2283115E3,2.2097002E3,5.4105503E3,8.1776117E2,8.5166754E2,1.3580327E3,3.6925952E3,1.717955E3,3.5090643E2,4.6685474E2,4.568437E2,3.9482385E2,8.8051935E2,4.7751328E2],"tree_param":{"num_deleted":"0","num_feature":"56","num_nodes":"15","size_leaf_vector":"1"}},{"base_weights":[1.2712146E-3,1.2131733E-2,-9.138113E-3,5.5828276E-3,1.3937117E-1,-0E0,-4.5298528E-2,-9.492967E-3,3.1249948E-2,1.9212067E-1,-0E0,-8.777438E-3,5.929325E-2,-9.903992E-2,-0E0],"categories":[],"categories_nodes":[],"categories_segments":[],"categories_sizes":[],"default_left":[0,0,0,0,0,0,0,0,0,0,0,0,0,0,0],"id":74,"left_children":[1,3,5,7,9,11,13,-1,-1,-1,-1,-1,-1,-1,-1],"loss_changes":[8.208407E-1,1.7943914E0,1.3981812E0,1.6801922E0,1.2687705E0,1.6112902E0,1.5945185E0,0E0,0E0,0E0,0E0,0E0,0E0,0E0,0E0],"parents":[2147483647,0,0,1,1,2,2,3,3,4,4,5,5,6,6],"right_children":[2,4,6,8,10,12,14,-1,-1,-1,-1,-1,-1,-1,-1],"split_conditions":[3.2E1,3E0,1.88E-1,1E0,3.64E-1,5E0,2E0,-9.492967E-3,3.1249948E-2,1.9212067E-1,-0E0,-8.777438E-3,5.929325E-2,-9.903992E-2,-0E0],"split_indices":[11,26,0,55,3,17,8,0,0,0,0,0,0,0,0],"split_type":[0,0,0,0,0,0,0,0,0,0,0,0,0,0,0],"sum_hessian":[6.994036E3,3.892905E3,3.101131E3,3.778086E3,1.1481899E2,2.2944995E3,8.0663165E2,2.1350647E3,1.6430212E3,9.432492E1,2.0494078E1,1.8783701E3,4.1612933E2,3.305093E2,4.761223E2],"tree_param":{"num_deleted":"0","num_feature":"56","num_nodes":"15","size_leaf_vector":"1"}},{"base_weights":[-0E0,-1.4256989E-2,1.3379604E-1,-2.4879528E-2,1.13733284E-1,2.0616803E-1,-1.738019E-2,-0E0,-1.06171034E-1,-2.9984228E-2,4.011074E-1,2.4749714E-1,-0E0,-0E0,-7.049378E-2],"categories":[],"categories_nodes":[],"categories_segments":[],"categories_sizes":[],"default_left":[0,0,0,0,0,0,0,0,0,0,0,0,0,0,0],"id":75,"left_children":[1,3,5,7,9,11,13,-1,-1,-1,-1,-1,-1,-1,-1],"loss_changes":[5.1800346E0,3.3022969E0,4.674713E0,5.9052196E0,1.0500642E1,2.505786E0,1.6085495E-1,0E0,0E0,0E0,0E0,0E0,0E0,0E0,0E0],"parents":[2147483647,0,0,1,1,2,2,3,3,4,4,5,5,6,6],"right_children":[2,4,6,8,10,12,14,-1,-1,-1,-1,-1,-1,-1,-1],"split_conditions":[6.17E2,5E0,1.23E3,1E0,1E0,2.67E-1,1.25E4,-0E0,-1.06171034E-1,-2.9984228E-2,4.011074E-1,2.4749714E-1,-0E0,-0E0,-7.049378E-2],"split_indices":[13,16,28,15,15,0,30,0,0,0,0,0,0,0,0],"split_type":[0,0,0,0,0,0,0,0,0,0,0,0,0,0,0],"sum_hessian":[3.3327515E3,3.0793625E3,2.5338904E2,2.916264E3,1.630985E2,2.158434E2,3.7545635E1,2.233199E3,6.83065E2,8.6124794E1,7.69737E1,1.9037709E2,2.5466318E1,3.833318E0,3.371232E1],"tree_param":{"num_deleted":"0","num_feature":"56","num_nodes":"15","size_leaf_vector":"1"}},{"base_weights":[1.591769E-3,1.5420198E-2,-1.2988083E-1,-4.05649E-4,9.808009E-2,-2.2236699E-1,-0E0,2.1629285E-2,-1.0885415E-1,1.327418E-1,-0E0,-2.6888555E-1,-0E0],"categories":[],"categories_nodes":[],"categories_segments":[],"categories_sizes":[],"default_left":[0,0,0,0,0,0,0,0,0,0,0,0,0],"id":76,"left_children":[1,3,5,7,9,11,-1,-1,-1,-1,-1,-1,-1],"loss_changes":[3.09291E0,3.8255537E0,3.5125356E0,5.002038E0,2.587263E0,1.7485957E0,0E0,0E0,0E0,0E0,0E0,0E0,0E0],"parents":[2147483647,0,0,1,1,2,2,3,3,4,4,5,5],"right_children":[2,4,6,8,10,12,-1,-1,-1,-1,-1,-1,-1],"split_conditions":[3E0,1.16E2,2.9E1,1.3E1,1.3E1,1.81E2,-0E0,2.1629285E-2,-1.0885415E-1,1.327418E-1,-0E0,-2.6888555E-1,-0E0],"split_indices":[29,11,17,25,8,11,0,0,0,0,0,0,0],"split_type":[0,0,0,0,0,0,0,0,0,0,0,0,0],"sum_hessian":[2.3286892E3,2.176687E3,1.5200209E2,1.7262091E3,4.5047803E2,1.2223342E2,2.9768671E1,1.3587288E3,3.6748022E2,3.9231424E2,5.8163788E1,1.0746733E2,1.4766091E1],"tree_param":{"num_deleted":"0","num_feature":"56","num_nodes":"13","size_leaf_vector":"1"}},{"base_weights":[-0E0,2.646491E-2,-2.6569702E-3,6.0576033E-2,-3.576524E-2,1.8385153E-2,-1.0571152E-2,-0E0,1.1626864E-1,-8.980516E-2,-0E0,-2.2272084E-2,4.7191046E-2,-1.5061421E-2,2.6121223E-2],"categories":[],"categories_nodes":[],"categories_segments":[],"categories_sizes":[],"default_left":[0,0,0,0,0,0,0,0,0,0,0,0,0,0,0],"id":77,"left_children":[1,3,5,7,9,11,13,-1,-1,-1,-1,-1,-1,-1,-1],"loss_changes":[7.9360706E-1,2.49802E0,1.1480215E0,2.720432E0,1.1092074E0,2.2026958E0,8.282092E-1,0E0,0E0,0E0,0E0,0E0,0E0,0E0,0E0],"parents":[2147483647,0,0,1,1,2,2,3,3,4,4,5,5,6,6],"right_children":[2,4,6,8,10,12,14,-1,-1,-1,-1,-1,-1,-1,-1],"split_conditions":[3E0,1.4E1,2E0,2.3E1,2E0,2.9E1,1E0,-0E0,1.1626864E-1,-8.980516E-2,-0E0,-2.2272084E-2,4.7191046E-2,-1.5061421E-2,2.6121223E-2],"split_indices":[28,12,39,11,8,28,50,0,0,0,0,0,0,0,0],"split_type":[0,0,0,0,0,0,0,0,0,0,0,0,0,0,0],"sum_hessian":[8.418677E3,1.0578885E3,7.3607876E3,7.8714154E2,2.7074704E2,1.6661013E3,5.6946865E3,3.7296786E2,4.141737E2,1.7963472E2,9.111231E1,5.470538E2,1.1190476E3,5.317123E3,3.775631E2],"tree_param":{"num_deleted":"0","num_feature":"56","num_nodes":"15","size_leaf_vector":"1"}},{"base_weights":[-0E0,-6.9850297E-3,1.6219998E-2,-1.3578573E-2,3.0881027E-2,3.8985167E-2,-2.3850271E-2,-2.959393E-2,-0E0,1.1162078E-1,-7.744821E-4,-0E0,1.3973704E-1,-0E0,-6.456073E-2],"categories":[],"categories_nodes":[],"categories_segments":[],"categories_sizes":[],"default_left":[0,0,0,0,0,0,0,0,0,0,0,0,0,0,0],"id":78,"left_children":[1,3,5,7,9,11,13,-1,-1,-1,-1,-1,-1,-1,-1],"loss_changes":[7.1101654E-1,1.1461169E0,1.7240511E0,1.1895831E0,2.5365052E0,3.8817863E0,9.54608E-1,0E0,0E0,0E0,0E0,0E0,0E0,0E0,0E0],"parents":[2147483647,0,0,1,1,2,2,3,3,4,4,5,5,6,6],"right_children":[2,4,6,8,10,12,14,-1,-1,-1,-1,-1,-1,-1,-1],"split_conditions":[1.5E1,4E0,5.22E2,6.5E1,5.2E1,2.7E1,7E0,-2.959393E-2,-0E0,1.1162078E-1,-7.744821E-4,-0E0,1.3973704E-1,-0E0,-6.456073E-2],"split_indices":[12,29,28,13,13,14,25,0,0,0,0,0,0,0,0],"split_type":[0,0,0,0,0,0,0,0,0,0,0,0,0,0,0],"sum_hessian":[7.0028726E3,5.2808286E3,1.7220442E3,4.7231294E3,5.576993E2,1.2573136E3,4.647305E2,2.3518262E3,2.371303E3,2.4533319E2,3.1236606E2,9.615762E2,2.957375E2,1.731426E2,2.915879E2],"tree_param":{"num_deleted":"0","num_feature":"56","num_nodes":"15","size_leaf_vector":"1"}},{"base_weights":[-9.6798997E-4,-3.8476117E-2,2.4821464E-2,-0E0,-7.5998046E-2,5.7798892E-2,-3.6084477E-2,-4.1259803E-2,8.474785E-2,-8.874024E-2,-0E0,-0E0,7.785991E-2,-8.177005E-2,5.1950272E-2],"categories":[],"categories_nodes":[],"categories_segments":[],"categories_sizes":[],"default_left":[0,0,0,0,0,0,0,0,0,0,0,0,0,0,0],"id":79,"left_children":[1,3,5,7,9,11,13,-1,-1,-1,-1,-1,-1,-1,-1],"loss_changes":[3.3609583E0,2.4665458E0,3.8692858E0,2.6151423E0,1.5706501E0,2.2163267E0,2.4438725E0,0E0,0E0,0E0,0E0,0E0,0E0,0E0,0E0],"parents":[2147483647,0,0,1,1,2,2,3,3,4,4,5,5,6,6],"right_children":[2,4,6,8,10,12,14,-1,-1,-1,-1,-1,-1,-1,-1],"split_conditions":[1E0,1E1,3E0,1.3E1,2.54E2,3E0,2.6E1,-4.1259803E-2,8.474785E-2,-8.874024E-2,-0E0,-0E0,7.785991E-2,-8.177005E-2,5.1950272E-2],"split_indices":[27,28,27,12,25,28,25,0,0,0,0,0,0,0,0],"split_type":[0,0,0,0,0,0,0,0,0,0,0,0,0,0,0],"sum_hessian":[3.3313787E3,1.5150935E3,1.8162853E3,7.004373E2,8.146562E2,1.284846E3,5.314393E2,4.4242676E2,2.5801053E2,7.9668555E2,1.7970625E1,2.1164755E2,1.0731985E3,4.2470276E2,1.0673651E2],"tree_param":{"num_deleted":"0","num_feature":"56","num_nodes":"15","size_leaf_vector":"1"}},{"base_weights":[3.365676E-5,-2.7971337E-2,3.0899355E-2,-1.1166176E-1,-0E0,5.9040926E-2,-3.623141E-2,-0E0,-1.3934319E-1,-1.5814584E-2,9.525219E-2,9.8168045E-2,-0E0,-8.94668E-2,-0E0],"categories":[],"categories_nodes":[],"categories_segments":[],"categories_sizes":[],"default_left":[0,0,0,0,0,0,0,0,0,0,0,0,0,0,0],"id":80,"left_children":[1,3,5,7,9,11,13,-1,-1,-1,-1,-1,-1,-1,-1],"loss_changes":[2.0161686E0,3.1083972E0,2.6168382E0,1.6318562E0,1.5763565E0,2.195671E0,1.2497978E0,0E0,0E0,0E0,0E0,0E0,0E0,0E0,0E0],"parents":[2147483647,0,0,1,1,2,2,3,3,4,4,5,5,6,6],"right_children":[2,4,6,8,10,12,14,-1,-1,-1,-1,-1,-1,-1,-1],"split_conditions":[1E0,7.4E1,2.7E1,4.6E1,1.11E3,9E0,3.6E4,-0E0,-1.3934319E-1,-1.5814584E-2,9.525219E-2,9.8168045E-2,-0E0,-8.94668E-2,-0E0],"split_indices":[17,11,25,13,28,12,30,0,0,0,0,0,0,0,0],"split_type":[0,0,0,0,0,0,0,0,0,0,0,0,0,0,0],"sum_hessian":[2.296592E3,1.0342806E3,1.2623115E3,3.1326743E2,7.210132E2,9.9449677E2,2.678148E2,2.8415432E1,2.8485202E2,5.6384143E2,1.5717175E2,5.869241E2,4.075727E2,1.9922655E2,6.858824E1],"tree_param":{"num_deleted":"0","num_feature":"56","num_nodes":"15","size_leaf_vector":"1"}},{"base_weights":[-0E0,7.655408E-3,-1.8760964E-2,-4.805322E-4,9.2917055E-2,-0E0,-8.5415915E-2,-0E0,-1.502681E-1,1.1927793E-1,-0E0,2.7217546E-2,-3.2223906E-2,-1.21376656E-1,-0E0],"categories":[],"categories_nodes":[],"categories_segments":[],"categories_sizes":[],"default_left":[0,0,0,0,0,0,0,0,0,0,0,0,0,0,0],"id":81,"left_children":[1,3,5,7,9,11,13,-1,-1,-1,-1,-1,-1,-1,-1],"loss_changes":[1.2892253E0,4.846248E0,3.736347E0,1.4637429E0,1.922934E0,1.8048208E0,2.6010733E0,0E0,0E0,0E0,0E0,0E0,0E0,0E0,0E0],"parents":[2147483647,0,0,1,1,2,2,3,3,4,4,5,5,6,6],"right_children":[2,4,6,8,10,12,14,-1,-1,-1,-1,-1,-1,-1,-1],"split_conditions":[1E0,9.7E1,8.1E1,5E0,2.33E-1,3E0,4.12E-1,-0E0,-1.502681E-1,1.1927793E-1,-0E0,2.7217546E-2,-3.2223906E-2,-1.21376656E-1,-0E0],"split_indices":[4,11,11,29,3,14,35,0,0,0,0,0,0,0,0],"split_type":[0,0,0,0,0,0,0,0,0,0,0,0,0,0,0],"sum_hessian":[8.373128E3,5.6526406E3,2.7204873E3,5.054073E3,5.9856757E2,2.0780776E3,6.4240967E2,4.990198E3,6.387501E1,4.9799738E2,1.00570175E2,1.1922401E3,8.8583746E2,4.9419196E2,1.4821774E2],"tree_param":{"num_deleted":"0","num_feature":"56","num_nodes":"15","size_leaf_vector":"1"}},{"base_weights":[-0E0,6.477825E-3,-1.2350001E-2,-6.3815765E-2,1.440905E-2,-4.496597E-2,6.1051287E-3,-0E0,-8.1914544E-2,2.9105337E-2,-5.446823E-4,-7.162212E-2,2.510229E-2,2.9334053E-2,-3.8459525E-2],"categories":[],"categories_nodes":[],"categories_segments":[],"categories_sizes":[],"default_left":[0,0,0,0,0,0,0,0,0,0,0,0,0,0,0],"id":82,"left_children":[1,3,5,7,9,11,13,-1,-1,-1,-1,-1,-1,-1,-1],"loss_changes":[5.6836534E-1,2.0241618E0,1.8842003E0,6.3116443E-1,1.2055755E0,2.5096009E0,1.3504202E0,0E0,0E0,0E0,0E0,0E0,0E0,0E0,0E0],"parents":[2147483647,0,0,1,1,2,2,3,3,4,4,5,5,6,6],"right_children":[2,4,6,8,10,12,14,-1,-1,-1,-1,-1,-1,-1,-1],"split_conditions":[2.8E4,6E0,6.4E1,2E0,8.3E1,1.05E-1,5.9E1,-0E0,-8.1914544E-2,2.9105337E-2,-5.446823E-4,-7.162212E-2,2.510229E-2,2.9334053E-2,-3.8459525E-2],"split_indices":[30,11,13,28,13,36,11,0,0,0,0,0,0,0,0],"split_type":[0,0,0,0,0,0,0,0,0,0,0,0,0,0,0],"sum_hessian":[6.997434E3,4.5142373E3,2.4831965E3,3.2914813E2,4.1850894E3,1.092618E3,1.3905785E3,3.571015E1,2.93438E2,2.4475044E3,1.737585E3,8.948754E2,1.9774263E2,1.0618392E3,3.2873932E2],"tree_param":{"num_deleted":"0","num_feature":"56","num_nodes":"15","size_leaf_vector":"1"}},{"base_weights":[-0E0,-6.346938E-3,1.9391745E-1,-3.946122E-2,2.6055831E-2,2.588608E-1,-0E0,-0E0,-9.872745E-2,8.1253715E-2,-3.6293536E-3,3.041009E-1,-0E0],"categories":[],"categories_nodes":[],"categories_segments":[],"categories_sizes":[],"default_left":[0,0,0,0,0,0,0,0,0,0,0,0,0],"id":83,"left_children":[1,3,5,7,9,11,-1,-1,-1,-1,-1,-1,-1],"loss_changes":[3.9306974E0,3.5956104E0,2.0386927E0,3.3973665E0,3.1983938E0,1.4839292E0,0E0,0E0,0E0,0E0,0E0,0E0,0E0],"parents":[2147483647,0,0,1,1,2,2,3,3,4,4,5,5],"right_children":[2,4,6,8,10,12,-1,-1,-1,-1,-1,-1,-1],"split_conditions":[7E0,1.2E1,1.3E2,2.4E1,3.8E1,1.2E1,-0E0,-0E0,-9.872745E-2,8.1253715E-2,-3.6293536E-3,3.041009E-1,-0E0],"split_indices":[29,25,11,11,11,17,0,0,0,0,0,0,0],"split_type":[0,0,0,0,0,0,0,0,0,0,0,0,0],"sum_hessian":[3.3241868E3,3.224113E3,1.0007384E2,1.7470739E3,1.4770392E3,8.6144684E1,1.3929152E1,1.1202522E3,6.268217E2,6.337496E2,8.4328955E2,7.819129E1,7.953398E0],"tree_param":{"num_deleted":"0","num_feature":"56","num_nodes":"13","size_leaf_vector":"1"}},{"base_weights":[-0E0,-1.349279E-2,6.8286926E-2,-0E0,-1.3747509E-1,1.5364759E-1,-0E0,-4.6744157E-2,3.1923197E-2,-1.8622899E-1,-0E0,2.0515417E-1,-0E0,-8.674177E-4,3.3045437E-2],"categories":[],"categories_nodes":[],"categories_segments":[],"categories_sizes":[],"default_left":[0,0,0,0,0,0,0,0,0,0,0,0,0,0,0],"id":84,"left_children":[1,3,5,7,9,11,13,-1,-1,-1,-1,-1,-1,-1,-1],"loss_changes":[2.339499E0,2.966386E0,1.4312997E0,2.509161E0,