{"learner":{"attributes":{"best_iteration":"99","best_ntree_limit":"100","scikit_learn":"{\"use_label_encoder\": null, \"n_estimators\": 100, \"objective\": \"multi:softmax\", \"max_depth\": 3, \"max_leaves\": null, \"max_bin\": null, \"grow_policy\": null, \"learning_rate\": 1.0, \"verbosity\": null, \"booster\": null, \"tree_method\": null, \"gamma\": null, \"min_child_weight\": null, \"max_delta_step\": null, \"subsample\": null, \"sampling_method\": null, \"colsample_bytree\": 0.9, \"colsample_bylevel\": null, \"colsample_bynode\": null, \"reg_alpha\": null, \"reg_lambda\": null, \"scale_pos_weight\": null, \"base_score\": null, \"missing\": NaN, \"num_parallel_tree\": null, \"random_state\": 42, \"n_jobs\": null, \"monotone_constraints\": null, \"interaction_constraints\": null, \"importance_type\": null, \"gpu_id\": null, \"validate_parameters\": null, \"predictor\": null, \"enable_categorical\": false, \"feature_types\": null, \"max_cat_to_onehot\": null, \"max_cat_threshold\": null, \"eval_metric\": null, \"early_stopping_rounds\": null, \"callbacks\": null, \"kwargs\": {\"num_class\": 4, \"alpha\": 10}, \"classes_\": [0, 1, 2, 3], \"n_classes_\": 4, \"_estimator_type\": \"classifier\"}"},"feature_names":["pct_tl_open_L6M","pct_tl_closed_L6M","Tot_TL_closed_L12M","pct_tl_closed_L12M","Tot_Missed_Pmnt","CC_TL","Home_TL","PL_TL","Secured_TL","Unsecured_TL","Other_TL","Age_Oldest_TL","Age_Newest_TL","time_since_recent_payment","max_recent_level_of_deliq","num_deliq_6_12mts","num_times_60p_dpd","num_std_12mts","num_sub","num_sub_6mts","num_sub_12mts","num_dbt","num_dbt_12mts","num_lss","recent_level_of_deliq","CC_enq_L12m","PL_enq_L12m","time_since_recent_enq","enq_L3m","NETMONTHLYINCOME","Time_With_Curr_Empr","CC_Flag","PL_Flag","pct_PL_enq_L6m_of_ever","pct_CC_enq_L6m_of_ever","HL_Flag","GL_Flag","EDUCATION","MARITALSTATUS_Married","MARITALSTATUS_Single","GENDER_F","GENDER_M","last_prod_enq2_AL","last_prod_enq2_CC","last_prod_enq2_ConsumerLoan","last_prod_enq2_HL","last_prod_enq2_PL","last_prod_enq2_others","first_prod_enq2_AL","first_prod_enq2_CC","first_prod_enq2_ConsumerLoan","first_prod_enq2_HL","first_prod_enq2_PL","first_prod_enq2_others"],"feature_types":["float","float","int","float","int","int","int","int","int","int","int","int","int","int","int","int","int","int","int","int","int","int","int","int","int","int","int","int","int","int","int","int","int","float","float","int","int","int","i","i","i","i","i","i","i","i","i","i","i","i","i","i","i","i"],"gradient_booster":{"model":{"gbtree_model_param":{"num_parallel_tree":"1","num_trees":"400","size_leaf_vector":"0"},"tree_info":[0,1,2,3,0,1,2,3,0,1,2,3,0,1,2,3,0,1,2,3,0,1,2,3,0,1,2,3,0,1,2,3,0,1,2,3,0,1,2,3,0,1,2,3,0,1,2,3,0,1,2,3,0,1,2,3,0,1,2,3,0,1,2,3,0,1,2,3,0,1,2,3,0,1,2,3,0,1,2,3,0,1,2,3,0,1,2,3,0,1,2,3,0,1,2,3,0,1,2,3,0,1,2,3,0,1,2,3,0,1,2,3,0,1,2,3,0,1,2,3,0,1,2,3,0,1,2,3,0,1,2,3,0,1,2,3,0,1,2,3,0,1,2,3,0,1,2,3,0,1,2,3,0,1,2,3,0,1,2,3,0,1,2,3,0,1,2,3,0,1,2,3,0,1,2,3,0,1,2,3,0,1,2,3,0,1,2,3,0,1,2,3,0,1,2,3,0,1,2,3,0,1,2,3,0,1,2,3,0,1,2,3,0,1,2,3,0,1,2,3,0,1,2,3,0,1,2,3,0,1,2,3,0,1,2,3,0,1,2,3,0,1,2,3,0,1,2,3,0,1,2,3,0,1,2,3,0,1,2,3,0,1,2,3,0,1,2,3,0,1,2,3,0,1,2,3,0,1,2,3,0,1,2,3,0,1,2,3,0,1,2,3,0,1,2,3,0,1,2,3,0,1,2,3,0,1,2,3,0,1,2,3,0,1,2,3,0,1,2,3,0,1,2,3,0,1,2,3,0,1,2,3,0,1,2,3,0,1,2,3,0,1,2,3,0,1,2,3,0,1,2,3,0,1,2,3,0,1,2,3,0,1,2,3,0,1,2,3,0,1,2,3,0,1,2,3,0,1,2,3,0,1,2,3,0,1,2,3,0,1,2,3,0,1,2,3,0,1,2,3],"trees":[{"base_weights":[-3.5473102E-1,-5.293774E-1,7.5777125E-1,-5.8065754E-1,5.6533056E-1,2.5929707E-1,1.248417E0,-5.989739E-1,2.860621E-1,6.622516E-2,1.124424E0,-4.7093146E-2,1.0087125E0,7.349447E-1,1.5153741E0],"categories":[],"categories_nodes":[],"categories_segments":[],"categories_sizes":[],"default_left":[1,1,1,1,1,1,1,0,0,0,0,0,0,0,0],"id":0,"left_children":[1,3,5,7,9,11,13,-1,-1,-1,-1,-1,-1,-1,-1],"loss_changes":[2.4501382E3,6.132776E2,4.015982E2,1.6898682E2,1.2203113E2,2.064712E2,9.27428E1,0E0,0E0,0E0,0E0,0E0,0E0,0E0,0E0],"parents":[2147483647,0,0,1,1,2,2,3,3,4,4,5,5,6,6],"right_children":[2,4,6,8,10,12,14,-1,-1,-1,-1,-1,-1,-1,-1],"split_conditions":[9.05E1,1.55E1,9.15E1,1.6495E3,1.13E2,9.5E0,1.085E2,-5.989739E-1,2.860621E-1,6.622516E-2,1.124424E0,-4.7093146E-2,1.0087125E0,7.349447E-1,1.5153741E0],"split_indices":[11,17,27,27,27,17,11,0,0,0,0,0,0,0,0],"split_type":[0,0,0,0,0,0,0,0,0,0,0,0,0,0,0],"sum_hessian":[1.2619125E4,1.0915125E4,1.704E3,1.0435875E4,4.7925E2,8.56125E2,8.47875E2,1.02315E4,2.04375E2,2.6325E2,2.16E2,5.98875E2,2.5725E2,3.04125E2,5.4375E2],"tree_param":{"num_deleted":"0","num_feature":"54","num_nodes":"15","size_leaf_vector":"0"}},{"base_weights":[9.460485E-1,1.2090528E0,2.351221E-1,1.3660697E0,1.06401384E-1,-3.17951E-2,7.66436E-1,1.5286939E0,9.7706974E-1,3.751355E-1,-2.7189684E-1,3.833116E-1,-3.4398317E-1,9.289933E-1,-0E0],"categories":[],"categories_nodes":[],"categories_segments":[],"categories_sizes":[],"default_left":[1,1,1,1,1,1,1,0,0,0,0,0,0,0,0],"id":1,"left_children":[1,3,5,7,9,11,13,-1,-1,-1,-1,-1,-1,-1,-1],"loss_changes":[2.3449424E3,1.578252E3,4.9231335E2,4.8248535E2,1.1865524E2,2.931982E2,1.4286456E2,0E0,0E0,0E0,0E0,0E0,0E0,0E0,0E0],"parents":[2147483647,0,0,1,1,2,2,3,3,4,4,5,5,6,6],"right_children":[2,4,6,8,10,12,14,-1,-1,-1,-1,-1,-1,-1,-1],"split_conditions":[1.5E0,9.45E1,4.85E1,5E-1,5.5E0,2.5E0,4.5E0,1.5286939E0,9.7706974E-1,3.751355E-1,-2.7189684E-1,3.833116E-1,-3.4398317E-1,9.289933E-1,-0E0],"split_indices":[28,11,11,14,17,28,28,0,0,0,0,0,0,0,0],"split_type":[0,0,0,0,0,0,0,0,0,0,0,0,0,0,0],"sum_hessian":[1.2619125E4,9.200625E3,3.4185E3,8.045625E3,1.155E3,2.2635E3,1.155E3,5.6535E3,2.392125E3,6.9075E2,4.6425E2,9.5775E2,1.30575E3,9.51375E2,2.03625E2],"tree_param":{"num_deleted":"0","num_feature":"54","num_nodes":"15","size_leaf_vector":"0"}},{"base_weights":[-2.575846E-1,-6.320706E-2,-4.6429157E-1,8.5228145E-2,-3.1152523E-1,-5.6337863E-1,-2.23391E-1,1.6505058E-1,-4.9023184E-1,-4.295907E-1,-1.6432337E-1,-6.053159E-1,-0E0,-5.0569203E-2,-4.459349E-1],"categories":[],"categories_nodes":[],"categories_segments":[],"categories_sizes":[],"default_left":[1,1,1,1,1,1,1,0,0,0,0,0,0,0,0],"id":2,"left_children":[1,3,5,7,9,11,13,-1,-1,-1,-1,-1,-1,-1,-1],"loss_changes":[5.0176215E2,2.4298444E2,1.3739941E2,1.8344421E2,3.689145E1,1.00954956E2,6.4481575E1,0E0,0E0,0E0,0E0,0E0,0E0,0E0,0E0],"parents":[2147483647,0,0,1,1,2,2,3,3,4,4,5,5,6,6],"right_children":[2,4,6,8,10,12,14,-1,-1,-1,-1,-1,-1,-1,-1],"split_conditions":[8.95E1,4.55E1,5E-1,4.5E0,3.5E0,9.165E-1,5.75E1,1.6505058E-1,-4.9023184E-1,-4.295907E-1,-1.6432337E-1,-6.053159E-1,-0E0,-5.0569203E-2,-4.459349E-1],"split_indices":[27,11,14,28,14,33,11,0,0,0,0,0,0,0,0],"split_type":[0,0,0,0,0,0,0,0,0,0,0,0,0,0,0],"sum_hessian":[1.2619125E4,6.529125E3,6.09E3,4.061625E3,2.4675E3,4.28475E3,1.80525E3,3.58275E3,4.78875E2,1.3305E3,1.137E3,3.987E3,2.9775E2,1.042125E3,7.63125E2],"tree_param":{"num_deleted":"0","num_feature":"54","num_nodes":"15","size_leaf_vector":"0"}},{"base_weights":[-3.3214805E-1,-4.7816867E-1,1.1488795E0,-5.7726216E-1,-7.607629E-2,1.4268589E0,1.3796526E-1,-6.5087724E-1,-4.1283572E-1,-2.8656322E-1,3.197693E-1,8.6153847E-1,1.7390714E0,-6.2769234E-2,1.1557789E0],"categories":[],"categories_nodes":[],"categories_segments":[],"categories_sizes":[],"default_left":[1,1,1,1,1,1,1,0,0,0,0,0,0,0,0],"id":3,"left_children":[1,3,5,7,9,11,13,-1,-1,-1,-1,-1,-1,-1,-1],"loss_changes":[2.7230771E3,4.514131E2,3.0078662E2,1.00473145E2,1.9087556E2,1.2708765E2,6.24633E1,0E0,0E0,0E0,0E0,0E0,0E0,0E0,0E0],"parents":[2147483647,0,0,1,1,2,2,3,3,4,4,5,5,6,6],"right_children":[2,4,6,8,10,12,14,-1,-1,-1,-1,-1,-1,-1,-1],"split_conditions":[3.5E0,1.5E0,6.25E1,5E-1,3.5E0,4.5E0,7.5E0,-6.5087724E-1,-4.1283572E-1,-2.8656322E-1,3.197693E-1,8.6153847E-1,1.7390714E0,-6.2769234E-2,1.1557789E0],"split_indices":[28,28,11,24,24,28,28,0,0,0,0,0,0,0,0],"split_type":[0,0,0,0,0,0,0,0,0,0,0,0,0,0,0],"sum_hessian":[1.2619125E4,1.1493375E4,1.12575E3,9.200625E3,2.29275E3,8.74875E2,2.50875E2,6.31125E3,2.889375E3,1.5135E3,7.7925E2,3.24E2,5.50875E2,2.02125E2,4.875E1],"tree_param":{"num_deleted":"0","num_feature":"54","num_nodes":"15","size_leaf_vector":"0"}},{"base_weights":[-1.7243625E-1,-4.731146E-1,1.9782376E-1,-5.400474E-1,-0E0,5.150984E-1,-1.6481358E-1,-5.441728E-1,-1.0055763E-1,-9.966503E-2,7.09429E-1,2.0069413E-1,9.901562E-1,-3.4692088E-1,3.7958622E-1],"categories":[],"categories_nodes":[],"categories_segments":[],"categories_sizes":[],"default_left":[1,1,1,1,1,1,1,0,0,0,0,0,0,0,0],"id":4,"left_children":[1,3,5,7,9,11,13,-1,-1,-1,-1,-1,-1,-1,-1],"loss_changes":[8.419577E2,1.3642535E2,3.905855E2,1.5527344E-1,4.0472775E1,2.5807663E2,1.5402881E2,0E0,0E0,0E0,0E0,0E0,0E0,0E0,0E0],"parents":[2147483647,0,0,1,1,2,2,3,3,4,4,5,5,6,6],"right_children":[2,4,6,8,10,12,14,-1,-1,-1,-1,-1,-1,-1,-1],"split_conditions":[5.25E1,9.5E0,5E-1,8.5E0,2.45E1,1.5E0,1.35E1,-5.441728E-1,-1.0055763E-1,-9.966503E-2,7.09429E-1,2.0069413E-1,9.901562E-1,-3.4692088E-1,3.7958622E-1],"split_indices":[11,17,14,17,17,17,17,0,0,0,0,0,0,0,0],"split_type":[0,0,0,0,0,0,0,0,0,0,0,0,0,0,0],"sum_hessian":[7.5362085E3,4.173638E3,3.3625706E3,3.6707344E3,5.0290372E2,1.8079418E3,1.5546289E3,3.6138198E3,5.6914364E1,4.3203378E2,7.086996E1,1.1014495E3,7.064923E2,1.1789797E3,3.7564917E2],"tree_param":{"num_deleted":"0","num_feature":"54","num_nodes":"15","size_leaf_vector":"0"}},{"base_weights":[1.9256772E-1,2.7237186E-1,-1.2615213E-1,2.9978648E-1,-2.8002104E-1,-3.3531258E-1,1.4911567E-1,3.1566906E-1,-4.5976695E-1,-6.158626E-1,2.2059819E-3,-4.1387904E-1,3.822666E-1,3.5942328E-1,-6.6400215E-2],"categories":[],"categories_nodes":[],"categories_segments":[],"categories_sizes":[],"default_left":[1,1,1,1,1,1,1,0,0,0,0,0,0,0,0],"id":5,"left_children":[1,3,5,7,9,11,13,-1,-1,-1,-1,-1,-1,-1,-1],"loss_changes":[3.5247165E2,1.6778577E2,1.5959839E2,1.2604529E2,5.4123093E1,8.9394394E1,5.5647247E1,0E0,0E0,0E0,0E0,0E0,0E0,0E0,0E0],"parents":[2147483647,0,0,1,1,2,2,3,3,4,4,5,5,6,6],"right_children":[2,4,6,8,10,12,14,-1,-1,-1,-1,-1,-1,-1,-1],"split_conditions":[4.5850003E-1,1.95E1,3.45E1,2.024E3,5E-1,5.5E0,5E-1,3.1566906E-1,-4.5976695E-1,-6.158626E-1,2.2059819E-3,-4.1387904E-1,3.822666E-1,3.5942328E-1,-6.6400215E-2],"split_indices":[33,17,11,27,14,17,14,0,0,0,0,0,0,0,0],"split_type":[0,0,0,0,0,0,0,0,0,0,0,0,0,0,0],"sum_hessian":[1.3797814E4,1.10600205E4,2.7377935E3,1.0554761E4,5.052604E2,1.5762217E3,1.1615719E3,1.0352045E4,2.0271555E2,2.4635535E2,2.5890506E2,1.4336166E3,1.4260515E2,6.1103546E2,5.505364E2],"tree_param":{"num_deleted":"0","num_feature":"54","num_nodes":"15","size_leaf_vector":"0"}},{"base_weights":[-7.2959396E-3,8.264528E-2,-2.513776E-1,1.7372258E-1,-2.0411833E-1,-4.164198E-1,-1.16260685E-2,2.3328646E-1,3.843575E-2,-2.4974528E-1,1.3755846E-1,-4.1828462E-1,-0E0,1.0528383E-1,-3.3114564E-1],"categories":[],"categories_nodes":[],"categories_segments":[],"categories_sizes":[],"default_left":[1,1,1,1,1,1,1,0,0,0,0,0,0,0,0],"id":6,"left_children":[1,3,5,7,9,11,13,-1,-1,-1,-1,-1,-1,-1,-1],"loss_changes":[1.8718422E2,1.6021458E2,8.692786E1,3.507074E1,2.3841286E1,1.4214935E0,3.8363132E1,0E0,0E0,0E0,0E0,0E0,0E0,0E0,0E0],"parents":[2147483647,0,0,1,1,2,2,3,3,4,4,5,5,6,6],"right_children":[2,4,6,8,10,12,14,-1,-1,-1,-1,-1,-1,-1,-1],"split_conditions":[1.825E2,2.5E0,5E-1,1.5E0,3.5E0,1.75E1,1.5E0,2.3328646E-1,3.843575E-2,-2.4974528E-1,1.3755846E-1,-4.1828462E-1,-0E0,1.0528383E-1,-3.3114564E-1],"split_indices":[27,17,14,8,28,10,17,0,0,0,0,0,0,0,0],"split_type":[0,0,0,0,0,0,0,0,0,0,0,0,0,0,0],"sum_hessian":[8.447781E3,6.143621E3,2.3041606E3,4.689487E3,1.4541342E3,1.3395696E3,9.64591E2,3.2041343E3,1.4853525E3,1.3088844E3,1.4524974E2,1.3357675E3,3.802093E0,6.837759E2,2.8081512E2],"tree_param":{"num_deleted":"0","num_feature":"54","num_nodes":"15","size_leaf_vector":"0"}},{"base_weights":[-1.6676669E-1,-3.4447244E-1,2.629245E-1,-4.9888125E-1,-1.3215387E-1,3.783089E-1,-3.311982E-1,-5.451048E-1,-2.2223745E-1,-3.8870913E-1,5.5894937E-2,4.6653628E-1,-2.7312666E-1,-4.0563917E-1,8.3594345E-2],"categories":[],"categories_nodes":[],"categories_segments":[],"categories_sizes":[],"default_left":[1,1,1,1,1,1,1,0,0,0,0,0,0,0,0],"id":7,"left_children":[1,3,5,7,9,11,13,-1,-1,-1,-1,-1,-1,-1,-1],"loss_changes":[5.8510034E2,1.716142E2,1.5295117E2,3.204657E1,1.1501622E2,1.0985983E2,1.3995678E1,0E0,0E0,0E0,0E0,0E0,0E0,0E0,0E0],"parents":[2147483647,0,0,1,1,2,2,3,3,4,4,5,5,6,6],"right_children":[2,4,6,8,10,12,14,-1,-1,-1,-1,-1,-1,-1,-1],"split_conditions":[3.0400002E-1,5E-1,5.5E0,2.5E0,5E-1,8.85E1,6.5E0,-5.451048E-1,-2.2223745E-1,-3.8870913E-1,5.5894937E-2,4.6653628E-1,-2.7312666E-1,-4.0563917E-1,8.3594345E-2],"split_indices":[33,14,17,28,28,27,28,0,0,0,0,0,0,0,0],"split_type":[0,0,0,0,0,0,0,0,0,0,0,0,0,0,0],"sum_hessian":[7.649667E3,5.4282124E3,2.2214546E3,3.1146401E3,2.3135725E3,1.8745864E3,3.468681E2,2.6369265E3,4.7771347E2,1.0005844E3,1.312988E3,1.6647544E3,2.09832E2,3.1454803E2,3.2320053E1],"tree_param":{"num_deleted":"0","num_feature":"54","num_nodes":"15","size_leaf_vector":"0"}},{"base_weights":[-1.0938845E-1,-4.2131564E-1,1.1934357E-1,-5.026905E-1,-2.3033982E-2,-7.7280976E-2,3.7087116E-1,-5.104639E-1,-0E0,-2.9839832E-1,3.4686112E-1,-2.4802735E-1,5.849745E-1,6.131972E-1,-0E0],"categories":[],"categories_nodes":[],"categories_segments":[],"categories_sizes":[],"default_left":[1,1,1,1,1,1,1,0,0,0,0,0,0,0,0],"id":8,"left_children":[1,3,5,7,9,11,13,-1,-1,-1,-1,-1,-1,-1,-1],"loss_changes":[4.0700552E2,7.29653E1,1.6363013E2,1.1794159E1,4.3561234E1,2.0052132E2,1.3473264E2,0E0,0E0,0E0,0E0,0E0,0E0,0E0,0E0],"parents":[2147483647,0,0,1,1,2,2,3,3,4,4,5,5,6,6],"right_children":[2,4,6,8,10,12,14,-1,-1,-1,-1,-1,-1,-1,-1],"split_conditions":[4.95E1,9.5E0,1.625E2,1.3845E3,1.75E2,1.375E2,5E-1,-5.104639E-1,-0E0,-2.9839832E-1,3.4686112E-1,-2.4802735E-1,5.849745E-1,6.131972E-1,-0E0],"split_indices":[11,17,27,27,27,11,14,0,0,0,0,0,0,0,0],"split_type":[0,0,0,0,0,0,0,0,0,0,0,0,0,0,0],"sum_hessian":[5.6605044E3,2.4128804E3,3.247624E3,1.9824636E3,4.304168E2,1.8008198E3,1.4468041E3,1.967777E3,1.4686608E1,2.6234497E2,1.6807184E2,1.444195E3,3.566249E2,8.869305E2,5.598736E2],"tree_param":{"num_deleted":"0","num_feature":"54","num_nodes":"15","size_leaf_vector":"0"}},{"base_weights":[7.350968E-2,1.3992736E-1,-2.928499E-2,2.0699199E-1,-6.846982E-2,-1.785277E-1,2.2376813E-1,-1.0225495E-1,2.5154525E-1,-4.3129152E-1,2.6191E-1,8.866781E-2,-3.9446974E-1,2.7081102E-1,-2.2281805E-1],"categories":[],"categories_nodes":[],"categories_segments":[],"categories_sizes":[],"default_left":[1,1,1,1,1,1,1,0,0,0,0,0,0,0,0],"id":9,"left_children":[1,3,5,7,9,11,13,-1,-1,-1,-1,-1,-1,-1,-1],"loss_changes":[8.3822815E1,1.0508618E2,1.7697278E2,7.9353195E1,2.1405478E2,1.7502826E2,3.6633995E1,0E0,0E0,0E0,0E0,0E0,0E0,0E0,0E0],"parents":[2147483647,0,0,1,1,2,2,3,3,4,4,5,5,6,6],"right_children":[2,4,6,8,10,12,14,-1,-1,-1,-1,-1,-1,-1,-1],"split_conditions":[5E-1,6.35E1,6.15E1,6.5E0,5E-1,5E-1,1.645E2,-1.0225495E-1,2.5154525E-1,-4.3129152E-1,2.6191E-1,8.866781E-2,-3.9446974E-1,2.7081102E-1,-2.2281805E-1],"split_indices":[14,11,11,11,28,28,11,0,0,0,0,0,0,0,0],"split_type":[0,0,0,0,0,0,0,0,0,0,0,0,0,0,0],"sum_hessian":[1.2113788E4,7.4178735E3,4.6959146E3,5.6482065E3,1.7696667E3,2.9788787E3,1.7170361E3,6.8283844E2,4.965368E3,8.5770337E2,9.119634E2,1.3109982E3,1.6678805E3,1.5740166E3,1.4301953E2],"tree_param":{"num_deleted":"0","num_feature":"54","num_nodes":"15","size_leaf_vector":"0"}},{"base_weights":[3.6482397E-2,7.119226E-2,-2.6601216E-1,1.4582747E-1,-7.750601E-2,-2.8682002E-1,-0E0,1.6105498E-1,-3.4775054E-1,-2.1859959E-1,7.210126E-2,-2.9904392E-1,-0E0],"categories":[],"categories_nodes":[],"categories_segments":[],"categories_sizes":[],"default_left":[1,1,1,1,1,1,0,0,0,0,0,0,0],"id":10,"left_children":[1,3,5,7,9,11,-1,-1,-1,-1,-1,-1,-1],"loss_changes":[7.864068E1,7.742946E1,6.2837563E0,3.31285E1,4.932393E1,2.4029083E0,0E0,0E0,0E0,0E0,0E0,0E0,0E0],"parents":[2147483647,0,0,1,1,2,2,3,3,4,4,5,5],"right_children":[2,4,6,8,10,12,-1,-1,-1,-1,-1,-1,-1],"split_conditions":[9.35E1,9.25E1,5.5E0,6.5E0,5E-1,9.5E0,-0E0,1.6105498E-1,-3.4775054E-1,-2.1859959E-1,7.210126E-2,-2.9904392E-1,-0E0],"split_indices":[11,27,28,28,14,16,0,0,0,0,0,0,0],"split_type":[0,0,0,0,0,0,0,0,0,0,0,0,0],"sum_hessian":[7.6726616E3,6.9132236E3,7.5943756E2,4.647701E3,2.2655227E3,7.294889E2,2.9948694E1,4.5289126E3,1.1878875E2,1.2000985E3,1.0654242E3,6.978595E2,3.1629362E1],"tree_param":{"num_deleted":"0","num_feature":"54","num_nodes":"13","size_leaf_vector":"0"}},{"base_weights":[-9.174768E-2,-2.2616939E-1,2.0300472E-1,-4.239557E-1,-1.5770618E-2,2.970533E-1,-1.5585952E-1,-4.9402714E-1,-2.0051207E-1,1.957656E-1,-3.9862552E-1,3.5617894E-1,-1.8874891E-1,-2.5757992E-1,2.5156537E-1],"categories":[],"categories_nodes":[],"categories_segments":[],"categories_sizes":[],"default_left":[1,1,1,1,1,1,1,0,0,0,0,0,0,0,0],"id":11,"left_children":[1,3,5,7,9,11,13,-1,-1,-1,-1,-1,-1,-1,-1],"loss_changes":[2.3831458E2,1.6828958E2,6.419873E1,2.6062683E1,1.6702744E2,4.4692993E1,1.5234831E1,0E0,0E0,0E0,0E0,0E0,0E0,0E0,0E0],"parents":[2147483647,0,0,1,1,2,2,3,3,4,4,5,5,6,6],"right_children":[2,4,6,8,10,12,14,-1,-1,-1,-1,-1,-1,-1,-1],"split_conditions":[2.5E0,5E-1,2.5E0,9.5449996E-1,6.05E1,8.65E1,6.5E0,-4.9402714E-1,-2.0051207E-1,1.957656E-1,-3.9862552E-1,3.5617894E-1,-1.8874891E-1,-2.5757992E-1,2.5156537E-1],"split_indices":[28,14,17,33,11,11,28,0,0,0,0,0,0,0,0],"split_type":[0,0,0,0,0,0,0,0,0,0,0,0,0,0,0],"sum_hessian":[6.006831E3,4.1488906E3,1.8579403E3,2.1135215E3,2.0353693E3,1.4943497E3,3.635906E2,1.5739646E3,5.395569E2,1.294498E3,7.4087115E2,1.3507991E3,1.4355067E2,3.1088513E2,5.2705475E1],"tree_param":{"num_deleted":"0","num_feature":"54","num_nodes":"15","size_leaf_vector":"0"}},{"base_weights":[-8.9366294E-2,-4.2314312E-1,2.5095917E-2,-4.496923E-1,-0E0,1.2055594E-1,-2.9984668E-1,-4.6638334E-1,-0E0,5.3342022E-2,-7.34642E-2,2.3750691E-1,-2.6900318E-1,-5.352365E-1,-5.8997434E-2],"categories":[],"categories_nodes":[],"categories_segments":[],"categories_sizes":[],"default_left":[1,1,1,1,1,1,1,0,0,0,0,0,0,0,0],"id":12,"left_children":[1,3,5,7,9,11,13,-1,-1,-1,-1,-1,-1,-1,-1],"loss_changes":[1.7635648E2,1.3619919E1,1.0178979E2,5.214554E0,2.522354E-1,1.1841602E2,3.5666878E1,0E0,0E0,0E0,0E0,0E0,0E0,0E0,0E0],"parents":[2147483647,0,0,1,1,2,2,3,3,4,4,5,5,6,6],"right_children":[2,4,6,8,10,12,14,-1,-1,-1,-1,-1,-1,-1,-1],"split_conditions":[3.65E1,6.895E2,2.95E1,5.5E0,5E-1,1.2900001E-1,9.005E2,-4.6638334E-1,-0E0,5.3342022E-2,-7.34642E-2,2.3750691E-1,-2.6900318E-1,-5.352365E-1,-5.8997434E-2],"split_indices":[11,27,12,8,14,33,27,0,0,0,0,0,0,0,0],"split_type":[0,0,0,0,0,0,0,0,0,0,0,0,0,0,0],"sum_hessian":[4.5106123E3,1.1734497E3,3.3371624E3,1.1062185E3,6.7231155E1,2.603672E3,7.334902E2,1.0523595E3,5.385906E1,4.657938E1,2.0651777E1,2.0225388E3,5.811335E2,3.4933334E2,3.8415686E2],"tree_param":{"num_deleted":"0","num_feature":"54","num_nodes":"15","size_leaf_vector":"0"}},{"base_weights":[3.576784E-2,6.953962E-2,-1.3919204E-1,6.1227128E-2,7.119499E-1,-2.1300675E-1,4.3495694E-1,7.374819E-2,-2.554523E-1,8.374745E-1,-0E0,-4.129334E-1,-9.31966E-2,4.9088752E-1,-0E0],"categories":[],"categories_nodes":[],"categories_segments":[],"categories_sizes":[],"default_left":[1,1,1,1,1,1,1,0,0,0,0,0,0,0,0],"id":13,"left_children":[1,3,5,7,9,11,13,-1,-1,-1,-1,-1,-1,-1,-1],"loss_changes":[6.3917E1,4.1423573E1,7.0828865E1,3.4332348E1,1.144334E1,3.1822731E1,6.6790314E0,0E0,0E0,0E0,0E0,0E0,0E0,0E0,0E0],"parents":[2147483647,0,0,1,1,2,2,3,3,4,4,5,5,6,6],"right_children":[2,4,6,8,10,12,14,-1,-1,-1,-1,-1,-1,-1,-1],"split_conditions":[8.44E-1,9.25E1,9.05E1,1.495E2,2.7975E3,1.35E1,1.825E2,7.374819E-2,-2.554523E-1,8.374745E-1,-0E0,-4.129334E-1,-9.31966E-2,4.9088752E-1,-0E0],"split_indices":[33,12,11,11,27,11,11,0,0,0,0,0,0,0,0],"split_type":[0,0,0,0,0,0,0,0,0,0,0,0,0,0,0],"sum_hessian":[1.0932667E4,9.212228E3,1.7204397E3,9.110997E3,1.01230446E2,1.540441E3,1.7999867E2,8.795577E3,3.1542004E2,8.919739E1,1.2033061E1,5.450337E2,9.9540735E2,1.6882045E2,1.1178235E1],"tree_param":{"num_deleted":"0","num_feature":"54","num_nodes":"15","size_leaf_vector":"0"}},{"base_weights":[4.280115E-2,7.650188E-2,-1.4702971E-1,2.8744066E-2,1.6844939E-1,-2.1000902E-1,-0E0,-6.939604E-2,1.4314367E-1,2.2695425E-1,2.451645E-2,-2.2872992E-1,-0E0,8.4716395E-2,-0E0],"categories":[],"categories_nodes":[],"categories_segments":[],"categories_sizes":[],"default_left":[1,1,1,1,1,1,1,0,0,0,0,0,0,0,0],"id":14,"left_children":[1,3,5,7,9,11,13,-1,-1,-1,-1,-1,-1,-1,-1],"loss_changes":[4.64584E1,2.5708477E1,1.1754496E1,4.8151295E1,1.5024033E1,3.9967995E0,7.299049E-1,0E0,0E0,0E0,0E0,0E0,0E0,0E0,0E0],"parents":[2147483647,0,0,1,1,2,2,3,3,4,4,5,5,6,6],"right_children":[2,4,6,8,10,12,14,-1,-1,-1,-1,-1,-1,-1,-1],"split_conditions":[6.5E0,1.715E-1,2.405E-1,5E-1,5E-1,4.465E2,6.55E1,-6.939604E-2,1.4314367E-1,2.2695425E-1,2.451645E-2,-2.2872992E-1,-0E0,8.4716395E-2,-0E0],"split_indices":[17,33,33,14,14,13,30,0,0,0,0,0,0,0,0],"split_type":[0,0,0,0,0,0,0,0,0,0,0,0,0,0,0],"sum_hessian":[7.369516E3,6.3036943E3,1.0658215E3,4.2212397E3,2.0824546E3,7.8842786E2,2.7739365E2,2.225246E3,1.9959937E3,1.4308138E3,6.516408E2,7.4088666E2,4.754119E1,1.0070242E2,1.7669124E2],"tree_param":{"num_deleted":"0","num_feature":"54","num_nodes":"15","size_leaf_vector":"0"}},{"base_weights":[-5.9529133E-2,2.6033208E-2,-3.3739367E-1,7.271725E-2,-3.654143E-1,-4.8058292E-1,-1.6667661E-1,1.6386619E-2,4.3540034E-1,-4.3771023E-1,-0E0,-4.820507E-1,-0E0,-2.639905E-1,1.9303015E-1],"categories":[],"categories_nodes":[],"categories_segments":[],"categories_sizes":[],"default_left":[1,1,1,1,1,1,1,0,0,0,0,0,0,0,0],"id":15,"left_children":[1,3,5,7,9,11,13,-1,-1,-1,-1,-1,-1,-1,-1],"loss_changes":[1.2427594E2,6.7813484E1,2.344905E1,6.6590675E1,1.2184288E1,5.917206E-1,2.1526438E1,0E0,0E0,0E0,0E0,0E0,0E0,0E0,0E0],"parents":[2147483647,0,0,1,1,2,2,3,3,4,4,5,5,6,6],"right_children":[2,4,6,8,10,12,14,-1,-1,-1,-1,-1,-1,-1,-1],"split_conditions":[8.95E1,9.05E1,6.5E0,1.75E1,5.5E0,9.1E1,3.65E2,1.6386619E-2,4.3540034E-1,-4.3771023E-1,-0E0,-4.820507E-1,-0E0,-2.639905E-1,1.9303015E-1],"split_indices":[27,11,24,12,28,14,13,0,0,0,0,0,0,0,0],"split_type":[0,0,0,0,0,0,0,0,0,0,0,0,0,0,0],"sum_hessian":[5.094894E3,3.8685696E3,1.2263243E3,3.4799153E3,3.8865436E2,6.340893E2,5.9223505E2,3.036859E3,4.430565E2,3.3416272E2,5.4491634E1,6.327741E2,1.3151729E0,4.882201E2,1.0401495E2],"tree_param":{"num_deleted":"0","num_feature":"54","num_nodes":"15","size_leaf_vector":"0"}},{"base_weights":[-5.5887118E-2,-2.1474832E-1,2.1008858E-1,-3.094471E-1,2.3153028E-1,3.4862673E-1,-1.801104E-1,-3.6824808E-1,-0E0,3.1577733E-1,-1.3401377E-1,6.451518E-1,1.0991016E-2,-3.0221635E-1,5.0257796E-1],"categories":[],"categories_nodes":[],"categories_segments":[],"categories_sizes":[],"default_left":[1,1,1,1,1,1,1,0,0,0,0,0,0,0,0],"id":16,"left_children":[1,3,5,7,9,11,13,-1,-1,-1,-1,-1,-1,-1,-1],"loss_changes":[1.6966618E2,1.0805337E2,8.16273E1,3.834131E1,1.4982897E1,1.04537125E2,2.8901772E1,0E0,0E0,0E0,0E0,0E0,0E0,0E0,0E0],"parents":[2147483647,0,0,1,1,2,2,3,3,4,4,5,5,6,6],"right_children":[2,4,6,8,10,12,14,-1,-1,-1,-1,-1,-1,-1,-1],"split_conditions":[6.5E0,1.285E2,1.5E0,1.1505E3,2.5E0,5E-1,3.35E1,-3.6824808E-1,-0E0,3.1577733E-1,-1.3401377E-1,6.451518E-1,1.0991016E-2,-3.0221635E-1,5.0257796E-1],"split_indices":[17,11,28,27,28,24,17,0,0,0,0,0,0,0,0],"split_type":[0,0,0,0,0,0,0,0,0,0,0,0,0,0,0],"sum_hessian":[4.012291E3,2.5356157E3,1.4766753E3,2.110491E3,4.251248E2,1.1087528E3,3.6792252E2,1.7727509E3,3.3774008E2,3.6784097E2,5.72838E1,5.7406104E2,5.346918E2,3.249984E2,4.2924084E1],"tree_param":{"num_deleted":"0","num_feature":"54","num_nodes":"15","size_leaf_vector":"0"}},{"base_weights":[1.4436131E-2,2.2153042E-2,-3.366799E-1,3.5426073E-2,-1.5635005E-1,-4.724128E-1,2.2084903E-2,4.27885E-2,-2.770723E-1,-2.866808E-1,4.675292E-1,-0E0,-5.45485E-1,1.900465E-1,-0E0],"categories":[],"categories_nodes":[],"categories_segments":[],"categories_sizes":[],"default_left":[1,1,1,1,1,1,1,0,0,0,0,0,0,0,0],"id":17,"left_children":[1,3,5,7,9,11,13,-1,-1,-1,-1,-1,-1,-1,-1],"loss_changes":[2.5080717E1,2.3008835E1,1.406617E1,1.9675772E1,5.1611244E1,4.9695816E0,8.6536485E-1,0E0,0E0,0E0,0E0,0E0,0E0,0E0,0E0],"parents":[2147483647,0,0,1,1,2,2,3,3,4,4,5,5,6,6],"right_children":[2,4,6,8,10,12,14,-1,-1,-1,-1,-1,-1,-1,-1],"split_conditions":[2.75E1,3.5E0,2.5E0,1.635E2,9.5E0,5.65E1,9.55E1,4.27885E-2,-2.770723E-1,-2.866808E-1,4.675292E-1,-0E0,-5.45485E-1,1.900465E-1,-0E0],"split_indices":[17,28,28,11,17,30,11,0,0,0,0,0,0,0,0],"split_type":[0,0,0,0,0,0,0,0,0,0,0,0,0,0,0],"sum_hessian":[1.0413542E4,1.0218378E4,1.9516438E2,9.564043E3,6.543347E2,1.6158713E2,3.3577255E1,9.376009E3,1.8803459E2,5.549688E2,9.936587E1,2.3940735E1,1.376464E2,2.3426537E1,1.0150718E1],"tree_param":{"num_deleted":"0","num_feature":"54","num_nodes":"15","size_leaf_vector":"0"}},{"base_weights":[2.5729923E-2,3.8346004E-2,-1.6615824E-1,2.549225E-2,2.4379161E-1,-1.9971663E-1,-0E0,5.4494657E-2,-4.15822E-2,2.6967907E-1,-0E0,-2.3009984E-1,-0E0],"categories":[],"categories_nodes":[],"categories_segments":[],"categories_sizes":[],"default_left":[1,1,1,1,1,1,0,0,0,0,0,0,0],"id":18,"left_children":[1,3,5,7,9,11,-1,-1,-1,-1,-1,-1,-1],"loss_changes":[1.6492964E1,1.5614914E1,3.6016426E0,1.2919388E1,2.9416542E0,3.024951E0,0E0,0E0,0E0,0E0,0E0,0E0,0E0],"parents":[2147483647,0,0,1,1,2,2,3,3,4,4,5,5],"right_children":[2,4,6,8,10,12,-1,-1,-1,-1,-1,-1,-1],"split_conditions":[1.035E2,3.95E1,4.5E0,8.95E1,2.1265E3,6.45E1,-0E0,5.4494657E-2,-4.15822E-2,2.6967907E-1,-0E0,-2.3009984E-1,-0E0],"split_indices":[11,12,28,27,27,12,0,0,0,0,0,0,0],"split_type":[0,0,0,0,0,0,0,0,0,0,0,0,0],"sum_hessian":[7.3371333E3,6.9341475E3,4.029859E2,6.5727227E3,3.6142508E2,3.6892532E2,3.4060574E1,4.6928506E3,1.8798718E3,3.356318E2,2.5793291E1,3.348154E2,3.4109924E1],"tree_param":{"num_deleted":"0","num_feature":"54","num_nodes":"13","size_leaf_vector":"0"}},{"base_weights":[-2.4463644E-2,-1.1256781E-1,1.5658422E-1,-2.9599088E-1,5.040917E-4,5.7344016E-2,3.450391E-1,-2.4162984E-2,-4.0920162E-1,-7.791881E-2,3.8737455E-1,2.2734143E-1,-2.3001194E-1,1.2341055E-1,5.3608775E-1],"categories":[],"categories_nodes":[],"categories_segments":[],"categories_sizes":[],"default_left":[1,1,1,1,1,1,1,0,0,0,0,0,0,0,0],"id":19,"left_children":[1,3,5,7,9,11,13,-1,-1,-1,-1,-1,-1,-1,-1],"loss_changes":[7.447248E1,6.924161E1,2.4013988E1,3.4203476E1,6.211944E1,4.9787872E1,1.377058E1,0E0,0E0,0E0,0E0,0E0,0E0,0E0,0E0],"parents":[2147483647,0,0,1,1,2,2,3,3,4,4,5,5,6,6],"right_children":[2,4,6,8,10,12,14,-1,-1,-1,-1,-1,-1,-1,-1],"split_conditions":[6.0450006E-1,5E-1,4.5E0,1.25E1,2.845E2,2.25E1,6.65E1,-2.4162984E-2,-4.0920162E-1,-7.791881E-2,3.8737455E-1,2.2734143E-1,-2.3001194E-1,1.2341055E-1,5.3608775E-1],"split_indices":[33,14,24,11,13,11,13,0,0,0,0,0,0,0,0],"split_type":[0,0,0,0,0,0,0,0,0,0,0,0,0,0,0],"sum_hessian":[4.6942974E3,3.1950752E3,1.4992222E3,1.2515906E3,1.9434846E3,1.01768E3,4.8154214E2,3.9432632E2,8.572643E2,1.595092E3,3.4839255E2,6.614064E2,3.5627365E2,2.4792365E2,2.336185E2],"tree_param":{"num_deleted":"0","num_feature":"54","num_nodes":"15","size_leaf_vector":"0"}},{"base_weights":[-4.7080647E-2,-3.953214E-1,1.2081938E-2,-4.355597E-1,-0E0,1.2706605E-1,-1.6888404E-1,-4.5777863E-1,-0E0,-0E0,-1.1551617E-1,2.0861611E-1,-2.375445E-1,-2.3348367E-1,3.5894316E-1],"categories":[],"categories_nodes":[],"categories_segments":[],"categories_sizes":[],"default_left":[1,1,1,1,1,1,1,0,0,0,0,0,0,0,0],"id":20,"left_children":[1,3,5,7,9,11,13,-1,-1,-1,-1,-1,-1,-1,-1],"loss_changes":[7.680201E1,5.7503357E0,6.210346E1,3.3845139E0,6.156576E-1,5.5392727E1,3.7482967E1,0E0,0E0,0E0,0E0,0E0,0E0,0E0,0E0],"parents":[2147483647,0,0,1,1,2,2,3,3,4,4,5,5,6,6],"right_children":[2,4,6,8,10,12,14,-1,-1,-1,-1,-1,-1,-1,-1],"split_conditions":[2.95E1,4.855E2,3.5E0,2.25E1,1.35E1,5.15E1,2.75E1,-4.5777863E-1,-0E0,-0E0,-1.1551617E-1,2.0861611E-1,-2.375445E-1,-2.3348367E-1,3.5894316E-1],"split_indices":[11,27,24,17,12,12,17,0,0,0,0,0,0,0,0],"split_type":[0,0,0,0,0,0,0,0,0,0,0,0,0,0,0],"sum_hessian":[3.5404976E3,5.3786707E2,3.0026304E3,4.7321255E2,6.465449E1,1.870004E3,1.1326263E3,4.4444705E2,2.8765514E1,1.9517027E1,4.513746E1,1.5509644E3,3.1903973E2,1.0264987E3,1.061277E2],"tree_param":{"num_deleted":"0","num_feature":"54","num_nodes":"15","size_leaf_vector":"0"}},{"base_weights":[6.4394255E-3,-2.2774389E-2,7.3172174E-2,9.03785E-2,-9.999419E-2,-7.2142385E-2,1.7348692E-1,1.5845405E-1,4.102464E-3,-2.1315934E-1,-1.0219304E-2,-2.6681986E-1,1.2363273E-1,2.4181345E-1,4.4579133E-2],"categories":[],"categories_nodes":[],"categories_segments":[],"categories_sizes":[],"default_left":[1,1,1,1,1,1,1,0,0,0,0,0,0,0,0],"id":21,"left_children":[1,3,5,7,9,11,13,-1,-1,-1,-1,-1,-1,-1,-1],"loss_changes":[2.007003E1,6.0188965E1,4.7090927E1,1.4450405E1,3.982577E1,4.9127625E1,1.3952705E1,0E0,0E0,0E0,0E0,0E0,0E0,0E0,0E0],"parents":[2147483647,0,0,1,1,2,2,3,3,4,4,5,5,6,6],"right_children":[2,4,6,8,10,12,14,-1,-1,-1,-1,-1,-1,-1,-1],"split_conditions":[5E-1,5E-1,5E-1,5E-1,2.25E1,5E-1,6.35E1,1.5845405E-1,4.102464E-3,-2.1315934E-1,-1.0219304E-2,-2.6681986E-1,1.2363273E-1,2.4181345E-1,4.4579133E-2],"split_indices":[17,28,28,14,11,14,11,0,0,0,0,0,0,0,0],"split_type":[0,0,0,0,0,0,0,0,0,0,0,0,0,0,0],"sum_hessian":[1.0034498E4,6.8754272E3,3.1590713E3,2.7362432E3,4.139184E3,1.2495643E3,1.909507E3,1.46419E3,1.2720531E3,1.7811735E3,2.3580107E3,6.519679E2,5.9759644E2,1.196736E3,7.127709E2],"tree_param":{"num_deleted":"0","num_feature":"54","num_nodes":"15","size_leaf_vector":"0"}},{"base_weights":[2.3387678E-2,-1.3033878E-2,8.169975E-2,2.2792505E-2,-7.767738E-2,1.0343623E-1,-1.1607762E-2,4.9448907E-2,-1.20618775E-1,-1.0487671E-1,5.422239E-2,1.3482538E-1,-0E0,-1.9149117E-1,9.310887E-2],"categories":[],"categories_nodes":[],"categories_segments":[],"categories_sizes":[],"default_left":[1,1,1,1,1,1,1,0,0,0,0,0,0,0,0],"id":22,"left_children":[1,3,5,7,9,11,13,-1,-1,-1,-1,-1,-1,-1,-1],"loss_changes":[1.6214418E1,1.0729983E1,6.8344784E0,9.727746E0,6.4930468E0,8.804565E0,9.760832E0,0E0,0E0,0E0,0E0,0E0,0E0,0E0,0E0],"parents":[2147483647,0,0,1,1,2,2,3,3,4,4,5,5,6,6],"right_children":[2,4,6,8,10,12,14,-1,-1,-1,-1,-1,-1,-1,-1],"split_conditions":[3.5E0,2.6500002E-2,2.5E0,1.785E2,3.5E0,4.5E0,1.5E0,4.9448907E-2,-1.20618775E-1,-1.0487671E-1,5.422239E-2,1.3482538E-1,-0E0,-1.9149117E-1,9.310887E-2],"split_indices":[14,3,28,27,28,8,8,0,0,0,0,0,0,0,0],"split_type":[0,0,0,0,0,0,0,0,0,0,0,0,0,0,0],"sum_hessian":[7.3097524E3,4.3943438E3,2.9154092E3,2.7282563E3,1.6660872E3,2.4514053E3,4.640039E2,2.3599822E3,3.682742E2,1.4442793E3,2.218079E2,1.9267814E3,5.246239E2,2.0555917E2,2.5844473E2],"tree_param":{"num_deleted":"0","num_feature":"54","num_nodes":"15","size_leaf_vector":"0"}},{"base_weights":[-1.5421327E-2,5.5071436E-2,-3.338569E-1,1.134318E-1,-1.9240691E-1,-4.1643628E-1,-0E0,-0E0,2.2246142E-1,-4.3125024E-1,-6.014111E-3,-4.4086292E-1,-0E0,9.4506E-2,-1.8987712E-1],"categories":[],"categories_nodes":[],"categories_segments":[],"categories_sizes":[],"default_left":[1,1,1,1,1,1,1,0,0,0,0,0,0,0,0],"id":23,"left_children":[1,3,5,7,9,11,13,-1,-1,-1,-1,-1,-1,-1,-1],"loss_changes":[1.0305144E2,5.168171E1,2.1531822E1,3.5233116E1,2.5035639E1,9.632286E0,3.5056345E0,0E0,0E0,0E0,0E0,0E0,0E0,0E0,0E0],"parents":[2147483647,0,0,1,1,2,2,3,3,4,4,5,5,6,6],"right_children":[2,4,6,8,10,12,14,-1,-1,-1,-1,-1,-1,-1,-1],"split_conditions":[3.5E0,9.05E1,3.5E0,5E-1,6.5E0,1.055E2,1.05E1,-0E0,2.2246142E-1,-4.3125024E-1,-6.014111E-3,-4.4086292E-1,-0E0,9.4506E-2,-1.8987712E-1],"split_indices":[17,27,28,24,24,24,17,0,0,0,0,0,0,0,0],"split_type":[0,0,0,0,0,0,0,0,0,0,0,0,0,0,0],"sum_hessian":[4.4647812E3,3.6305107E3,8.342703E2,2.9708694E3,6.5964136E2,6.6000775E2,1.7426262E2,1.4872697E3,1.4835997E3,2.6504697E2,3.9459442E2,6.3834784E2,2.1659922E1,1.0405217E2,7.021044E1],"tree_param":{"num_deleted":"0","num_feature":"54","num_nodes":"15","size_leaf_vector":"0"}},{"base_weights":[-3.047283E-2,-1.849649E-1,7.905008E-2,-3.20115E-1,-2.769374E-3,1.2077928E-1,-4.1529253E-1,-4.029977E-1,-0E0,7.77608E-2,-2.3082693E-1,2.0857789E-1,-1.489002E-2,-4.6725702E-1,-0E0],"categories":[],"categories_nodes":[],"categories_segments":[],"categories_sizes":[],"default_left":[1,1,1,1,1,1,1,0,0,0,0,0,0,0,0],"id":24,"left_children":[1,3,5,7,9,11,13,-1,-1,-1,-1,-1,-1,-1,-1],"loss_changes":[5.700432E1,3.1475441E1,3.6239136E1,1.8347923E1,1.3169551E1,2.3009674E1,3.5906887E0,0E0,0E0,0E0,0E0,0E0,0E0,0E0,0E0],"parents":[2147483647,0,0,1,1,2,2,3,3,4,4,5,5,6,6],"right_children":[2,4,6,8,10,12,14,-1,-1,-1,-1,-1,-1,-1,-1],"split_conditions":[6.75E1,8.5E0,3.5E0,7.135E2,5E-1,1.35E1,1.825E2,-4.029977E-1,-0E0,7.77608E-2,-2.3082693E-1,2.0857789E-1,-1.489002E-2,-4.6725702E-1,-0E0],"split_indices":[11,17,28,27,14,12,11,0,0,0,0,0,0,0,0],"split_type":[0,0,0,0,0,0,0,0,0,0,0,0,0,0,0],"sum_hessian":[3.304506E3,1.408419E3,1.8960872E3,7.7666016E2,6.317588E2,1.767842E3,1.2824521E2,6.02653E2,1.740071E2,4.3497406E2,1.9678471E2,1.1176952E3,6.5014685E2,1.1754276E2,1.070245E1],"tree_param":{"num_deleted":"0","num_feature":"54","num_nodes":"15","size_leaf_vector":"0"}},{"base_weights":[6.6801347E-3,1.8747836E-2,-1.385117E-1,3.1864684E-2,-1.3748994E-1,-2.0682573E-1,4.4996515E-2,-3.8804173E-2,5.8153275E-2,-2.525435E-1,2.0359538E-2,-2.7523902E-1,4.1127647E-3,1.6715139E-1,-0E0],"categories":[],"categories_nodes":[],"categories_segments":[],"categories_sizes":[],"default_left":[1,1,1,1,1,1,1,0,0,0,0,0,0,0,0],"id":25,"left_children":[1,3,5,7,9,11,13,-1,-1,-1,-1,-1,-1,-1,-1],"loss_changes":[1.5863688E1,1.7501568E1,1.0197903E1,1.5823435E1,1.39926E1,1.0477362E1,1.3273059E0,0E0,0E0,0E0,0E0,0E0,0E0,0E0,0E0],"parents":[2147483647,0,0,1,1,2,2,3,3,4,4,5,5,6,6],"right_children":[2,4,6,8,10,12,14,-1,-1,-1,-1,-1,-1,-1,-1],"split_conditions":[4.25E1,9.885E2,9.35E1,1.55E1,1.5E0,6.5E2,7.4E1,-3.8804173E-2,5.8153275E-2,-2.525435E-1,2.0359538E-2,-2.7523902E-1,4.1127647E-3,1.6715139E-1,-0E0],"split_indices":[24,27,11,11,24,27,24,0,0,0,0,0,0,0,0],"split_type":[0,0,0,0,0,0,0,0,0,0,0,0,0,0,0],"sum_hessian":[9.734984E3,9.05234E3,6.82645E2,8.411E3,6.4133936E2,5.3707587E2,1.4556915E2,2.1772524E3,6.233748E3,4.072523E2,2.3408708E2,4.4111295E2,9.596296E1,5.712765E1,8.8441505E1],"tree_param":{"num_deleted":"0","num_feature":"54","num_nodes":"15","size_leaf_vector":"0"}},{"base_weights":[1.2026254E-2,-0E0,1.0802149E-1,-1.9797197E-2,5.8413543E-2,-0E0,1.3311811E-1,2.0782694E-2,-7.026004E-2,8.995842E-2,-3.2936886E-2,-8.342856E-2,5.436337E-2,1.7234676E-1,-0E0],"categories":[],"categories_nodes":[],"categories_segments":[],"categories_sizes":[],"default_left":[1,1,1,1,1,1,1,0,0,0,0,0,0,0,0],"id":26,"left_children":[1,3,5,7,9,11,13,-1,-1,-1,-1,-1,-1,-1,-1],"loss_changes":[9.110756E0,7.1907573E0,2.7813892E0,1.0495858E1,5.029656E0,7.382817E-1,3.2278414E0,0E0,0E0,0E0,0E0,0E0,0E0,0E0,0E0],"parents":[2147483647,0,0,1,1,2,2,3,3,4,4,5,5,6,6],"right_children":[2,4,6,8,10,12,14,-1,-1,-1,-1,-1,-1,-1,-1],"split_conditions":[3.795E2,2.35E1,1.25E1,1.95E1,7.05E1,7E0,7.55E1,2.0782694E-2,-7.026004E-2,8.995842E-2,-3.2936886E-2,-8.342856E-2,5.436337E-2,1.7234676E-1,-0E0],"split_indices":[13,24,12,11,11,24,11,0,0,0,0,0,0,0,0],"split_type":[0,0,0,0,0,0,0,0,0,0,0,0,0,0,0],"sum_hessian":[7.2979277E3,6.427669E3,8.702587E2,4.882161E3,1.5455079E3,1.4058824E2,7.296705E2,2.5965544E3,2.2856067E3,1.2301869E3,3.1532104E2,7.812207E1,6.2466175E1,5.4357184E2,1.8609866E2],"tree_param":{"num_deleted":"0","num_feature":"54","num_nodes":"15","size_leaf_vector":"0"}},{"base_weights":[-1.2273479E-2,1.2981998E-2,-2.9298273E-1,-2.2712022E-2,2.3504752E-1,-4.0508053E-1,-0E0,2.7391752E-2,-1.7782238E-1,5.790749E-1,1.07812114E-1,-4.2511564E-1,-0E0,2.9493898E-2,-8.004217E-2],"categories":[],"categories_nodes":[],"categories_segments":[],"categories_sizes":[],"default_left":[1,1,1,1,1,1,1,0,0,0,0,0,0,0,0],"id":27,"left_children":[1,3,5,7,9,11,13,-1,-1,-1,-1,-1,-1,-1,-1],"loss_changes":[3.289125E1,3.2739994E1,1.1586693E1,2.7072035E1,1.8179966E1,3.738449E0,3.9320815E-1,0E0,0E0,0E0,0E0,0E0,0E0,0E0,0E0],"parents":[2147483647,0,0,1,1,2,2,3,3,4,4,5,5,6,6],"right_children":[2,4,6,8,10,12,14,-1,-1,-1,-1,-1,-1,-1,-1],"split_conditions":[8.5E0,5E-1,4.2299998E-1,4.45E1,3.65E1,3.255E2,1.15E1,2.7391752E-2,-1.7782238E-1,5.790749E-1,1.07812114E-1,-4.2511564E-1,-0E0,2.9493898E-2,-8.004217E-2],"split_indices":[17,16,33,11,11,14,27,0,0,0,0,0,0,0,0],"split_type":[0,0,0,0,0,0,0,0,0,0,0,0,0,0,0],"sum_hessian":[4.2429766E3,3.8609368E3,3.820397E2,3.2882598E3,5.726772E2,2.6998746E2,1.1205227E2,2.437312E3,8.5094775E2,1.3243773E2,4.402394E2,2.6573285E2,4.254607E0,5.9954437E1,5.2097836E1],"tree_param":{"num_deleted":"0","num_feature":"54","num_nodes":"15","size_leaf_vector":"0"}},{"base_weights":[-3.1085858E-2,1.6335575E-2,-2.3250261E-1,7.8207195E-2,-1.1459945E-1,-3.9280722E-1,3.114937E-2,1.3068246E-2,3.8276902E-1,-1.7607681E-1,8.0018036E-2,-4.55208E-1,-0E0,1.5796956E-1,-1.4431103E-1],"categories":[],"categories_nodes":[],"categories_segments":[],"categories_sizes":[],"default_left":[1,1,1,1,1,1,1,0,0,0,0,0,0,0,0],"id":28,"left_children":[1,3,5,7,9,11,13,-1,-1,-1,-1,-1,-1,-1,-1],"loss_changes":[3.1815071E1,1.9682207E1,3.0332558E1,3.0399979E1,9.855309E0,1.3663506E1,4.971163E0,0E0,0E0,0E0,0E0,0E0,0E0,0E0,0E0],"parents":[2147483647,0,0,1,1,2,2,3,3,4,4,5,5,6,6],"right_children":[2,4,6,8,10,12,14,-1,-1,-1,-1,-1,-1,-1,-1],"split_conditions":[1.5E0,1.95E1,1.075E2,5.225E2,2.024E3,2.95E1,3.5E0,1.3068246E-2,3.8276902E-1,-1.7607681E-1,8.0018036E-2,-4.55208E-1,-0E0,1.5796956E-1,-1.4431103E-1],"split_indices":[28,12,11,27,27,17,28,0,0,0,0,0,0,0,0],"split_type":[0,0,0,0,0,0,0,0,0,0,0,0,0,0,0],"sum_hessian":[3.103192E3,2.4723694E3,6.308225E2,1.7311254E3,7.4124396E2,4.1558133E2,2.1524117E2,1.4540201E3,2.7710532E2,6.024236E2,1.3882039E2,3.7513702E2,4.0444317E1,1.580776E2,5.716356E1],"tree_param":{"num_deleted":"0","num_feature":"54","num_nodes":"15","size_leaf_vector":"0"}},{"base_weights":[4.757796E-3,1.7498964E-2,-1.6551095E-1,3.4005724E-2,-4.8410665E-2,-2.2358434E-1,2.3200299E-1,5.7877544E-2,-5.149188E-3,-0E0,-1.108308E-1,-2.5135097E-1,-0E0,3.3983806E-1,-0E0],"categories":[],"categories_nodes":[],"categories_segments":[],"categories_sizes":[],"default_left":[1,1,1,1,1,1,1,0,0,0,0,0,0,0,0],"id":29,"left_children":[1,3,5,7,9,11,13,-1,-1,-1,-1,-1,-1,-1,-1],"loss_changes":[1.9345318E1,9.633425E0,1.41345005E1,7.3581505E0,5.815026E0,4.5496426E0,2.436841E0,0E0,0E0,0E0,0E0,0E0,0E0,0E0,0E0],"parents":[2147483647,0,0,1,1,2,2,3,3,4,4,5,5,6,6],"right_children":[2,4,6,8,10,12,14,-1,-1,-1,-1,-1,-1,-1,-1],"split_conditions":[3.5E0,5E-1,1.65E1,9.95E1,6.5E0,1.35E1,5E-1,5.7877544E-2,-5.149188E-3,-0E0,-1.108308E-1,-2.5135097E-1,-0E0,3.3983806E-1,-0E0],"split_indices":[28,46,17,13,12,9,52,0,0,0,0,0,0,0,0],"split_type":[0,0,0,0,0,0,0,0,0,0,0,0,0,0,0],"sum_hessian":[9.597193E3,8.984513E3,6.126809E2,7.3067725E3,1.6777402E3,5.5691437E2,5.5766544E1,4.6976465E3,2.609126E3,8.8504663E2,7.9269354E2,5.1247174E2,4.4442677E1,4.655673E1,9.209816E0],"tree_param":{"num_deleted":"0","num_feature":"54","num_nodes":"15","size_leaf_vector":"0"}},{"base_weights":[9.213579E-3,1.6791277E-2,-1.6588308E-1,-7.645568E-3,5.1291846E-2,-2.2784908E-1,-0E0,-4.2495932E-2,6.2129185E-2,1.0329982E-1,1.036875E-2,-2.8033674E-1,-0E0,4.268744E-4,-0E0],"categories":[],"categories_nodes":[],"categories_segments":[],"categories_sizes":[],"default_left":[1,1,1,1,1,1,1,0,0,0,0,0,0,0,0],"id":30,"left_children":[1,3,5,7,9,11,13,-1,-1,-1,-1,-1,-1,-1,-1],"loss_changes":[8.183078E0,6.374073E0,3.2169046E0,9.420098E0,5.4381046E0,2.164691E0,4.3647688E-6,0E0,0E0,0E0,0E0,0E0,0E0,0E0,0E0],"parents":[2147483647,0,0,1,1,2,2,3,3,4,4,5,5,6,6],"right_children":[2,4,6,8,10,12,14,-1,-1,-1,-1,-1,-1,-1,-1],"split_conditions":[1.45E1,5E-1,9.95E1,7.7349997E-1,3.25E1,3.5E0,2.45E1,-4.2495932E-2,6.2129185E-2,1.0329982E-1,1.036875E-2,-2.8033674E-1,-0E0,4.268744E-4,-0E0],"split_indices":[17,14,27,33,11,28,14,0,0,0,0,0,0,0,0],"split_type":[0,0,0,0,0,0,0,0,0,0,0,0,0,0,0],"sum_hessian":[7.2879624E3,7.0412524E3,2.467104E2,3.952567E3,3.0886853E3,1.9226132E2,5.4449078E1,2.731817E3,1.22075E3,1.2518546E3,1.8368308E3,1.542118E2,3.804952E1,2.2953062E1,3.1496017E1],"tree_param":{"num_deleted":"0","num_feature":"54","num_nodes":"15","size_leaf_vector":"0"}},{"base_weights":[-3.9489954E-3,-3.6056504E-2,3.867548E-1,-1.0992603E-2,-3.3251473E-1,4.6335766E-1,-0E0,-1.0826951E-1,5.9066262E-2,-3.819454E-1,-0E0,4.8886505E-1,-0E0,-1.7748566E-2,-0E0],"categories":[],"categories_nodes":[],"categories_segments":[],"categories_sizes":[],"default_left":[1,1,1,1,1,1,1,0,0,0,0,0,0,0,0],"id":31,"left_children":[1,3,5,7,9,11,13,-1,-1,-1,-1,-1,-1,-1,-1],"loss_changes":[4.8372437E1,2.5131973E1,1.226268E1,2.4879513E1,7.539236E0,2.7752533E0,7.1710194E-3,0E0,0E0,0E0,0E0,0E0,0E0,0E0,0E0],"parents":[2147483647,0,0,1,1,2,2,3,3,4,4,5,5,6,6],"right_children":[2,4,6,8,10,12,14,-1,-1,-1,-1,-1,-1,-1,-1],"split_conditions":[5.5E0,8.75E1,1.115E2,5E-1,2.92E2,1.15E1,9.5E0,-1.0826951E-1,5.9066262E-2,-3.819454E-1,-0E0,4.8886505E-1,-0E0,-1.7748566E-2,-0E0],"split_indices":[28,11,11,14,14,17,28,0,0,0,0,0,0,0,0],"split_type":[0,0,0,0,0,0,0,0,0,0,0,0,0,0,0],"sum_hessian":[4.1335107E3,3.8441096E3,2.8940118E2,3.5765046E3,2.67605E2,2.584345E2,3.0966654E1,1.5569154E3,2.0195892E3,2.5425941E2,1.3345599E1,2.4368037E2,1.4754136E1,2.1764303E1,9.202353E0],"tree_param":{"num_deleted":"0","num_feature":"54","num_nodes":"15","size_leaf_vector":"0"}},{"base_weights":[-1.6836386E-2,-2.4788722E-1,1.721885E-2,-2.809632E-1,-0E0,5.353737E-2,-1.887371E-1,-2.990654E-1,-0E0,1.165617E-1,-7.340922E-2,-2.690703E-1,1.1263583E-1],"categories":[],"categories_nodes":[],"categories_segments":[],"categories_sizes":[],"default_left":[1,1,1,1,0,1,1,0,0,0,0,0,0],"id":32,"left_children":[1,3,5,7,-1,9,11,-1,-1,-1,-1,-1,-1],"loss_changes":[2.559403E1,4.1832676E0,1.7673262E1,2.6947803E0,0E0,1.8066486E1,9.826791E0,0E0,0E0,0E0,0E0,0E0,0E0],"parents":[2147483647,0,0,1,1,2,2,3,3,5,5,6,6],"right_children":[2,4,6,8,-1,10,12,-1,-1,-1,-1,-1,-1],"split_conditions":[3.85E1,8.785E2,3.0400002E-1,9.5E0,-0E0,1.15E1,1.615E2,-2.990654E-1,-0E0,1.165617E-1,-7.340922E-2,-2.690703E-1,1.1263583E-1],"split_indices":[11,27,33,8,0,24,11,0,0,0,0,0,0],"split_type":[0,0,0,0,0,0,0,0,0,0,0,0,0],"sum_hessian":[2.958027E3,4.1689908E2,2.541128E3,3.7729034E2,3.9608727E1,2.202101E3,3.39027E2,3.630105E2,1.4279876E1,1.5242311E3,6.778698E2,2.9395877E2,4.506825E1],"tree_param":{"num_deleted":"0","num_feature":"54","num_nodes":"13","size_leaf_vector":"0"}},{"base_weights":[-0E0,1.6282823E-2,-4.398792E-2,2.7116401E-2,-4.7910333E-2,-1.3746619E-1,7.83936E-3,-0E0,6.721463E-2,8.285117E-2,-1.727381E-1,-1.7873645E-1,-0E0,6.0879562E-2,-7.946018E-2],"categories":[],"categories_nodes":[],"categories_segments":[],"categories_sizes":[],"default_left":[1,1,1,1,1,1,1,0,0,0,0,0,0,0,0],"id":33,"left_children":[1,3,5,7,9,11,13,-1,-1,-1,-1,-1,-1,-1,-1],"loss_changes":[6.576318E0,4.6189346E0,1.315695E1,7.0322227E0,1.5097928E1,7.0352955E0,6.7967477E0,0E0,0E0,0E0,0E0,0E0,0E0,0E0,0E0],"parents":[2147483647,0,0,1,1,2,2,3,3,4,4,5,5,6,6],"right_children":[2,4,6,8,10,12,14,-1,-1,-1,-1,-1,-1,-1,-1],"split_conditions":[1.715E-1,1.05E1,1.5E0,1.245E2,5.65E1,3.5E0,5.5E0,-0E0,6.721463E-2,8.285117E-2,-1.727381E-1,-1.7873645E-1,-0E0,6.0879562E-2,-7.946018E-2],"split_indices":[33,17,9,27,27,8,14,0,0,0,0,0,0,0,0],"split_type":[0,0,0,0,0,0,0,0,0,0,0,0,0,0,0],"sum_hessian":[9.384807E3,6.9378647E3,2.4469421E3,6.0698433E3,8.6802155E2,9.4100134E2,1.5059409E3,3.5262214E3,2.5436216E3,3.849738E2,4.8304776E2,7.7642737E2,1.6457396E2,1.00822736E3,4.9771353E2],"tree_param":{"num_deleted":"0","num_feature":"54","num_nodes":"15","size_leaf_vector":"0"}},{"base_weights":[7.6236245E-3,1.2599965E-2,-2.2334012E-1,-8.559167E-3,4.1917916E-2,-2.672348E-1,-0E0,-5.406853E-2,1.903321E-2,7.0134476E-2,-0E0,-2.883261E-1,-0E0],"categories":[],"categories_nodes":[],"categories_segments":[],"categories_sizes":[],"default_left":[1,1,1,1,1,1,0,0,0,0,0,0,0],"id":34,"left_children":[1,3,5,7,9,11,-1,-1,-1,-1,-1,-1,-1],"loss_changes":[6.185219E0,4.740724E0,1.6159873E0,5.2847204E0,4.4571743E0,8.824773E-1,0E0,0E0,0E0,0E0,0E0,0E0,0E0],"parents":[2147483647,0,0,1,1,2,2,3,3,4,4,5,5],"right_children":[2,4,6,8,10,12,-1,-1,-1,-1,-1,-1,-1],"split_conditions":[1.535E2,5E-1,5E-1,4.5E0,1.105E2,2.485E2,-0E0,-5.406853E-2,1.903321E-2,7.0134476E-2,-0E0,-2.883261E-1,-0E0],"split_indices":[11,24,49,12,27,11,0,0,0,0,0,0,0],"split_type":[0,0,0,0,0,0,0,0,0,0,0,0,0],"sum_hessian":[7.211577E3,7.1027827E3,1.0879413E2,3.9277192E3,3.1750637E3,9.831617E1,1.0477962E1,1.6189578E3,2.3087615E3,2.0396971E3,1.1353666E3,9.493286E1,3.383304E0],"tree_param":{"num_deleted":"0","num_feature":"54","num_nodes":"13","size_leaf_vector":"0"}},{"base_weights":[-1.193851E-4,-7.850474E-2,8.762342E-2,-1.2567201E-1,1.8974176E-1,1.5788035E-1,-4.4179916E-2,-8.507212E-2,-2.7264333E-1,-1.3380747E-1,3.224521E-1,2.2568727E-1,3.0687703E-2,-1.0237138E-1,1.19153105E-1],"categories":[],"categories_nodes":[],"categories_segments":[],"categories_sizes":[],"default_left":[1,1,1,1,1,1,1,0,0,0,0,0,0,0,0],"id":35,"left_children":[1,3,5,7,9,11,13,-1,-1,-1,-1,-1,-1,-1,-1],"loss_changes":[2.7056696E1,2.6522186E1,1.7832914E1,7.4774685E0,1.4358249E1,7.9970226E0,5.337421E0,0E0,0E0,0E0,0E0,0E0,0E0,0E0,0E0],"parents":[2147483647,0,0,1,1,2,2,3,3,4,4,5,5,6,6],"right_children":[2,4,6,8,10,12,14,-1,-1,-1,-1,-1,-1,-1,-1],"split_conditions":[1.7899999E-1,2.85E1,3.95E1,5.65E1,5E-1,2.5E0,1.5E0,-8.507212E-2,-2.7264333E-1,-1.3380747E-1,3.224521E-1,2.2568727E-1,3.0687703E-2,-1.0237138E-1,1.19153105E-1],"split_indices":[33,12,11,11,14,9,16,0,0,0,0,0,0,0,0],"split_type":[0,0,0,0,0,0,0,0,0,0,0,0,0,0,0],"sum_hessian":[3.9452034E3,2.143962E3,1.8012416E3,1.8555082E3,2.8845364E2,1.2243058E3,5.769357E2,1.5084326E3,3.4707562E2,6.1981567E1,2.2647208E2,7.467925E2,4.775133E2,4.707995E2,1.0613622E2],"tree_param":{"num_deleted":"0","num_feature":"54","num_nodes":"15","size_leaf_vector":"0"}},{"base_weights":[-1.1717357E-2,6.674622E-3,-2.593442E-1,-7.130168E-2,7.900404E-2,-3.2475257E-1,-0E0,-0E0,-2.4744187E-1,1.7467618E-1,-1.3620329E-2,-3.9825025E-1,-0E0],"categories":[],"categories_nodes":[],"categories_segments":[],"categories_sizes":[],"default_left":[1,1,1,1,1,1,0,0,0,0,0,0,0],"id":36,"left_children":[1,3,5,7,9,11,-1,-1,-1,-1,-1,-1,-1],"loss_changes":[1.5488039E1,1.481539E1,5.16916E0,1.3882667E1,1.4215621E1,4.8036537E0,0E0,0E0,0E0,0E0,0E0,0E0,0E0],"parents":[2147483647,0,0,1,1,2,2,3,3,4,4,5,5],"right_children":[2,4,6,8,10,12,-1,-1,-1,-1,-1,-1,-1],"split_conditions":[2.5E0,7.45E1,1.685E2,5E-1,8.05E1,1.25E1,-0E0,-0E0,-2.4744187E-1,1.7467618E-1,-1.3620329E-2,-3.9825025E-1,-0E0],"split_indices":[28,11,11,14,13,8,0,0,0,0,0,0,0],"split_type":[0,0,0,0,0,0,0,0,0,0,0,0,0],"sum_hessian":[2.8445476E3,2.611196E3,2.3335156E2,1.1900233E3,1.4211726E3,1.974702E2,3.5881355E1,8.6538947E2,3.2463388E2,7.517567E2,6.694159E2,1.6126125E2,3.6208954E1],"tree_param":{"num_deleted":"0","num_feature":"54","num_nodes":"13","size_leaf_vector":"0"}},{"base_weights":[-0E0,1.2121788E-2,-7.853425E-2,1.804135E-2,-1.6916475E-1,-1.1073207E-1,1.0598062E-1,4.387451E-3,7.3152415E-2,-2.223222E-1,-0E0,-4.935853E-2,-2.3867138E-1,1.940162E-1,-0E0],"categories":[],"categories_nodes":[],"categories_segments":[],"categories_sizes":[],"default_left":[1,1,1,1,1,1,1,0,0,0,0,0,0,0,0],"id":37,"left_children":[1,3,5,7,9,11,13,-1,-1,-1,-1,-1,-1,-1,-1],"loss_changes":[8.709448E0,7.0906215E0,7.3145237E0,5.103962E0,2.983749E0,5.638562E0,2.455956E0,0E0,0E0,0E0,0E0,0E0,0E0,0E0,0E0],"parents":[2147483647,0,0,1,1,2,2,3,3,4,4,5,5,6,6],"right_children":[2,4,6,8,10,12,14,-1,-1,-1,-1,-1,-1,-1,-1],"split_conditions":[2.5E0,2.25E1,1.15E1,5E-1,1.975E2,6.0450006E-1,5E-1,4.387451E-3,7.3152415E-2,-2.223222E-1,-0E0,-4.935853E-2,-2.3867138E-1,1.940162E-1,-0E0],"split_indices":[28,17,17,15,13,33,16,0,0,0,0,0,0,0,0],"split_type":[0,0,0,0,0,0,0,0,0,0,0,0,0,0,0],"sum_hessian":[9.232001E3,8.011775E3,1.2202261E3,7.812727E3,1.9904774E2,1.085417E3,1.3480904E2,6.4077285E3,1.4049987E3,1.751877E2,2.3860044E1,7.8729364E2,2.9812335E2,1.0476796E2,3.0041075E1],"tree_param":{"num_deleted":"0","num_feature":"54","num_nodes":"15","size_leaf_vector":"0"}},{"base_weights":[5.882636E-3,1.0815407E-2,-1.4752916E-1,2.514035E-2,-1.241976E-2,-2.0198803E-1,-0E0,5.1460393E-2,-0E0,-3.3448942E-2,4.8973855E-2,-2.2506525E-1,-0E0],"categories":[],"categories_nodes":[],"categories_segments":[],"categories_sizes":[],"default_left":[1,1,1,1,1,1,0,0,0,0,0,0,0],"id":38,"left_children":[1,3,5,7,9,11,-1,-1,-1,-1,-1,-1,-1],"loss_changes":[4.0892854E0,2.4733274E0,1.6822937E0,2.9678757E0,2.9738111E0,8.206959E-1,0E0,0E0,0E0,0E0,0E0,0E0,0E0],"parents":[2147483647,0,0,1,1,2,2,3,3,4,4,5,5],"right_children":[2,4,6,8,10,12,-1,-1,-1,-1,-1,-1,-1],"split_conditions":[1.85E1,1.195E2,1.165E2,2.5E0,2.285E2,1.45E1,-0E0,5.1460393E-2,-0E0,-3.3448942E-2,4.8973855E-2,-2.2506525E-1,-0E0],"split_indices":[17,30,27,37,13,12,0,0,0,0,0,0,0],"split_type":[0,0,0,0,0,0,0,0,0,0,0,0,0],"sum_hessian":[7.207275E3,7.046807E3,1.6046802E2,4.6254346E3,2.4213723E3,1.2637078E2,3.4097237E1,2.2239138E3,2.4015208E3,1.9252532E3,4.9611923E2,1.1779167E2,8.5791025E0],"tree_param":{"num_deleted":"0","num_feature":"54","num_nodes":"13","size_leaf_vector":"0"}},{"base_weights":[-7.282022E-5,-6.855952E-2,1.0990097E-1,-2.1196212E-1,-0E0,1.8184997E-1,-0E0,-8.673217E-2,-3.7824306E-1,1.0515294E-1,-1.5974404E-1,2.0389555E-1,-0E0,-1.4626575E-1,1.2079741E-1],"categories":[],"categories_nodes":[],"categories_segments":[],"categories_sizes":[],"default_left":[1,1,1,1,1,1,1,0,0,0,0,0,0,0,0],"id":39,"left_children":[1,3,5,7,9,11,13,-1,-1,-1,-1,-1,-1,-1,-1],"loss_changes":[2.8803078E1,2.3182924E1,1.1355484E1,1.1392151E1,2.8385647E1,4.943634E0,1.0039457E1,0E0,0E0,0E0,0E0,0E0,0E0,0E0,0E0],"parents":[2147483647,0,0,1,1,2,2,3,3,4,4,5,5,6,6],"right_children":[2,4,6,8,10,12,14,-1,-1,-1,-1,-1,-1,-1,-1],"split_conditions":[2.5E0,5E-1,3.45E1,1.65E1,5E-1,3.5E0,3.5E0,-8.673217E-2,-3.7824306E-1,1.0515294E-1,-1.5974404E-1,2.0389555E-1,-0E0,-1.4626575E-1,1.2079741E-1],"split_indices":[28,14,11,11,15,25,24,0,0,0,0,0,0,0,0],"split_type":[0,0,0,0,0,0,0,0,0,0,0,0,0,0,0],"sum_hessian":[3.8771147E3,2.4454849E3,1.4316299E3,7.7095605E2,1.6745288E3,8.656349E2,5.65995E2,4.749336E2,2.960225E2,9.9452325E2,6.800055E2,8.0727515E2,5.8359768E1,2.5647635E2,3.0951865E2],"tree_param":{"num_deleted":"0","num_feature":"54","num_nodes":"15","size_leaf_vector":"0"}},{"base_weights":[-1.2956135E-2,-6.6962235E-2,1.5289544E-1,-1.4432083E-1,1.8545484E-2,2.619482E-1,4.1932225E-2,-2.0968252E-1,1.2041154E-1,-2.235501E-2,1.6058494E-1,-0E0,3.178321E-1,-0E0,3.6538854E-1],"categories":[],"categories_nodes":[],"categories_segments":[],"categories_sizes":[],"default_left":[1,1,1,1,1,1,1,0,0,0,0,0,0,0,0],"id":40,"left_children":[1,3,5,7,9,11,13,-1,-1,-1,-1,-1,-1,-1,-1],"loss_changes":[2.3786957E1,1.5290527E1,4.579217E0,2.1250992E1,6.8871064E0,6.25408E0,6.572661E0,0E0,0E0,0E0,0E0,0E0,0E0,0E0,0E0],"parents":[2147483647,0,0,1,1,2,2,3,3,4,4,5,5,6,6],"right_children":[2,4,6,8,10,12,14,-1,-1,-1,-1,-1,-1,-1,-1],"split_conditions":[1.15E1,2.745E2,5E-1,1.535E2,4.5E0,1.85E1,3.65E1,-2.0968252E-1,1.2041154E-1,-2.235501E-2,1.6058494E-1,-0E0,3.178321E-1,-0E0,3.6538854E-1],"split_indices":[17,27,14,11,17,11,17,0,0,0,0,0,0,0,0],"split_type":[0,0,0,0,0,0,0,0,0,0,0,0,0,0,0],"sum_hessian":[2.7494814E3,2.1200293E3,6.294521E2,1.174092E3,9.4593726E2,2.7132138E2,3.581307E2,9.720721E2,2.0201999E2,6.804424E2,2.6549484E2,2.5433643E1,2.4588774E2,3.0517078E2,5.2959927E1],"tree_param":{"num_deleted":"0","num_feature":"54","num_nodes":"15","size_leaf_vector":"0"}},{"base_weights":[-0E0,-1.2661333E-2,7.896816E-2,-5.3827357E-3,-2.7510116E-1,1.167215E-1,-1.3309395E-1,2.4993738E-2,-5.0145652E-2,-3.2205248E-1,-0E0,1.4178051E-1,-1.1774523E-1,-0E0,-2.2571325E-1],"categories":[],"categories_nodes":[],"categories_segments":[],"categories_sizes":[],"default_left":[1,1,1,1,1,1,1,0,0,0,0,0,0,0,0],"id":41,"left_children":[1,3,5,7,9,11,13,-1,-1,-1,-1,-1,-1,-1,-1],"loss_changes":[9.363658E0,1.2081787E1,1.0269236E1,1.0616429E1,3.9882307E0,6.985161E0,1.5879269E0,0E0,0E0,0E0,0E0,0E0,0E0,0E0,0E0],"parents":[2147483647,0,0,1,1,2,2,3,3,4,4,5,5,6,6],"right_children":[2,4,6,8,10,12,14,-1,-1,-1,-1,-1,-1,-1,-1],"split_conditions":[9.15E1,4.5E0,1.25E1,5E-1,2.35E1,1.825E2,1.125E2,2.4993738E-2,-5.0145652E-2,-3.2205248E-1,-0E0,1.4178051E-1,-1.1774523E-1,-0E0,-2.2571325E-1],"split_indices":[11,28,17,14,17,11,11,0,0,0,0,0,0,0,0],"split_type":[0,0,0,0,0,0,0,0,0,0,0,0,0,0,0],"sum_hessian":[9.093223E3,7.7930293E3,1.3001932E3,7.620796E3,1.722333E2,1.1441128E3,1.5608044E2,4.407127E3,3.2136692E3,1.6385735E2,8.37596E0,1.0725298E3,7.158306E1,7.1295296E1,8.478514E1],"tree_param":{"num_deleted":"0","num_feature":"54","num_nodes":"15","size_leaf_vector":"0"}},{"base_weights":[9.046745E-3,3.437285E-3,1.0299161E-1,1.0757808E-2,-4.320453E-2,-0E0,1.4095384E-1,-2.0399163E-3,3.7497986E-2,-1.02337755E-1,3.5474813E-3,1.5922636E-1,-0E0],"categories":[],"categories_nodes":[],"categories_segments":[],"categories_sizes":[],"default_left":[1,1,1,1,1,0,1,0,0,0,0,0,0],"id":42,"left_children":[1,3,5,7,9,-1,11,-1,-1,-1,-1,-1,-1],"loss_changes":[2.7120242E0,2.0197606E0,1.7681746E0,2.4487312E0,3.0509176E0,0E0,9.559026E-1,0E0,0E0,0E0,0E0,0E0,0E0],"parents":[2147483647,0,0,1,1,2,2,3,3,4,4,6,6],"right_children":[2,4,6,8,10,-1,12,-1,-1,-1,-1,-1,-1],"split_conditions":[5.955E-1,7.5E0,7.5E0,9.5E0,4.85E1,-0E0,4.05E1,-2.0399163E-3,3.7497986E-2,-1.02337755E-1,3.5474813E-3,1.5922636E-1,-0E0],"split_indices":[1,17,11,14,11,0,11,0,0,0,0,0,0],"split_type":[0,0,0,0,0,0,0,0,0,0,0,0,0],"sum_hessian":[7.165625E3,6.863299E3,3.0232642E2,6.118204E3,7.4509467E2,5.2388042E1,2.4993837E2,3.885552E3,2.232652E3,4.2290207E2,3.221926E2,2.3335234E2,1.6586018E1],"tree_param":{"num_deleted":"0","num_feature":"54","num_nodes":"13","size_leaf_vector":"0"}},{"base_weights":[-6.235849E-3,2.6669681E-2,-1.4381164E-1,-4.6248846E-2,8.703969E-2,-2.479222E-1,-2.0527367E-2,-2.4471171E-1,7.319794E-3,-2.6584601E-2,1.4692962E-1,-2.8461975E-1,-0E0,1.3063016E-2,-1.2172137E-1],"categories":[],"categories_nodes":[],"categories_segments":[],"categories_sizes":[],"default_left":[1,1,1,1,1,1,1,0,0,0,0,0,0,0,0],"id":43,"left_children":[1,3,5,7,9,11,13,-1,-1,-1,-1,-1,-1,-1,-1],"loss_changes":[1.806775E1,1.3413271E1,7.309675E0,1.5806592E1,1.2715358E1,6.1272583E0,2.453771E0,0E0,0E0,0E0,0E0,0E0,0E0,0E0,0E0],"parents":[2147483647,0,0,1,1,2,2,3,3,4,4,5,5,6,6],"right_children":[2,4,6,8,10,12,14,-1,-1,-1,-1,-1,-1,-1,-1],"split_conditions":[5E-1,5E-1,1.3800001E-1,1.5E0,5.55E1,1.865E2,3.95E1,-2.4471171E-1,7.319794E-3,-2.6584601E-2,1.4692962E-1,-2.8461975E-1,-0E0,1.3063016E-2,-1.2172137E-1],"split_indices":[17,14,33,28,13,14,11,0,0,0,0,0,0,0,0],"split_type":[0,0,0,0,0,0,0,0,0,0,0,0,0,0,0],"sum_hessian":[3.7304954E3,2.9524453E3,7.780502E2,1.2623236E3,1.6901217E3,3.7730283E2,4.0074734E2,3.0722278E2,9.551008E2,5.259199E2,1.1642018E3,3.61676E2,1.5626838E1,2.2733612E2,1.7341122E2],"tree_param":{"num_deleted":"0","num_feature":"54","num_nodes":"15","size_leaf_vector":"0"}},{"base_weights":[2.1297738E-3,-7.1491584E-2,6.5955564E-2,-1.8024787E-1,-0E0,8.753205E-2,-2.3758097E-1,-3.3316633E-1,-4.6339773E-2,2.116027E-2,-1.8266802E-1,1.7535065E-1,-0E0,-3.988977E-1,-0E0],"categories":[],"categories_nodes":[],"categories_segments":[],"categories_sizes":[],"default_left":[1,1,1,1,1,1,1,0,0,0,0,0,0,0,0],"id":44,"left_children":[1,3,5,7,9,11,13,-1,-1,-1,-1,-1,-1,-1,-1],"loss_changes":[1.22929535E1,8.435093E0,8.215338E0,5.202571E0,3.1787922E0,1.2010722E1,5.1642747E0,0E0,0E0,0E0,0E0,0E0,0E0,0E0,0E0],"parents":[2147483647,0,0,1,1,2,2,3,3,4,4,5,5,6,6],"right_children":[2,4,6,8,10,12,14,-1,-1,-1,-1,-1,-1,-1,-1],"split_conditions":[7.45E1,2.5E0,9.35E1,2.695E2,1.5E0,5E-1,3.013E3,-3.3316633E-1,-4.6339773E-2,2.116027E-2,-1.8266802E-1,1.7535065E-1,-0E0,-3.988977E-1,-0E0],"split_indices":[11,17,12,27,28,14,27,0,0,0,0,0,0,0,0],"split_type":[0,0,0,0,0,0,0,0,0,0,0,0,0,0,0],"sum_hessian":[2.625889E3,1.1465627E3,1.4793263E3,4.391554E2,7.0740735E2,1.4125721E3,6.675421E1,1.6946552E2,2.6968988E2,6.214947E2,8.591263E1,7.4185895E2,6.707132E2,5.5489918E1,1.1264291E1],"tree_param":{"num_deleted":"0","num_feature":"54","num_nodes":"15","size_leaf_vector":"0"}},{"base_weights":[-8.6323544E-4,-7.847921E-3,7.508989E-2,-2.5284631E-2,2.1936627E-2,1.1088393E-1,-0E0,-8.2892075E-2,2.0134544E-3,1.2834094E-1,-0E0,1.2878004E-1,-0E0,4.7550485E-2,-4.3132886E-2],"categories":[],"categories_nodes":[],"categories_segments":[],"categories_sizes":[],"default_left":[1,1,1,1,1,1,1,0,0,0,0,0,0,0,0],"id":45,"left_children":[1,3,5,7,9,11,13,-1,-1,-1,-1,-1,-1,-1,-1],"loss_changes":[4.0665655E0,4.345153E0,1.8481526E0,9.376472E0,7.8511868E0,1.5514002E0,3.9130297E-1,0E0,0E0,0E0,0E0,0E0,0E0,0E0,0E0],"parents":[2147483647,0,0,1,1,2,2,3,3,4,4,5,5,6,6],"right_children":[2,4,6,8,10,12,14,-1,-1,-1,-1,-1,-1,-1,-1],"split_conditions":[5E-1,1.265E2,8.55E1,1.95E1,1.85E1,1.45E1,1.035E2,-8.2892075E-2,2.0134544E-3,1.2834094E-1,-0E0,1.2878004E-1,-0E0,4.7550485E-2,-4.3132886E-2],"split_indices":[48,27,11,11,11,8,30,0,0,0,0,0,0,0,0],"split_type":[0,0,0,0,0,0,0,0,0,0,0,0,0,0,0],"sum_hessian":[8.930797E3,8.300075E3,6.307221E2,5.447091E3,2.8529841E3,4.3901657E2,1.9170554E2,1.8684243E3,3.5786665E3,5.5903546E2,2.2939487E3,4.187652E2,2.025137E1,7.619446E1,1.1551107E2],"tree_param":{"num_deleted":"0","num_feature":"54","num_nodes":"15","size_leaf_vector":"0"}},{"base_weights":[4.869903E-3,1.0142456E-2,-5.8430538E-2,-8.4836513E-4,3.022303E-2,-9.6192226E-2,-0E0,5.1054228E-2,-6.0201857E-2,-2.9006305E-3,1.5007849E-1,-0E0,-1.3450812E-1,-0E0,7.774778E-2],"categories":[],"categories_nodes":[],"categories_segments":[],"categories_sizes":[],"default_left":[1,1,1,1,1,1,1,0,0,0,0,0,0,0,0],"id":46,"left_children":[1,3,5,7,9,11,13,-1,-1,-1,-1,-1,-1,-1,-1],"loss_changes":[1.9108937E0,1.787003E0,1.8167164E0,1.2576206E1,1.225141E1,1.9515374E0,1.642875E-1,0E0,0E0,0E0,0E0,0E0,0E0,0E0,0E0],"parents":[2147483647,0,0,1,1,2,2,3,3,4,4,5,5,6,6],"right_children":[2,4,6,8,10,12,14,-1,-1,-1,-1,-1,-1,-1,-1],"split_conditions":[5E-1,1.5E0,1.865E2,2.85E1,4.65E1,5.45E1,1.15E1,5.1054228E-2,-6.0201857E-2,-2.9006305E-3,1.5007849E-1,-0E0,-1.3450812E-1,-0E0,7.774778E-2],"split_indices":[48,28,30,11,11,30,12,0,0,0,0,0,0,0,0],"split_type":[0,0,0,0,0,0,0,0,0,0,0,0,0,0,0],"sum_hessian":[7.1694766E3,6.764823E3,4.0465326E2,4.0506958E3,2.7141274E3,3.450162E2,5.9637047E1,2.0711787E3,1.979517E3,2.0618496E3,6.522778E2,6.118966E1,2.8382654E2,3.3458355E1,2.617869E1],"tree_param":{"num_deleted":"0","num_feature":"54","num_nodes":"15","size_leaf_vector":"0"}},{"base_weights":[-8.985597E-3,7.38953E-3,-2.5987443E-1,-1.0380035E-2,3.2113644E-1,-3.0256578E-1,-0E0,1.9494588E-2,-1.0979907E-1,-0E0,3.6296964E-1,-3.1163624E-1,-0E0,-0E0,1.8925776E-1],"categories":[],"categories_nodes":[],"categories_segments":[],"categories_sizes":[],"default_left":[1,1,1,1,1,1,1,0,0,0,0,0,0,0,0],"id":47,"left_children":[1,3,5,7,9,11,13,-1,-1,-1,-1,-1,-1,-1,-1],"loss_changes":[1.7525177E1,2.2014008E1,5.332819E0,1.0349138E1,3.1890182E0,6.749172E-1,1.2269206E-1,0E0,0E0,0E0,0E0,0E0,0E0,0E0,0E0],"parents":[2147483647,0,0,1,1,2,2,3,3,4,4,5,5,6,6],"right_children":[2,4,6,8,10,12,14,-1,-1,-1,-1,-1,-1,-1,-1],"split_conditions":[4.055E2,3.15E1,1.77E2,4.65E1,7.75E1,8.75E-1,5E-1,1.9494588E-2,-1.0979907E-1,-0E0,3.6296964E-1,-3.1163624E-1,-0E0,-0E0,1.8925776E-1],"split_indices":[27,12,24,11,13,1,15,0,0,0,0,0,0,0,0],"split_type":[0,0,0,0,0,0,0,0,0,0,0,0,0,0,0],"sum_hessian":[3.6497253E3,3.3896033E3,2.6012192E2,3.1786685E3,2.1093495E2,2.4988593E2,1.0236E1,2.3674792E3,8.11189E2,2.1831297E1,1.8910365E2,2.4244344E2,7.442479E0,7.810618E0,2.4253826E0],"tree_param":{"num_deleted":"0","num_feature":"54","num_nodes":"15","size_leaf_vector":"0"}},{"base_weights":[-0E0,1.7003573E-2,-2.239135E-1,9.2752784E-2,-5.2605245E-2,-3.105892E-1,-0E0,1.375616E-1,-6.659482E-2,-1.2759416E-1,1.0329072E-2,-4.176218E-1,-0E0],"categories":[],"categories_nodes":[],"categories_segments":[],"categories_sizes":[],"default_left":[1,1,1,1,1,1,0,0,0,0,0,0,0],"id":48,"left_children":[1,3,5,7,9,11,-1,-1,-1,-1,-1,-1,-1],"loss_changes":[1.10575075E1,1.280595E1,5.4025917E0,9.253428E0,6.6357813E0,7.5308847E0,0E0,0E0,0E0,0E0,0E0,0E0,0E0],"parents":[2147483647,0,0,1,1,2,2,3,3,4,4,5,5],"right_children":[2,4,6,8,10,12,-1,-1,-1,-1,-1,-1,-1],"split_conditions":[6.1300004E-1,9.5E0,1.95E1,5E-1,5.715E2,1.595E2,-0E0,1.375616E-1,-6.659482E-2,-1.2759416E-1,1.0329072E-2,-4.176218E-1,-0E0],"split_indices":[33,12,17,16,27,11,0,0,0,0,0,0,0],"split_type":[0,0,0,0,0,0,0,0,0,0,0,0,0],"sum_hessian":[2.556593E3,2.3506091E3,2.0598392E2,1.1942922E3,1.1563168E3,1.6258359E2,4.3400322E1,9.8125446E2,2.1303781E2,5.996622E2,5.5665454E2,1.3265839E2,2.9925207E1],"tree_param":{"num_deleted":"0","num_feature":"54","num_nodes":"13","size_leaf_vector":"0"}},{"base_weights":[1.2124039E-3,1.0207523E-2,-4.62906E-2,2.1505023E-3,6.196778E-2,-0E0,-1.3078266E-1,9.109377E-3,-5.923283E-2,7.3806286E-2,-0E0,-7.020625E-2,2.8117191E-2,-2.6685488E-1,-0E0],"categories":[],"categories_nodes":[],"categories_segments":[],"categories_sizes":[],"default_left":[1,1,1,1,1,1,1,0,0,0,0,0,0,0,0],"id":49,"left_children":[1,3,5,7,9,11,13,-1,-1,-1,-1,-1,-1,-1,-1],"loss_changes":[3.4116879E0,2.5281694E0,5.0649214E0,2.3803225E0,1.2680695E0,1.4574269E0,1.0484982E1,0E0,0E0,0E0,0E0,0E0,0E0,0E0,0E0],"parents":[2147483647,0,0,1,1,2,2,3,3,4,4,5,5,6,6],"right_children":[2,4,6,8,10,12,14,-1,-1,-1,-1,-1,-1,-1,-1],"split_conditions":[4.635E2,1.895E2,5E-1,1.5E0,1.785E2,8.5E0,6.215E2,9.109377E-3,-5.923283E-2,7.3806286E-2,-0E0,-7.020625E-2,2.8117191E-2,-2.6685488E-1,-0E0],"split_indices":[13,30,24,16,11,27,27,0,0,0,0,0,0,0,0],"split_type":[0,0,0,0,0,0,0,0,0,0,0,0,0,0,0],"sum_hessian":[8.8267295E3,7.599075E3,1.2276547E3,6.743603E3,8.5547174E2,7.7860443E2,4.4905026E2,6.2040303E3,5.3957306E2,8.355371E2,1.9934622E1,2.0205225E2,5.765522E2,2.5433348E2,1.947168E2],"tree_param":{"num_deleted":"0","num_feature":"54","num_nodes":"15","size_leaf_vector":"0"}},{"base_weights":[-0E0,-8.10491E-3,7.03213E-2,1.2448787E-2,-1.9112937E-2,9.505767E-2,-1.1930777E-2,6.1710615E-2,-0E0,-1.13179564E-1,-8.265672E-3,1.1285995E-1,-0E0,-0E0,-2.2958653E-1],"categories":[],"categories_nodes":[],"categories_segments":[],"categories_sizes":[],"default_left":[1,1,1,1,1,1,1,0,0,0,0,0,0,0,0],"id":50,"left_children":[1,3,5,7,9,11,13,-1,-1,-1,-1,-1,-1,-1,-1],"loss_changes":[4.555977E0,1.4993054E0,2.5358143E0,1.5262375E0,3.315164E0,1.8765979E0,1.9314463E0,0E0,0E0,0E0,0E0,0E0,0E0,0E0,0E0],"parents":[2147483647,0,0,1,1,2,2,3,3,4,4,5,5,6,6],"right_children":[2,4,6,8,10,12,14,-1,-1,-1,-1,-1,-1,-1,-1],"split_conditions":[2.65E1,1.8494E4,5E-1,4.95E1,1.5E0,1.6255E3,8.47E2,6.1710615E-2,-0E0,-1.13179564E-1,-8.265672E-3,1.1285995E-1,-0E0,-0E0,-2.2958653E-1],"split_indices":[12,29,15,13,27,27,27,0,0,0,0,0,0,0,0],"split_type":[0,0,0,0,0,0,0,0,0,0,0,0,0,0,0],"sum_hessian":[7.1662207E3,6.3300063E3,8.362143E2,1.8908802E3,4.439126E3,7.362249E2,9.9989365E1,4.767655E2,1.4141147E3,3.6267877E2,4.0764473E3,6.693215E2,6.690343E1,6.4073746E1,3.5915623E1],"tree_param":{"num_deleted":"0","num_feature":"54","num_nodes":"15","size_leaf_vector":"0"}},{"base_weights":[-3.3130026E-3,2.1968265E-3,-2.9152825E-1,-4.1555177E-2,6.4192325E-2,-3.293095E-1,-0E0,-1.4254689E-1,3.8258682E-3,1.04336716E-1,-9.109193E-2,-3.3873916E-1,-0E0],"categories":[],"categories_nodes":[],"categories_segments":[],"categories_sizes":[],"default_left":[1,1,1,1,1,1,0,0,0,0,0,0,0],"id":51,"left_children":[1,3,5,7,9,11,-1,-1,-1,-1,-1,-1,-1],"loss_changes":[8.599788E0,9.702469E0,8.3109665E-1,1.0341385E1,9.7419195E0,4.3335152E-1,0E0,0E0,0E0,0E0,0E0,0E0,0E0],"parents":[2147483647,0,0,1,1,2,2,3,3,4,4,5,5],"right_children":[2,4,6,8,10,12,-1,-1,-1,-1,-1,-1,-1],"split_conditions":[1.25E1,1.15E1,8.55E1,5E-1,1.735E2,5E-1,-0E0,-1.4254689E-1,3.8258682E-3,1.04336716E-1,-9.109193E-2,-3.3873916E-1,-0E0],"split_indices":[17,24,11,26,27,42,0,0,0,0,0,0,0],"split_type":[0,0,0,0,0,0,0,0,0,0,0,0,0],"sum_hessian":[3.5920552E3,3.4916023E3,1.0045309E2,1.952614E3,1.5389882E3,8.617313E1,1.42799635E1,6.730385E2,1.2795756E3,1.2742839E3,2.6470425E2,8.516397E1,1.009156E0],"tree_param":{"num_deleted":"0","num_feature":"54","num_nodes":"13","size_leaf_vector":"0"}},{"base_weights":[-0E0,-2.5835859E-2,1.1350703E-1,-1.5245833E-1,5.165831E-3,1.5321144E-1,-7.361855E-2,-2.1209922E-1,7.733956E-2,4.840234E-2,-7.283645E-2,1.895491E-1,-5.6336932E-2,-2.0642461E-1,-0E0],"categories":[],"categories_nodes":[],"categories_segments":[],"categories_sizes":[],"default_left":[1,1,1,1,1,1,1,0,0,0,0,0,0,0,0],"id":52,"left_children":[1,3,5,7,9,11,13,-1,-1,-1,-1,-1,-1,-1,-1],"loss_changes":[7.6262245E0,9.5081625E0,4.417184E0,7.751071E0,5.0935407E0,4.733115E0,8.786539E-1,0E0,0E0,0E0,0E0,0E0,0E0,0E0,0E0],"parents":[2147483647,0,0,1,1,2,2,3,3,4,4,5,5,6,6],"right_children":[2,4,6,8,10,12,14,-1,-1,-1,-1,-1,-1,-1,-1],"split_conditions":[1.285E2,3.45E1,3.5E0,2.75E1,5E-1,1.295E2,4.5E0,-2.1209922E-1,7.733956E-2,4.840234E-2,-7.283645E-2,1.895491E-1,-5.6336932E-2,-2.0642461E-1,-0E0],"split_indices":[11,27,28,17,14,12,17,0,0,0,0,0,0,0,0],"split_type":[0,0,0,0,0,0,0,0,0,0,0,0,0,0,0],"sum_hessian":[2.5306113E3,2.0457275E3,4.8488367E2,4.6502744E2,1.5807002E3,4.4424484E2,4.063882E1,4.0381604E2,6.121142E1,1.0997125E3,4.8098758E2,4.193438E2,2.490104E1,2.4916325E1,1.5722499E1],"tree_param":{"num_deleted":"0","num_feature":"54","num_nodes":"15","size_leaf_vector":"0"}},{"base_weights":[1.1313591E-3,-7.174581E-3,3.3384405E-2,6.027632E-3,-3.738566E-2,5.5038005E-2,-1.3484032E-2,1.3935721E-2,-6.9824114E-2,-1.0326093E-2,-1.5178883E-1,6.533324E-2,-0E0,-1.0377623E-1,4.2288855E-2],"categories":[],"categories_nodes":[],"categories_segments":[],"categories_sizes":[],"default_left":[1,1,1,1,1,1,1,0,0,0,0,0,0,0,0],"id":53,"left_children":[1,3,5,7,9,11,13,-1,-1,-1,-1,-1,-1,-1,-1],"loss_changes":[2.6165776E0,3.0031211E0,2.4931145E0,2.1189885E0,5.4384217E0,1.4474998E0,3.144979E0,0E0,0E0,0E0,0E0,0E0,0E0,0E0,0E0],"parents":[2147483647,0,0,1,1,2,2,3,3,4,4,5,5,6,6],"right_children":[2,4,6,8,10,12,14,-1,-1,-1,-1,-1,-1,-1,-1],"split_conditions":[1.5E0,5E-1,1.855E2,1.085E2,1.35E1,9.5E0,1.15E1,1.3935721E-2,-6.9824114E-2,-1.0326093E-2,-1.5178883E-1,6.533324E-2,-0E0,-1.0377623E-1,4.2288855E-2],"split_indices":[10,26,27,11,12,10,24,0,0,0,0,0,0,0,0],"split_type":[0,0,0,0,0,0,0,0,0,0,0,0,0,0,0],"sum_hessian":[8.787023E3,6.7416216E3,2.0454014E3,4.4616714E3,2.2799502E3,1.5448547E3,5.005465E2,4.160556E3,3.0111542E2,1.9154037E3,3.6454642E2,1.4351656E3,1.09689125E2,2.592606E2,2.4128593E2],"tree_param":{"num_deleted":"0","num_feature":"54","num_nodes":"15","size_leaf_vector":"0"}},{"base_weights":[5.4782096E-5,7.0908633E-3,-3.5830222E-2,-7.290056E-3,3.947253E-2,-6.029215E-2,-0E0,-2.0293504E-2,8.9745626E-2,8.3295725E-2,-0E0,-8.024562E-2,-0E0,2.5952455E-1,-4.1837055E-2],"categories":[],"categories_nodes":[],"categories_segments":[],"categories_sizes":[],"default_left":[1,1,1,1,1,1,1,0,0,0,0,0,0,0,0],"id":54,"left_children":[1,3,5,7,9,11,13,-1,-1,-1,-1,-1,-1,-1,-1],"loss_changes":[1.5238599E0,3.2235582E0,1.4237869E0,4.4825487E0,3.0160043E0,1.2124057E0,4.5482836E0,0E0,0E0,0E0,0E0,0E0,0E0,0E0,0E0],"parents":[2147483647,0,0,1,1,2,2,3,3,4,4,5,5,6,6],"right_children":[2,4,6,8,10,12,14,-1,-1,-1,-1,-1,-1,-1,-1],"split_conditions":[7.15E1,1.05E1,1.615E2,3.5E0,7.35E1,5.75E1,5E-1,-2.0293504E-2,8.9745626E-2,8.3295725E-2,-0E0,-8.024562E-2,-0E0,2.5952455E-1,-4.1837055E-2],"split_indices":[11,14,27,28,30,14,14,0,0,0,0,0,0,0,0],"split_type":[0,0,0,0,0,0,0,0,0,0,0,0,0,0,0],"sum_hessian":[7.1715645E3,6.229582E3,9.4198254E2,4.1004863E3,2.1290957E3,7.237011E2,2.1828142E2,3.7075012E3,3.9298492E2,9.1204456E2,1.217051E3,5.963883E2,1.2731283E2,6.2453472E1,1.5582794E2],"tree_param":{"num_deleted":"0","num_feature":"54","num_nodes":"15","size_leaf_vector":"0"}},{"base_weights":[-6.375073E-3,-1.7864022E-2,4.3062696E-1,-3.7090934E-3,-3.0415973E-1,5.0258267E-1,-0E0,6.1341976E-3,-1.7527099E-1,-3.563832E-1,-0E0,5.3257626E-1,-0E0],"categories":[],"categories_nodes":[],"categories_segments":[],"categories_sizes":[],"default_left":[1,1,1,1,1,1,0,0,0,0,0,0,0],"id":55,"left_children":[1,3,5,7,9,11,-1,-1,-1,-1,-1,-1,-1],"loss_changes":[1.3684696E1,1.10174465E1,3.726513E0,7.3481297E0,3.8381157E0,1.4517975E0,0E0,0E0,0E0,0E0,0E0,0E0,0E0],"parents":[2147483647,0,0,1,1,2,2,3,3,4,4,5,5],"right_children":[2,4,6,8,10,12,-1,-1,-1,-1,-1,-1,-1],"split_conditions":[8.5E0,1.015E2,1.55E2,7.5E0,2.2E1,1.85E1,-0E0,6.1341976E-3,-1.7527099E-1,-3.563832E-1,-0E0,5.3257626E-1,-0E0],"split_indices":[28,11,11,17,16,26,0,0,0,0,0,0,0],"split_type":[0,0,0,0,0,0,0,0,0,0,0,0,0],"sum_hessian":[3.5452488E3,3.477662E3,6.7586754E1,3.3480698E3,1.295922E2,6.4106514E1,3.480235E0,3.1121858E3,2.358841E2,1.2434237E2,5.249817E0,6.209818E1,2.0083377E0],"tree_param":{"num_deleted":"0","num_feature":"54","num_nodes":"13","size_leaf_vector":"0"}},{"base_weights":[-4.0810124E-4,-1.9868322E-1,9.4194105E-3,-2.1651347E-1,-0E0,-3.185939E-2,7.7776894E-2,-2.3599379E-1,-0E0,1.6403245E-2,-1.6700464E-1,-0E0,1.0765097E-1],"categories":[],"categories_nodes":[],"categories_segments":[],"categories_sizes":[],"default_left":[1,1,1,1,0,1,1,0,0,0,0,0,0],"id":56,"left_children":[1,3,5,7,-1,9,11,-1,-1,-1,-1,-1,-1],"loss_changes":[6.6864915E0,1.1472535E0,6.940364E0,1.16471E0,0E0,1.02557125E1,2.6933026E0,0E0,0E0,0E0,0E0,0E0,0E0],"parents":[2147483647,0,0,1,1,2,2,3,3,5,5,6,6],"right_children":[2,4,6,8,-1,10,12,-1,-1,-1,-1,-1,-1],"split_conditions":[2.75E1,2.128E3,7.5E0,5.95E4,-0E0,5E-1,1.86185E4,-2.3599379E-1,-0E0,1.6403245E-2,-1.6700464E-1,-0E0,1.0765097E-1],"split_indices":[11,27,17,29,0,14,29,0,0,0,0,0,0],"split_type":[0,0,0,0,0,0,0,0,0,0,0,0,0],"sum_hessian":[2.4582542E3,1.6323515E2,2.2950188E3,1.61772E2,1.4631572E0,1.340051E3,9.549679E2,1.5692178E2,4.8502164E0,9.3354913E2,4.065019E2,2.2455162E2,7.3041626E2],"tree_param":{"num_deleted":"0","num_feature":"54","num_nodes":"13","size_leaf_vector":"0"}},{"base_weights":[-1.2196506E-3,-9.187682E-3,3.977854E-2,-1.4163437E-3,-1.4128385E-1,6.0231548E-2,-7.187669E-2,1.4838177E-3,-1.2790225E-1,-1.879795E-1,-0E0,-0E0,1.0121755E-1,-1.2843496E-1,-0E0],"categories":[],"categories_nodes":[],"categories_segments":[],"categories_sizes":[],"default_left":[1,1,1,1,1,1,1,0,0,0,0,0,0,0,0],"id":57,"left_children":[1,3,5,7,9,11,13,-1,-1,-1,-1,-1,-1,-1,-1],"loss_changes":[2.5261326E0,6.233719E0,2.6431317E0,3.8764005E0,3.4922051E0,1.9305804E0,6.5320736E-1,0E0,0E0,0E0,0E0,0E0,0E0,0E0,0E0],"parents":[2147483647,0,0,1,1,2,2,3,3,4,4,5,5,6,6],"right_children":[2,4,6,8,10,12,14,-1,-1,-1,-1,-1,-1,-1,-1],"split_conditions":[9.15E1,3.5E0,1.55E1,8.55E1,1.25E1,5E-1,7.55E-2,1.4838177E-3,-1.2790225E-1,-1.879795E-1,-0E0,-0E0,1.0121755E-1,-1.2843496E-1,-0E0],"split_indices":[11,28,17,11,17,14,1,0,0,0,0,0,0,0,0],"split_type":[0,0,0,0,0,0,0,0,0,0,0,0,0,0,0],"sum_hessian":[8.667177E3,7.461682E3,1.2054946E3,7.119546E3,3.4213623E2,1.0949447E3,1.1055E2,6.8836406E3,2.3590506E2,2.91662E2,5.0474213E1,5.1942004E2,5.7552466E2,7.353554E1,3.7014465E1],"tree_param":{"num_deleted":"0","num_feature":"54","num_nodes":"15","size_leaf_vector":"0"}},{"base_weights":[2.3250699E-3,7.895674E-3,-3.26598E-2,-2.5253796E-3,2.7108636E-2,-7.036647E-2,3.0730635E-2,-1.32463705E-2,5.7258036E-2,3.917698E-2,-1.2936874E-2,-1.0541581E-1,-0E0,5.299274E-1,-1.0816323E-1],"categories":[],"categories_nodes":[],"categories_segments":[],"categories_sizes":[],"default_left":[1,1,1,1,1,1,1,0,0,0,0,0,0,0,0],"id":58,"left_children":[1,3,5,7,9,11,13,-1,-1,-1,-1,-1,-1,-1,-1],"loss_changes":[1.1438098E0,1.5283706E0,2.1532977E0,2.006653E0,1.5146217E0,2.2222102E0,1.6450087E1,0E0,0E0,0E0,0E0,0E0,0E0,0E0,0E0],"parents":[2147483647,0,0,1,1,2,2,3,3,4,4,5,5,6,6],"right_children":[2,4,6,8,10,12,14,-1,-1,-1,-1,-1,-1,-1,-1],"split_conditions":[7.5E0,4.5E0,1.145E2,5E-1,4.525E2,3.5E0,5E-1,-1.32463705E-2,5.7258036E-2,3.917698E-2,-1.2936874E-2,-1.0541581E-1,-0E0,5.299274E-1,-1.0816323E-1],"split_indices":[17,14,27,40,27,28,14,0,0,0,0,0,0,0,0],"split_type":[0,0,0,0,0,0,0,0,0,0,0,0,0,0,0],"sum_hessian":[7.1374663E3,6.4043247E3,7.331418E2,3.8153027E3,2.5890222E3,5.585441E2,1.7459761E2,3.377638E3,4.376647E2,2.1813696E3,4.076524E2,4.4829248E2,1.10251656E2,5.3063786E1,1.2153383E2],"tree_param":{"num_deleted":"0","num_feature":"54","num_nodes":"15","size_leaf_vector":"0"}},{"base_weights":[-0E0,-6.8469304E-3,2.4831825E-1,-1.7091457E-2,3.0297637E-1,3.5687044E-1,-0E0,1.0563072E-2,-1.22137085E-1,-0E0,1.0494148E0,3.8584462E-1,-0E0],"categories":[],"categories_nodes":[],"categories_segments":[],"categories_sizes":[],"default_left":[1,1,1,1,1,1,0,0,0,0,0,0,0],"id":59,"left_children":[1,3,5,7,9,11,-1,-1,-1,-1,-1,-1,-1],"loss_changes":[7.1413865E0,7.874395E0,4.225045E0,1.0715094E1,2.419242E1,1.530757E0,0E0,0E0,0E0,0E0,0E0,0E0,0E0],"parents":[2147483647,0,0,1,1,2,2,3,3,4,4,5,5],"right_children":[2,4,6,8,10,12,-1,-1,-1,-1,-1,-1,-1],"split_conditions":[6.5E0,1.755E2,1.015E2,5E-1,5E-1,1.85E1,-0E0,1.0563072E-2,-1.22137085E-1,-0E0,1.0494148E0,3.8584462E-1,-0E0],"split_indices":[28,14,11,15,15,26,0,0,0,0,0,0,0],"split_type":[0,0,0,0,0,0,0,0,0,0,0,0,0],"sum_hessian":[3.4912354E3,3.37899E3,1.1224538E2,3.3029956E3,7.599459E1,8.700475E1,2.5240625E1,2.54001E3,7.629856E2,4.860911E1,2.7385479E1,8.456602E1,2.438731E0],"tree_param":{"num_deleted":"0","num_feature":"54","num_nodes":"13","size_leaf_vector":"0"}},{"base_weights":[-0E0,1.3736955E-2,-1.9236498E-1,-1.607541E-2,1.04867846E-1,-2.7619424E-1,-0E0,-4.344572E-2,1.159541E-1,1.5097295E-1,-0E0,-2.8769547E-1,-0E0],"categories":[],"categories_nodes":[],"categories_segments":[],"categories_sizes":[],"default_left":[1,1,1,1,1,1,0,0,0,0,0,0,0],"id":60,"left_children":[1,3,5,7,9,11,-1,-1,-1,-1,-1,-1,-1],"loss_changes":[6.429222E0,7.012559E0,4.0165977E0,5.120973E0,4.412685E0,5.685892E-1,0E0,0E0,0E0,0E0,0E0,0E0,0E0],"parents":[2147483647,0,0,1,1,2,2,3,3,4,4,5,5],"right_children":[2,4,6,8,10,12,-1,-1,-1,-1,-1,-1,-1],"split_conditions":[2.5E0,9.9E-2,2.75E1,5E-1,4.25E-2,7.65E4,-0E0,-4.344572E-2,1.159541E-1,1.5097295E-1,-0E0,-2.8769547E-1,-0E0],"split_indices":[28,0,17,15,33,29,0,0,0,0,0,0,0],"split_type":[0,0,0,0,0,0,0,0,0,0,0,0,0],"sum_hessian":[2.413963E3,2.2527131E3,1.6124982E2,1.6153593E3,6.373538E2,1.3035956E2,3.0890253E1,1.4012793E3,2.1407991E2,5.005977E2,1.3675616E2,1.2693638E2,3.4231856E0],"tree_param":{"num_deleted":"0","num_feature":"54","num_nodes":"13","size_leaf_vector":"0"}},{"base_weights":[-0E0,1.4714229E-2,-1.883601E-2,-5.8954325E-2,2.8737918E-2,9.9407565E-3,-1.2573218E-1,-8.304303E-2,1.2495728E-1,4.5599643E-2,-5.1064424E-2,-3.7429895E-2,6.313773E-2,-1.6570419E-1,1.07635744E-1],"categories":[],"categories_nodes":[],"categories_segments":[],"categories_sizes":[],"default_left":[1,1,1,1,1,1,1,0,0,0,0,0,0,0,0],"id":61,"left_children":[1,3,5,7,9,11,13,-1,-1,-1,-1,-1,-1,-1,-1],"loss_changes":[2.3845742E0,4.698501E0,1.2750594E1,2.5156386E0,5.5718737E0,7.5577E0,8.742288E0,0E0,0E0,0E0,0E0,0E0,0E0,0E0,0E0],"parents":[2147483647,0,0,1,1,2,2,3,3,4,4,5,5,6,6],"right_children":[2,4,6,8,10,12,14,-1,-1,-1,-1,-1,-1,-1,-1],"split_conditions":[5E-1,7.5E0,1.5E0,1.815E2,4.925E2,4.65E1,1.295E2,-8.304303E-2,1.2495728E-1,4.5599643E-2,-5.1064424E-2,-3.7429895E-2,6.313773E-2,-1.6570419E-1,1.07635744E-1],"split_indices":[14,11,28,27,27,11,11,0,0,0,0,0,0,0,0],"split_type":[0,0,0,0,0,0,0,0,0,0,0,0,0,0,0],"sum_hessian":[8.604975E3,4.8377837E3,3.7671907E3,6.591078E2,4.178676E3,2.8951626E3,8.720281E2,6.313377E2,2.7770067E1,3.5535679E3,6.25108E2,1.4321672E3,1.4629954E3,7.813386E2,9.0689476E1],"tree_param":{"num_deleted":"0","num_feature":"54","num_nodes":"15","size_leaf_vector":"0"}},{"base_weights":[-0E0,-1.1173883E-2,1.8392375E-2,-1.7765552E-2,8.848494E-2,-2.852709E-3,4.3080263E-2,9.601609E-3,-4.257483E-2,1.790135E-1,-0E0,-4.7678202E-2,1.5510915E-1,7.2342396E-2,-5.7382364E-2],"categories":[],"categories_nodes":[],"categories_segments":[],"categories_sizes":[],"default_left":[1,1,1,1,1,1,1,0,0,0,0,0,0,0,0],"id":62,"left_children":[1,3,5,7,9,11,13,-1,-1,-1,-1,-1,-1,-1,-1],"loss_changes":[1.4332783E0,2.3254848E0,1.7314372E0,3.3330617E0,1.2280409E0,7.0416327E0,4.2393427E0,0E0,0E0,0E0,0E0,0E0,0E0,0E0,0E0],"parents":[2147483647,0,0,1,1,2,2,3,3,4,4,5,5,6,6],"right_children":[2,4,6,8,10,12,14,-1,-1,-1,-1,-1,-1,-1,-1],"split_conditions":[8.9E-2,1.15E1,1.85E1,2.25E1,5E-1,9.75E1,8.65E1,9.601609E-3,-4.257483E-2,1.790135E-1,-0E0,-4.7678202E-2,1.5510915E-1,7.2342396E-2,-5.7382364E-2],"split_indices":[33,8,11,11,53,27,27,0,0,0,0,0,0,0,0],"split_type":[0,0,0,0,0,0,0,0,0,0,0,0,0,0,0],"sum_hessian":[7.1460674E3,4.613134E3,2.5329333E3,4.421828E3,1.9130595E2,1.1441588E3,1.3887745E3,1.9111609E3,2.5106672E3,8.430645E1,1.069995E2,9.411027E2,2.0305605E2,1.1528104E3,2.3596411E2],"tree_param":{"num_deleted":"0","num_feature":"54","num_nodes":"15","size_leaf_vector":"0"}},{"base_weights":[-0E0,-6.2105663E-2,4.5753773E-2,1.9211711E-2,-1.5299714E-1,2.7884084E-3,1.6247925E-1,5.470369E-2,-2.7936143E-1,-1.7733338E-1,-0E0,6.1332043E-2,-5.0169136E-2,2.5870055E-1,-0E0],"categories":[],"categories_nodes":[],"categories_segments":[],"categories_sizes":[],"default_left":[1,1,1,1,1,1,1,0,0,0,0,0,0,0,0],"id":63,"left_children":[1,3,5,7,9,11,13,-1,-1,-1,-1,-1,-1,-1,-1],"loss_changes":[9.738331E0,1.1834095E1,8.557947E0,5.103383E0,4.4281883E0,4.9260373E0,5.1181927E0,0E0,0E0,0E0,0E0,0E0,0E0,0E0,0E0],"parents":[2147483647,0,0,1,1,2,2,3,3,4,4,5,5,6,6],"right_children":[2,4,6,8,10,12,14,-1,-1,-1,-1,-1,-1,-1,-1],"split_conditions":[5E-1,5E-1,2.5E0,8.75E1,6.5E0,1.5E0,5E-1,5.470369E-2,-2.7936143E-1,-1.7733338E-1,-0E0,6.1332043E-2,-5.0169136E-2,2.5870055E-1,-0E0],"split_indices":[14,8,28,27,28,8,15,0,0,0,0,0,0,0,0],"split_type":[0,0,0,0,0,0,0,0,0,0,0,0,0,0,0],"sum_hessian":[3.4537747E3,1.4187297E3,2.0350449E3,6.9114984E2,7.275799E2,1.5508785E3,4.8416635E2,6.483845E2,4.276533E1,6.8214264E2,4.5437267E1,8.262006E2,7.2467786E2,2.668534E2,2.1731297E2],"tree_param":{"num_deleted":"0","num_feature":"54","num_nodes":"15","size_leaf_vector":"0"}},{"base_weights":[2.4221232E-3,-2.2580678E-2,8.652311E-2,-0E0,-1.9672728E-1,1.12672575E-1,-3.4541894E-2,1.9779764E-2,-1.4868149E-1,-3.3391172E-1,-0E0,1.5008594E-1,-0E0,-5.1004965E-2,-0E0],"categories":[],"categories_nodes":[],"categories_segments":[],"categories_sizes":[],"default_left":[1,1,1,1,1,1,1,0,0,0,0,0,0,0,0],"id":64,"left_children":[1,3,5,7,9,11,13,-1,-1,-1,-1,-1,-1,-1,-1],"loss_changes":[5.68458E0,6.0392637E0,2.8160071E0,5.220844E0,4.5286293E0,3.4840379E0,6.3263476E-2,0E0,0E0,0E0,0E0,0E0,0E0,0E0,0E0],"parents":[2147483647,0,0,1,1,2,2,3,3,4,4,5,5,6,6],"right_children":[2,4,6,8,10,12,14,-1,-1,-1,-1,-1,-1,-1,-1],"split_conditions":[1.085E2,1.5E0,8.05E1,9.45E1,1.65E1,1.5E0,6E0,1.9779764E-2,-1.4868149E-1,-3.3391172E-1,-0E0,1.5008594E-1,-0E0,-5.1004965E-2,-0E0],"split_indices":[11,28,12,11,17,16,21,0,0,0,0,0,0,0,0],"split_type":[0,0,0,0,0,0,0,0,0,0,0,0,0,0,0],"sum_hessian":[2.397372E3,1.7568856E3,6.4048645E2,1.5786791E3,1.7820663E2,5.94703E2,4.5783447E1,1.3677319E3,2.1094708E2,1.0182082E2,7.638582E1,4.893958E2,1.053072E2,4.4774555E1,1.0088919E0],"tree_param":{"num_deleted":"0","num_feature":"54","num_nodes":"15","size_leaf_vector":"0"}},{"base_weights":[-0E0,-8.652017E-3,3.441313E-2,2.0439876E-3,-3.7822E-2,-1.3937476E-1,1.0825305E-1,1.01131E-2,-8.503524E-2,-7.958129E-2,6.87711E-2,-4.7264103E-2,-5.0520873E-1,2.2751838E-1,-1.2425389E-2],"categories":[],"categories_nodes":[],"categories_segments":[],"categories_sizes":[],"default_left":[1,1,1,1,1,1,1,0,0,0,0,0,0,0,0],"id":65,"left_children":[1,3,5,7,9,11,13,-1,-1,-1,-1,-1,-1,-1,-1],"loss_changes":[2.306211E0,2.5409E0,1.901813E1,2.6733658E0,9.586495E0,8.228849E0,1.7946152E1,0E0,0E0,0E0,0E0,0E0,0E0,0E0,0E0],"parents":[2147483647,0,0,1,1,2,2,3,3,4,4,5,5,6,6],"right_children":[2,4,6,8,10,12,14,-1,-1,-1,-1,-1,-1,-1,-1],"split_conditions":[5E-1,1.5E0,2.35E1,1.095E2,7.95E1,5E-1,6.25E1,1.01131E-2,-8.503524E-2,-7.958129E-2,6.87711E-2,-4.7264103E-2,-5.0520873E-1,2.2751838E-1,-1.2425389E-2],"split_indices":[15,24,11,11,11,16,11,0,0,0,0,0,0,0,0],"split_type":[0,0,0,0,0,0,0,0,0,0,0,0,0,0,0],"sum_hessian":[8.499986E3,6.9958794E3,1.5041067E3,4.868732E3,2.1271475E3,4.0786038E2,1.0962462E3,4.5617446E3,3.069878E2,1.5959719E3,5.311755E2,3.485624E2,5.929798E1,5.9258234E2,5.036639E2],"tree_param":{"num_deleted":"0","num_feature":"54","num_nodes":"15","size_leaf_vector":"0"}},{"base_weights":[-0E0,9.721773E-3,-3.6592957E-2,-3.9924043E-3,4.606955E-2,8.058698E-3,-1.04696274E-1,4.4834474E-3,-2.36678E-2,6.263654E-2,-5.1351685E-2,3.9550364E-2,-9.907866E-2,-1.7205147E-1,-0E0],"categories":[],"categories_nodes":[],"categories_segments":[],"categories_sizes":[],"default_left":[1,1,1,1,1,1,1,0,0,0,0,0,0,0,0],"id":66,"left_children":[1,3,5,7,9,11,13,-1,-1,-1,-1,-1,-1,-1,-1],"loss_changes":[2.381916E0,3.274526E0,5.1477823E0,8.5192627E-1,2.9696355E0,1.9140893E0,4.41389E0,0E0,0E0,0E0,0E0,0E0,0E0,0E0,0E0],"parents":[2147483647,0,0,1,1,2,2,3,3,4,4,5,5,6,6],"right_children":[2,4,6,8,10,12,14,-1,-1,-1,-1,-1,-1,-1,-1],"split_conditions":[5E-1,2.5E0,3.55E1,3.85E1,5E-1,2.5E0,1.5E0,4.4834474E-3,-2.36678E-2,6.263654E-2,-5.1351685E-2,3.9550364E-2,-9.907866E-2,-1.7205147E-1,-0E0],"split_indices":[15,24,11,27,40,28,28,0,0,0,0,0,0,0,0],"split_type":[0,0,0,0,0,0,0,0,0,0,0,0,0,0,0],"sum_hessian":[7.097311E3,5.723545E3,1.3737664E3,3.9565073E3,1.7670374E3,7.415911E2,6.321752E2,2.4105872E3,1.5459202E3,1.5982506E3,1.6878677E2,6.4575006E2,9.5841064E1,3.825697E2,2.4960547E2],"tree_param":{"num_deleted":"0","num_feature":"54","num_nodes":"15","size_leaf_vector":"0"}},{"base_weights":[-7.0681435E-4,1.6965441E-2,-9.029593E-2,4.6982776E-2,-5.8877137E-2,-0E0,-1.5164638E-1,1.2261818E-2,1.2531438E-1,-1.4188573E-1,-0E0,3.2232188E-2,-0E0,-1.7263554E-1,-0E0],"categories":[],"categories_nodes":[],"categories_segments":[],"categories_sizes":[],"default_left":[1,1,1,1,1,1,1,0,0,0,0,0,0,0,0],"id":67,"left_children":[1,3,5,7,9,11,13,-1,-1,-1,-1,-1,-1,-1,-1],"loss_changes":[6.1408167E0,6.166177E0,4.4870086E0,4.258225E0,4.0584106E0,1.7288037E-1,2.422948E0,0E0,0E0,0E0,0E0,0E0,0E0,0E0,0E0],"parents":[2147483647,0,0,1,1,2,2,3,3,4,4,5,5,6,6],"right_children":[2,4,6,8,10,12,14,-1,-1,-1,-1,-1,-1,-1,-1],"split_conditions":[1.5E0,5.25E1,2.95E1,1.25E1,2.95E1,5E-1,8.5E0,1.2261818E-2,1.2531438E-1,-1.4188573E-1,-0E0,3.2232188E-2,-0E0,-1.7263554E-1,-0E0],"split_indices":[10,27,11,12,11,7,28,0,0,0,0,0,0,0,0],"split_type":[0,0,0,0,0,0,0,0,0,0,0,0,0,0,0],"sum_hessian":[3.4135005E3,2.758543E3,6.5495734E2,2.0710754E3,6.8746747E2,2.2827446E2,4.266829E2,1.5242579E3,5.468176E2,3.1914377E2,3.683237E2,1.654049E2,6.2869556E1,4.1030753E2,1.6375364E1],"tree_param":{"num_deleted":"0","num_feature":"54","num_nodes":"15","size_leaf_vector":"0"}},{"base_weights":[-0E0,1.6260685E-2,-1.1322927E-1,-9.294858E-2,4.7811136E-2,-1.429836E-1,-0E0,-2.5735876E-1,-7.6260725E-3,9.655951E-2,-5.271366E-4,-0E0,-1.5977153E-1],"categories":[],"categories_nodes":[],"categories_segments":[],"categories_sizes":[],"default_left":[1,1,1,1,1,1,0,0,0,0,0,0,0],"id":68,"left_children":[1,3,5,7,9,11,-1,-1,-1,-1,-1,-1,-1],"loss_changes":[4.574897E0,6.6291075E0,1.6004133E0,2.8135755E0,4.8838844E0,1.0743623E0,0E0,0E0,0E0,0E0,0E0,0E0,0E0],"parents":[2147483647,0,0,1,1,2,2,3,3,4,4,5,5],"right_children":[2,4,6,8,10,12,-1,-1,-1,-1,-1,-1,-1],"split_conditions":[4.75E1,4.65E1,2.265E2,4.5E0,5E-1,3.05E1,-0E0,-2.5735876E-1,-7.6260725E-3,9.655951E-2,-5.271366E-4,-0E0,-1.5977153E-1],"split_indices":[12,11,30,17,14,30,0,0,0,0,0,0,0],"split_type":[0,0,0,0,0,0,0,0,0,0,0,0,0],"sum_hessian":[2.3661228E3,2.0526438E3,3.1347897E2,3.8860858E2,1.6640352E3,2.74495E2,3.8983963E1,9.20385E1,2.9657007E2,9.3100714E2,7.330281E2,1.2765999E1,2.61729E2],"tree_param":{"num_deleted":"0","num_feature":"54","num_nodes":"13","size_leaf_vector":"0"}},{"base_weights":[-0E0,-9.833314E-3,1.8010793E-2,1.0523838E-2,-3.0682605E-2,-1.9207563E-2,4.0438455E-2,1.13278076E-1,-1.6612936E-2,-9.14848E-2,2.4928206E-3,-0E0,-7.2866075E-2,6.2070467E-2,-0E0],"categories":[],"categories_nodes":[],"categories_segments":[],"categories_sizes":[],"default_left":[1,1,1,1,1,1,1,0,0,0,0,0,0,0,0],"id":69,"left_children":[1,3,5,7,9,11,13,-1,-1,-1,-1,-1,-1,-1,-1],"loss_changes":[1.445666E0,2.5959811E0,2.5296173E0,8.252077E0,7.001218E0,1.2389681E0,2.0481355E0,0E0,0E0,0E0,0E0,0E0,0E0,0E0,0E0],"parents":[2147483647,0,0,1,1,2,2,3,3,4,4,5,5,6,6],"right_children":[2,4,6,8,10,12,14,-1,-1,-1,-1,-1,-1,-1,-1],"split_conditions":[1.855E-1,5E-1,1.25E1,2.85E1,3.25E1,2.6695E4,5.85E1,1.13278076E-1,-1.6612936E-2,-9.14848E-2,2.4928206E-3,-0E0,-7.2866075E-2,6.2070467E-2,-0E0],"split_indices":[0,28,11,11,11,29,11,0,0,0,0,0,0,0,0],"split_type":[0,0,0,0,0,0,0,0,0,0,0,0,0,0,0],"sum_hessian":[8.413861E3,5.6396436E3,2.7742173E3,2.6110698E3,3.028574E3,8.7553925E2,1.8986781E3,6.21828E2,1.9892417E3,1.1749172E3,1.8536567E3,5.822816E2,2.9325757E2,1.3369092E3,5.617689E2],"tree_param":{"num_deleted":"0","num_feature":"54","num_nodes":"15","size_leaf_vector":"0"}},{"base_weights":[-0E0,-9.138165E-3,2.9218491E-2,-1.2416879E-2,1.00215755E-1,6.194864E-2,-0E0,-2.1565918E-2,-0E0,1.881514E-1,-0E0,7.715238E-2,-0E0,-7.180702E-2,2.4229093E-2],"categories":[],"categories_nodes":[],"categories_segments":[],"categories_sizes":[],"default_left":[1,1,1,1,1,1,1,0,0,0,0,0,0,0,0],"id":70,"left_children":[1,3,5,7,9,11,13,-1,-1,-1,-1,-1,-1,-1,-1],"loss_changes":[1.9163132E0,1.0402095E0,2.0360947E0,7.7230996E-1,1.205837E0,1.4071572E0,1.7086889E0,0E0,0E0,0E0,0E0,0E0,0E0,0E0,0E0],"parents":[2147483647,0,0,1,1,2,2,3,3,4,4,5,5,6,6],"right_children":[2,4,6,8,10,12,14,-1,-1,-1,-1,-1,-1,-1,-1],"split_conditions":[1.45E1,7.5E0,5.85E1,1.5E0,3.5E0,1.5E0,5E-1,-2.1565918E-2,-0E0,1.881514E-1,-0E0,7.715238E-2,-0E0,-7.180702E-2,2.4229093E-2],"split_indices":[12,26,27,8,7,26,14,0,0,0,0,0,0,0,0],"split_type":[0,0,0,0,0,0,0,0,0,0,0,0,0,0,0],"sum_hessian":[7.0662456E3,5.345553E3,1.7206924E3,5.2795903E3,6.596311E1,9.125677E2,8.0812463E2,3.4101023E3,1.869488E3,5.205962E1,1.3903496E1,8.243851E2,8.818265E1,2.6887357E2,5.392511E2],"tree_param":{"num_deleted":"0","num_feature":"54","num_nodes":"15","size_leaf_vector":"0"}},{"base_weights":[-0E0,-3.7725028E-2,3.440612E-2,-1.3280186E-1,-3.1187697E-4,6.4224705E-2,-7.610547E-2,-0E0,-2.2272475E-1,7.144037E-2,-4.8401967E-2,7.902422E-2,-1.0499664E-3,-1.4522861E-1,3.22056E-2],"categories":[],"categories_nodes":[],"categories_segments":[],"categories_sizes":[],"default_left":[1,1,1,1,1,1,1,0,0,0,0,0,0,0,0],"id":71,"left_children":[1,3,5,7,9,11,13,-1,-1,-1,-1,-1,-1,-1,-1],"loss_changes":[4.354425E0,4.079912E0,5.980975E0,4.8379226E0,3.803738E0,2.2562737E0,3.5472336E0,0E0,0E0,0E0,0E0,0E0,0E0,0E0,0E0],"parents":[2147483647,0,0,1,1,2,2,3,3,4,4,5,5,6,6],"right_children":[2,4,6,8,10,12,14,-1,-1,-1,-1,-1,-1,-1,-1],"split_conditions":[5E-1,5E-1,3.5E0,9.5E0,2.35E1,6.85E1,5.5E0,-0E0,-2.2272475E-1,7.144037E-2,-4.8401967E-2,7.902422E-2,-1.0499664E-3,-1.4522861E-1,3.22056E-2],"split_indices":[26,14,26,11,14,11,28,0,0,0,0,0,0,0,0],"split_type":[0,0,0,0,0,0,0,0,0,0,0,0,0,0,0],"sum_hessian":[3.368771E3,1.5201984E3,1.8485728E3,3.5308347E2,1.1671149E3,1.5273622E3,3.2121054E2,1.3067125E2,2.2241222E2,3.846997E2,7.8241516E2,1.3697837E3,1.575785E2,2.5222722E2,6.898331E1],"tree_param":{"num_deleted":"0","num_feature":"54","num_nodes":"15","size_leaf_vector":"0"}},{"base_weights":[-3.634612E-3,-1.6738728E-2,3.0329892E-1,-0E0,-1.7249654E-1,3.3040702E-1,-0E0,1.2031731E-2,-9.965909E-2,-2.6724127E-1,-0E0,3.4034857E-1,-0E0],"categories":[],"categories_nodes":[],"categories_segments":[],"categories_sizes":[],"default_left":[1,1,1,1,1,1,0,0,0,0,0,0,0],"id":72,"left_children":[1,3,5,7,9,11,-1,-1,-1,-1,-1,-1,-1],"loss_changes":[6.5614333E0,4.3297596E0,1.3991213E-1,3.3533366E0,2.1910276E0,2.2992611E-1,0E0,0E0,0E0,0E0,0E0,0E0,0E0],"parents":[2147483647,0,0,1,1,2,2,3,3,4,4,5,5],"right_children":[2,4,6,8,10,12,-1,-1,-1,-1,-1,-1,-1],"split_conditions":[2.5245E3,6.15E1,3.95E4,4.25E-2,2.024E3,3.055E2,-0E0,1.2031731E-2,-9.965909E-2,-2.6724127E-1,-0E0,3.4034857E-1,-0E0],"split_indices":[27,12,29,33,27,30,0,0,0,0,0,0,0],"split_type":[0,0,0,0,0,0,0,0,0,0,0,0,0],"sum_hessian":[2.3415515E3,2.2778286E3,6.372302E1,2.111857E3,1.6597173E2,5.481996E1,8.903057E0,1.8014973E3,3.1035953E2,9.924491E1,6.672682E1,5.3591503E1,1.2284594E0],"tree_param":{"num_deleted":"0","num_feature":"54","num_nodes":"13","size_leaf_vector":"0"}},{"base_weights":[-0E0,7.3130545E-3,-2.7134998E-2,-0E0,4.2165257E-2,-5.114071E-2,-0E0,-6.783659E-2,4.4207945E-3,9.387641E-2,-0E0,-0E0,-1.0099736E-1,-4.9251527E-2,6.636391E-2],"categories":[],"categories_nodes":[],"categories_segments":[],"categories_sizes":[],"default_left":[1,1,1,1,1,1,1,0,0,0,0,0,0,0,0],"id":73,"left_children":[1,3,5,7,9,11,13,-1,-1,-1,-1,-1,-1,-1,-1],"loss_changes":[1.5239525E0,1.3749976E0,1.3916404E0,1.2101316E0,1.8804356E0,2.628962E0,2.0937696E0,0E0,0E0,0E0,0E0,0E0,0E0,0E0,0E0],"parents":[2147483647,0,0,1,1,2,2,3,3,4,4,5,5,6,6],"right_children":[2,4,6,8,10,12,14,-1,-1,-1,-1,-1,-1,-1,-1],"split_conditions":[5E-1,4.5E0,5.05E1,2.65E1,5.15E1,5E-1,4.4950002E-1,-6.783659E-2,4.4207945E-3,9.387641E-2,-0E0,-0E0,-1.0099736E-1,-4.9251527E-2,6.636391E-2],"split_indices":[46,9,11,30,13,28,33,0,0,0,0,0,0,0,0],"split_type":[0,0,0,0,0,0,0,0,0,0,0,0,0,0,0],"sum_hessian":[8.351678E3,6.775132E3,1.576546E3,5.798922E3,9.7620996E2,9.752283E2,6.013177E2,2.3834953E2,5.5605723E3,4.0952042E2,5.666896E2,4.6819635E2,5.070319E2,2.8373898E2,3.1757874E2],"tree_param":{"num_deleted":"0","num_feature":"54","num_nodes":"15","size_leaf_vector":"0"}},{"base_weights":[4.8822345E-4,-8.178431E-3,1.993433E-2,-1.5157036E-2,6.70907E-2,-6.8346314E-2,2.97557E-2,-0E0,-4.2257108E-2,-0E0,1.5862899E-1,-1.1883721E-1,-0E0,4.5767017E-2,-0E0],"categories":[],"categories_nodes":[],"categories_segments":[],"categories_sizes":[],"default_left":[1,1,1,1,1,1,1,0,0,0,0,0,0,0,0],"id":74,"left_children":[1,3,5,7,9,11,13,-1,-1,-1,-1,-1,-1,-1,-1],"loss_changes":[1.3049953E0,1.8548615E0,1.8078017E0,1.5427012E0,2.5296068E0,1.0403605E0,1.551156E0,0E0,0E0,0E0,0E0,0E0,0E0,0E0,0E0],"parents":[2147483647,0,0,1,1,2,2,3,3,4,4,5,5,6,6],"right_children":[2,4,6,8,10,12,14,-1,-1,-1,-1,-1,-1,-1,-1],"split_conditions":[8.9E-2,2.435E2,3.05E1,2.77E4,7.35E1,2.5E0,9.05E1,-0E0,-4.2257108E-2,-0E0,1.5862899E-1,-1.1883721E-1,-0E0,4.5767017E-2,-0E0],"split_indices":[33,30,13,29,13,10,13,0,0,0,0,0,0,0,0],"split_type":[0,0,0,0,0,0,0,0,0,0,0,0,0,0,0],"sum_hessian":[7.043766E3,4.516991E3,2.526775E3,4.2560454E3,2.609456E2,1.504339E2,2.376341E3,2.845415E3,1.4106306E3,1.145608E2,1.463848E2,1.227577E2,2.7676193E1,1.7444515E3,6.3188947E2],"tree_param":{"num_deleted":"0","num_feature":"54","num_nodes":"15","size_leaf_vector":"0"}},{"base_weights":[-0E0,-1.9147158E-2,4.492288E-2,-6.956044E-2,-0E0,9.893915E-2,-3.0646345E-2,-1.02979004E-1,5.9513964E-2,7.608659E-2,-4.9325053E-2,1.3429055E-1,-0E0,-1.4608909E-1,1.0923464E-1],"categories":[],"categories_nodes":[],"categories_segments":[],"categories_sizes":[],"default_left":[1,1,1,1,1,1,1,0,0,0,0,0,0,0,0],"id":75,"left_children":[1,3,5,7,9,11,13,-1,-1,-1,-1,-1,-1,-1,-1],"loss_changes":[2.8494916E0,2.6338897E0,4.6817756E0,3.5679483E0,6.3618813E0,3.4018016E0,5.739836E0,0E0,0E0,0E0,0E0,0E0,0E0,0E0,0E0],"parents":[2147483647,0,0,1,1,2,2,3,3,4,4,5,5,6,6],"right_children":[2,4,6,8,10,12,14,-1,-1,-1,-1,-1,-1,-1,-1],"split_conditions":[1.15E1,1.5E0,4.95E1,5.5E0,1.55E1,2.735E2,5.05E1,-1.02979004E-1,5.9513964E-2,7.608659E-2,-4.9325053E-2,1.3429055E-1,-0E0,-1.4608909E-1,1.0923464E-1],"split_indices":[12,28,11,8,11,27,12,0,0,0,0,0,0,0,0],"split_type":[0,0,0,0,0,0,0,0,0,0,0,0,0,0,0],"sum_hessian":[3.3609265E3,2.383032E3,9.778946E2,7.2397595E2,1.659056E3,6.472589E2,3.3063565E2,6.367836E2,8.719232E1,6.9043414E2,9.686219E2,5.395127E2,1.0774623E2,2.2028282E2,1.1035282E2],"tree_param":{"num_deleted":"0","num_feature":"54","num_nodes":"15","size_leaf_vector":"0"}},{"base_weights":[-0E0,2.5627422E-3,-2.830835E-1,-3.6041223E-2,4.1606702E-2,-3.240112E-1,-0E0,-0E0,-1.6291809E-1,1.21840194E-1,-0E0,-0E0,-3.5904205E-1],"categories":[],"categories_nodes":[],"categories_segments":[],"categories_sizes":[],"default_left":[1,1,1,1,1,1,0,0,0,0,0,0,0],"id":76,"left_children":[1,3,5,7,9,11,-1,-1,-1,-1,-1,-1,-1],"loss_changes":[3.1967711E0,3.4959853E0,8.3052874E-1,5.2624073E0,3.3160875E0,5.2834845E-1,0E0,0E0,0E0,0E0,0E0,0E0,0E0],"parents":[2147483647,0,0,1,1,2,2,3,3,4,4,5,5],"right_children":[2,4,6,8,10,12,-1,-1,-1,-1,-1,-1,-1],"split_conditions":[4.5E0,7.55E1,5.05E1,5E-1,9.15E1,5E-1,-0E0,-0E0,-1.6291809E-1,1.21840194E-1,-0E0,-0E0,-3.5904205E-1],"split_indices":[28,11,17,14,11,8,0,0,0,0,0,0,0],"split_type":[0,0,0,0,0,0,0,0,0,0,0,0,0],"sum_hessian":[2.3192288E3,2.2805242E3,3.870471E1,1.0179756E3,1.2625485E3,3.721862E1,1.4860884E0,7.708424E2,2.4713318E2,3.6972592E2,8.928226E2,2.995426E0,3.4223194E1],"tree_param":{"num_deleted":"0","num_feature":"54","num_nodes":"13","size_leaf_vector":"0"}},{"base_weights":[-0E0,5.7146978E-3,-1.7992519E-2,1.7024323E-2,-1.8798394E-2,-4.35347E-2,4.3224238E-2,2.7669802E-2,-2.3496093E-2,-6.002444E-2,1.26445405E-2,-0E0,-9.63435E-2,-8.431449E-3,9.0242274E-2],"categories":[],"categories_nodes":[],"categories_segments":[],"categories_sizes":[],"default_left":[1,1,1,1,1,1,1,0,0,0,0,0,0,0,0],"id":77,"left_children":[1,3,5,7,9,11,13,-1,-1,-1,-1,-1,-1,-1,-1],"loss_changes":[9.5002145E-1,1.6387248E0,3.651274E0,1.9263474E0,2.55808E0,3.6241431E0,2.2075806E0,0E0,0E0,0E0,0E0,0E0,0E0,0E0,0E0],"parents":[2147483647,0,0,1,1,2,2,3,3,4,4,5,5,6,6],"right_children":[2,4,6,8,10,12,14,-1,-1,-1,-1,-1,-1,-1,-1],"split_conditions":[5E-1,8.9E-2,1.335E2,8.15E1,1.5E0,6.25E1,2.265E4,2.7669802E-2,-2.3496093E-2,-6.002444E-2,1.26445405E-2,-0E0,-9.63435E-2,-8.431449E-3,9.0242274E-2],"split_indices":[35,33,30,11,26,27,29,0,0,0,0,0,0,0,0],"split_type":[0,0,0,0,0,0,0,0,0,0,0,0,0,0,0],"sum_hessian":[8.303788E3,5.972821E3,2.330968E3,4.366497E3,1.6063235E3,1.7601873E3,5.7078064E2,3.6537058E3,7.1279126E2,8.3225256E2,7.740709E2,1.01113165E3,7.4905566E2,1.7102397E2,3.9975668E2],"tree_param":{"num_deleted":"0","num_feature":"54","num_nodes":"15","size_leaf_vector":"0"}},{"base_weights":[-0E0,5.611276E-2,-1.2135025E-3,-0E0,1.17037185E-1,-2.7311912E-2,1.6981999E-3,-0E0,-2.3055237E-3,-0E0,1.5812056E-1,1.5518394E-2,-5.3995587E-2,1.8813102E-2,-4.212775E-3],"categories":[],"categories_nodes":[],"categories_segments":[],"categories_sizes":[],"default_left":[1,1,1,1,1,1,1,0,0,0,0,0,0,0,0],"id":78,"left_children":[1,3,5,7,9,11,13,-1,-1,-1,-1,-1,-1,-1,-1],"loss_changes":[8.537906E-1,1.4707747E0,7.706093E-1,4.206691E-4,1.4281955E0,1.5561588E0,7.274176E-1,0E0,0E0,0E0,0E0,0E0,0E0,0E0,0E0],"parents":[2147483647,0,0,1,1,2,2,3,3,4,4,5,5,6,6],"right_children":[2,4,6,8,10,12,14,-1,-1,-1,-1,-1,-1,-1,-1],"split_conditions":[1.1026E4,9.88E3,1.51555E4,4.85E1,4.15E1,5.15E1,5E-1,-0E0,-2.3055237E-3,-0E0,1.5812056E-1,1.5518394E-2,-5.3995587E-2,1.8813102E-2,-4.212775E-3],"split_indices":[29,29,29,13,13,13,8,0,0,0,0,0,0,0,0],"split_type":[0,0,0,0,0,0,0,0,0,0,0,0,0,0,0],"sum_hessian":[7.0355767E3,2.6699548E2,6.768581E3,9.901852E1,1.6797697E2,1.0232189E3,5.7453623E3,2.0877531E1,7.814098E1,1.927795E1,1.4869902E2,2.4907802E2,7.741408E2,1.9086261E3,3.836736E3],"tree_param":{"num_deleted":"0","num_feature":"54","num_nodes":"15","size_leaf_vector":"0"}},{"base_weights":[-0E0,-3.7607834E-2,2.8888827E-2,4.7306996E-2,-9.901998E-2,-0E0,9.6823655E-2,-0E0,9.772401E-2,-1.2567285E-1,1.161931E-1,2.094989E-2,-6.662353E-2,2.9528928E-1,-0E0],"categories":[],"categories_nodes":[],"categories_segments":[],"categories_sizes":[],"default_left":[1,1,1,1,1,1,1,0,0,0,0,0,0,0,0],"id":79,"left_children":[1,3,5,7,9,11,13,-1,-1,-1,-1,-1,-1,-1,-1],"loss_changes":[3.5587645E0,7.557871E0,4.250172E0,1.6472543E0,4.994464E0,2.0586185E0,1.1362232E1,0E0,0E0,0E0,0E0,0E0,0E0,0E0,0E0],"parents":[2147483647,0,0,1,1,2,2,3,3,4,4,5,5,6,6],"right_children":[2,4,6,8,10,12,14,-1,-1,-1,-1,-1,-1,-1,-1],"split_conditions":[5E-1,9.5E0,5E-1,6.0450006E-1,6.5E0,1.5E0,2.35E1,-0E0,9.772401E-2,-1.2567285E-1,1.161931E-1,2.094989E-2,-6.662353E-2,2.9528928E-1,-0E0],"split_indices":[14,11,35,33,28,8,14,0,0,0,0,0,0,0,0],"split_type":[0,0,0,0,0,0,0,0,0,0,0,0,0,0,0],"sum_hessian":[3.3248755E3,1.348247E3,1.9766285E3,4.976037E2,8.506432E2,1.3482158E3,6.2841266E2,2.0927283E2,2.8833087E2,7.986204E2,5.2022797E1,9.826944E2,3.6552145E2,1.9697824E2,4.3143442E2],"tree_param":{"num_deleted":"0","num_feature":"54","num_nodes":"15","size_leaf_vector":"0"}},{"base_weights":[-5.178895E-4,-2.2372935E-2,1.0223157E-1,4.328188E-3,-1.201579E-1,1.8147351E-1,-3.945241E-2,-5.251979E-2,6.0158573E-2,-1.8025224E-1,4.8751943E-2,-0E0,2.3857252E-1,-1.171014E-1,-0E0],"categories":[],"categories_nodes":[],"categories_segments":[],"categories_sizes":[],"default_left":[1,1,1,1,1,1,1,0,0,0,0,0,0,0,0],"id":80,"left_children":[1,3,5,7,9,11,13,-1,-1,-1,-1,-1,-1,-1,-1],"loss_changes":[4.3736696E0,6.32733E0,5.062027E0,4.762812E0,6.449379E0,4.176053E0,6.827895E-1,0E0,0E0,0E0,0E0,0E0,0E0,0E0,0E0],"parents":[2147483647,0,0,1,1,2,2,3,3,4,4,5,5,6,6],"right_children":[2,4,6,8,10,12,14,-1,-1,-1,-1,-1,-1,-1,-1],"split_conditions":[5E-1,5E-1,2.5E0,1.5E0,7.05E1,5.35E1,5E-1,-5.251979E-2,6.0158573E-2,-1.8025224E-1,4.8751943E-2,-0E0,2.3857252E-1,-1.171014E-1,-0E0],"split_indices":[15,14,16,8,14,11,6,0,0,0,0,0,0,0,0],"split_type":[0,0,0,0,0,0,0,0,0,0,0,0,0,0,0],"sum_hessian":[2.3012722E3,1.978539E3,3.227334E2,1.4745809E3,5.0395795E2,2.5205898E2,7.067441E1,6.419132E2,8.326677E2,4.1532916E2,8.86288E1,3.326552E1,2.1879346E2,5.6927914E1,1.3746498E1],"tree_param":{"num_deleted":"0","num_feature":"54","num_nodes":"15","size_leaf_vector":"0"}},{"base_weights":[-0E0,-0E0,-1.5576096E-1,1.5433318E-3,-1.7013988E-1,-0E0,-4.8566067E-1,-3.8566676E-3,2.0386543E-2,-0E0,-2.0595822E-1,-5.2594244E-1,-0E0],"categories":[],"categories_nodes":[],"categories_segments":[],"categories_sizes":[],"default_left":[1,1,1,1,1,0,1,0,0,0,0,0,0],"id":81,"left_children":[1,3,5,7,9,-1,11,-1,-1,-1,-1,-1,-1],"loss_changes":[8.353776E-1,8.591921E-1,4.154316E0,1.0016391E0,3.018114E-1,0E0,3.4232903E-1,0E0,0E0,0E0,0E0,0E0,0E0],"parents":[2147483647,0,0,1,1,2,2,3,3,4,4,6,6],"right_children":[2,4,6,8,10,-1,12,-1,-1,-1,-1,-1,-1],"split_conditions":[5.13E2,4.35E1,3.45E1,6.75E1,2.45E1,-0E0,5E0,-3.8566676E-3,2.0386543E-2,-0E0,-2.0595822E-1,-5.2594244E-1,-0E0],"split_indices":[14,17,27,11,13,0,18,0,0,0,0,0,0],"split_type":[0,0,0,0,0,0,0,0,0,0,0,0,0],"sum_hessian":[8.278957E3,8.245525E3,3.3432266E1,8.2175205E3,2.8004725E1,1.327751E1,2.0154757E1,5.975259E3,2.2422615E3,2.096179E0,2.5908546E1,1.8275938E1,1.8788171E0],"tree_param":{"num_deleted":"0","num_feature":"54","num_nodes":"13","size_leaf_vector":"0"}},{"base_weights":[-0E0,6.6990373E-3,-1.9880496E-2,-1.590488E-2,2.2120105E-2,2.3539701E-2,-6.427958E-2,-3.370014E-2,4.8328654E-4,3.0015858E-2,-2.5709068E-2,-4.540534E-4,1.0465992E-1,-7.905025E-2,-0E0],"categories":[],"categories_nodes":[],"categories_segments":[],"categories_sizes":[],"default_left":[1,1,1,1,1,1,1,0,0,0,0,0,0,0,0],"id":82,"left_children":[1,3,5,7,9,11,13,-1,-1,-1,-1,-1,-1,-1,-1],"loss_changes":[8.305261E-1,1.9967618E0,3.245281E0,9.1195047E-1,1.3890241E0,2.2696958E0,1.5681591E0,0E0,0E0,0E0,0E0,0E0,0E0,0E0,0E0],"parents":[2147483647,0,0,1,1,2,2,3,3,4,4,5,5,6,6],"right_children":[2,4,6,8,10,12,14,-1,-1,-1,-1,-1,-1,-1,-1],"split_conditions":[1.5E0,6.05E1,5.75E1,1.5E0,5.55E1,6.96E-1,3.5E0,-3.370014E-2,4.8328654E-4,3.0015858E-2,-2.5709068E-2,-4.540534E-4,1.0465992E-1,-7.905025E-2,-0E0],"split_indices":[26,13,13,8,14,33,25,0,0,0,0,0,0,0,0],"split_type":[0,0,0,0,0,0,0,0,0,0,0,0,0,0,0],"sum_hessian":[7.018305E3,5.5480195E3,1.4702854E3,1.9870067E3,3.561013E3,6.2970435E2,8.4058105E2,1.2446407E3,7.4236597E2,3.23622E3,3.2479297E2,3.9159796E2,2.3810635E2,8.0641003E2,3.4171043E1],"tree_param":{"num_deleted":"0","num_feature":"54","num_nodes":"15","size_leaf_vector":"0"}},{"base_weights":[2.6712002E-4,-2.4247698E-2,4.8439126E-2,-6.916148E-3,-1.4623111E-1,1.0674201E-2,1.6452776E-1,-2.4919156E-2,7.7249326E-2,-2.2051013E-1,-0E0,4.9928974E-2,-4.2131975E-2,1.9726403E-1,-0E0],"categories":[],"categories_nodes":[],"categories_segments":[],"categories_sizes":[],"default_left":[1,1,1,1,1,1,1,0,0,0,0,0,0,0,0],"id":83,"left_children":[1,3,5,7,9,11,13,-1,-1,-1,-1,-1,-1,-1,-1],"loss_changes":[4.148E0,2.8110943E0,3.7400475E0,2.3147614E0,4.083851E0,2.17702E0,2.2648182E0,0E0,0E0,0E0,0E0,0E0,0E0,0E0,0E0],"parents":[2147483647,0,0,1,1,2,2,3,3,4,4,5,5,6,6],"right_children":[2,4,6,8,10,12,14,-1,-1,-1,-1,-1,-1,-1,-1],"split_conditions":[2.5E0,7.05E1,2.45E1,4.525E2,2.92E2,3.25E1,1.165E2,